abandon 0.327 0.633 0.267 0.099 0.076 0.101 0.797 0.392 0.279 0.594 0.924 0.022 0.086 0.75 1.01 0.594 0.707 0.456 0.829 0.866
abandonment 0.511 0.283 0.791 0.144 0.084 0.389 1.026 0.91 0.68 0.285 0.799 0.369 0.022 0.199 0.862 0.137 0.218 0.883 0.857 0.528
abashed 0.574 0.432 0.749 0.899 0.915 0.035 0.955 0.028 0.474 0.583 0.403 0.224 0.903 0.272 0.638 0.534 0.284 0.261 0.381 0.167
abbreviate 0.088 0.58 0.276 0.573 0.2 0.311 0.802 0.152 0.695 0.117 0.776 0.389 0.33 0.356 0.744 0.941 0.175 0.415 0.266 0.797
abductor 0.037 0.894 0.052 0.34 0.565 0.209 0.131 0.356 0.357 0.558 0.06 0.883 0.287 0.562 0.822 0.412 0.996 0.723 0.125 0.034
ablaze 0.959 0.971 0.168 0.14 0.525 0.213 0.764 0.482 0.88 0.244 0.88 0.088 0.265 0.188 0.749 0.223 0.195 0.708 0.175 0.522
abnormal 0.164 0.848 0.966 0.179 0.444 0.772 0.724 0.63 0.29 0.17 0.168 1.004 0.076 0.235 0.422 0.437 0.426 0.865 0.494 0.842
abnormality 0.1 0.948 0.97 0.204 0.796 0.74 0.08 0.345 0.574 0.762 0.322 0.389 0.482 0.02 0.108 0.214 0.908 0.902 0.387 0.557
abortion 0.027 0.487 0.175 0.377 0.904 0.568 0.79 0.969 1.049 0.208 0.429 0.008 0.102 0.88 0.238 -0.008 0.764 0.734 0.392 -0.041
about 8.268 -10.717 10.7 4.743 -3.222 -11.086 7.855 0.206 5.937 -4.158 -5.216 13.801 -8.081 4.422 -2.092 4.508 -7.115 -7.406 -9.93 -6.069
abraham 1.135 0.763 1.262 1.204 0.288 0.564 0.401 0.11 -0.035 0.451 0.3 1.486 0.535 1.386 0.208 0.593 1.682 1.139 0.21 0.212
absconding 0.751 0.544 0.482 0.329 0.385 0.397 0.76 0.793 0.1 0.298 0.53 0.345 0.111 0.219 0.127 0.503 0.272 0.556 0.808 0.86
absence 0.182 0.925 0.385 0.742 0.737 0.087 0.583 0.703 0.238 0.361 0.818 0.712 0.641 1.047 0.071 0.43 -0.011 0.905 0.08 0.394
absolute 0.118 0.087 -0.014 0.422 1.281 0.088 1.144 0.201 0.058 0.223 0.96 0.374 1.062 0.316 0.883 0.697 0.345 0.951 1.41 0.039
absorbance 0.122 0.786 0.821 0.229 0.439 0.438 0.883 0.216 0.616 0.526 0.737 0.189 0.169 0.343 0.545 0.341 0.253 0.787 0.769 0.513
absorbing 0.54 0.977 0.012 0.44 0.372 0.167 0.959 0.275 0.072 0.844 0.595 1.028 0.209 0.203 0.252 0.762 0.144 0.819 0.704 0.414
abstract -0.34 1.143 1.173 0.463 1.351 0.866 0.773 0.08 0.234 0.889 1.308 0.355 0.648 0.277 1.448 0.786 1.306 0.025 0.552 -0.442
abstractionist 0.309 0.01 0.807 0.412 0.612 0.861 0.378 0.084 0.518 0.251 0.798 0.192 0.227 0.894 0.805 0.025 0.048 0.838 0.721 0.41
abundance 0.888 0.566 0.893 0.405 0.484 0.743 0.934 0.716 0.38 0.244 0.057 0.777 0.45 0.849 0.222 0.479 0.036 0.502 0.808 0.722
abuse -0.065 0.32 -0.377 0.758 0.831 -0.266 1.025 0.742 0.417 0.213 0.949 0.056 0.479 1.258 0.499 -0.067 1.117 1.239 0.892 -0.008
academicism 0.175 0.85 0.218 0.559 0.88 0.598 0.962 0.198 0.298 0.321 0.479 0.672 0.799 0.713 0.977 0.449 0.15 0.366 0.258 0.118
accelerate 0.448 0.66 0.762 1.05 0.672 0.584 -0.021 0.277 0.504 0.038 0.522 0.216 0.987 0.439 0.565 0.636 0.078 0.11 0.432 0.406
accentuate 0.333 0.447 0.251 0.862 0.003 0.256 0.828 0.378 0.677 0.128 0.883 0.5 0.361 0.462 1.005 -0.008 0.681 0.056 0.645 1.016
acceptable 0.573 0.92 0.823 0.046 0.621 0.97 1.012 0.502 0.522 0.463 0.155 0.276 0.705 0.283 0.328 0.839 0.886 0.785 0.23 0.853
acceptance 0.36 0.668 0.27 0.378 0.108 0.998 0.346 0.26 0.101 0.596 1.042 0.197 0.682 0.628 0.783 0.386 0.335 -0.056 -0.106 0.589
accessible 0.299 -0.058 0.48 0.589 1.013 0.413 0.467 0.759 0.963 0.32 0.674 0.659 0.504 0.746 0.087 0.341 0.81 -0.022 0.032 0.572
acclaim 0.496 0.997 0.587 1.036 0.588 0.416 0.402 0.849 0.123 0.29 0.432 0.6 0.663 0.595 0.088 0.782 0.872 0.494 0.034 0.275
accommodation 0.766 0.334 0.145 0.505 0.831 0.746 0.878 0.861 0.312 0.58 0.845 0.095 0.68 0.004 0.9 0.207 0.731 0.488 0.577 0.579
accommodative 0.64 0.761 0.942 0.425 0.031 0.467 0.627 0.816 0.336 0.326 0.288 0.309 0.993 0.713 0.362 0.7 0.349 0.875 0.117 0.614
accomplished 0.985 0.703 1.041 0.596 0.797 0.599 0.142 0.581 0.839 0.117 0.63 0.092 0.967 0.62 0.858 0.193 0.19 0.213 0.748 0.454
accomplishments 0.288 0.989 0.463 0.823 0.455 0.673 0.42 0.344 0.259 0.259 0.607 0.988 0.614 0.542 0.762 0.88 0.162 0.335 0.966 1.061
accordance 0.008 0.223 0.863 0.139 0.292 0.772 0.55 0.271 0.078 0.721 0.246 0.933 0.657 0.532 0.88 0.002 0.051 0.044 0.42 0.762
account 0.436 -0.455 0.793 1.367 1.343 0.012 0.262 0.905 -0.118 0.746 0.04 -0.404 0.885 0.694 1.092 0.002 1.0 -0.199 0.107 0.876
ache 0.056 0.693 0.387 0.643 0.118 0.6 0.357 0.653 0.711 0.412 0.644 0.242 0.786 0.167 0.481 0.806 0.897 0.63 0.556 0.261
acknowledge 0.792 0.138 0.846 0.706 0.928 0.249 0.018 0.635 0.527 0.729 -0.038 0.491 0.463 0.338 0.821 0.127 0.143 0.005 0.907 0.711
acknowledgement 0.631 0.612 0.226 0.97 0.943 0.618 0.537 0.225 0.688 0.167 0.84 0.664 0.619 0.205 0.353 0.411 0.668 0.014 0.633 0.609
acoustic 0.677 0.126 0.707 0.242 0.469 0.1 0.802 0.206 1.136 1.221 0.886 0.901 -0.053 0.617 0.382 -0.082 0.092 0.145 1.026 0.425
acoustical 0.939 0.335 0.937 0.798 0.461 0.674 0.529 0.712 0.518 0.269 0.815 0.14 0.75 0.723 0.561 0.795 0.67 0.139 0.992 0.815
acoustics 0.42 0.25 0.195 0.543 0.474 0.186 0.079 0.462 0.524 0.617 0.873 -0.026 0.571 0.734 0.969 0.963 0.641 0.381 0.405 0.2
acquiring 0.182 0.74 0.375 0.484 0.304 0.168 0.634 1.05 0.386 0.015 0.72 0.893 0.386 0.201 0.637 0.827 0.609 0.339 0.035 0.56
acquisition 0.664 0.557 0.106 0.887 0.381 0.328 0.954 0.62 0.921 0.495 0.289 -0.008 0.885 0.753 0.903 0.581 0.728 0.283 0.911 0.374
acquisitive 0.26 0.702 0.784 0.887 0.659 0.164 0.074 0.753 0.122 0.345 0.739 0.262 0.404 0.235 0.854 0.86 0.375 0.814 0.126 0.419
acre 0.705 0.062 0.528 0.061 0.208 0.012 0.08 0.777 1.102 0.976 0.416 0.041 0.969 0.436 0.69 0.133 0.678 0.815 0.046 1.035
acrobat 0.929 0.86 0.252 0.479 0.606 0.34 0.431 0.677 0.629 0.519 0.321 0.279 0.287 0.817 0.161 0.485 0.353 0.833 0.64 0.142
acronymic 0.38 0.385 0.172 0.324 0.912 0.289 0.411 0.622 0.056 0.78 0.26 0.472 0.283 0.656 0.033 0.265 0.264 0.426 0.341 0.302
acrylic 0.728 0.567 0.493 0.336 0.159 0.257 0.068 0.183 0.903 0.831 0.569 0.692 0.107 0.903 0.522 -0.005 -0.019 0.906 0.299 0.529
act 1.058 1.59 0.859 0.403 0.07 1.017 0.644 -1.218 0.75 -0.729 1.135 0.238 2.327 0.642 1.563 -0.488 1.428 0.765 0.601 0.828
acting -0.166 0.902 0.402 1.235 1.053 0.562 0.343 0.518 0.581 1.047 0.801 0.73 0.207 0.549 0.867 1.335 -0.37 -0.194 0.393 0.366
action 0.523 -0.341 -0.115 2.732 1.316 0.312 -0.268 0.733 0.653 1.562 -0.817 1.758 -0.786 -1.174 1.377 1.902 0.692 -0.177 1.022 2.94
active -0.227 0.049 0.915 -1.282 1.861 0.9 0.172 1.888 0.04 1.283 1.038 1.049 -0.013 1.269 -0.172 -0.465 0.911 0.887 -0.062 0.998
activity -0.113 1.191 -0.381 1.115 1.805 -0.293 -0.178 -0.561 1.117 0.525 1.356 0.52 1.046 -0.609 -0.307 1.996 1.319 1.019 1.49 -0.355
actor 0.424 0.621 0.498 -0.03 1.634 0.367 1.403 0.646 1.779 0.885 -0.749 1.69 0.536 2.114 -1.105 -0.677 0.151 0.601 -0.293 1.265
actress -0.47 0.781 -0.113 1.383 0.119 0.867 0.589 0.603 0.624 0.71 1.268 0.124 0.581 -0.15 0.834 0.603 0.684 0.379 1.181 0.846
actuator 0.309 0.285 0.712 0.203 0.118 0.188 0.952 0.84 0.1 0.416 0.327 0.244 0.322 0.096 0.789 0.661 0.558 0.869 0.109 0.723
ad 1.016 -1.258 1.708 1.209 0.478 0.024 0.807 1.033 -0.159 -0.722 1.079 0.094 0.897 0.1 0.367 0.941 1.617 0.309 1.137 1.39
adapt 0.618 0.981 0.626 0.968 0.309 0.717 0.264 0.644 0.091 0.511 0.958 0.724 0.624 0.656 0.567 0.473 0.484 0.752 0.747 0.15
adaptive 0.9 0.919 0.257 0.823 0.478 0.688 0.007 0.88 0.62 0.251 0.395 0.259 0.995 0.245 0.43 0.884 0.945 0.751 0.836 0.556
addiction 0.261 0.594 0.523 0.668 0.169 0.937 0.661 0.882 0.517 0.883 0.877 0.297 0.896 0.37 1.149 0.538 0.342 0.478 0.226 0.516
addition 0.864 1.055 0.949 0.248 0.227 0.583 0.387 1.178 1.109 0.204 0.99 0.892 0.917 1.272 0.428 0.659 -0.11 1.105 0.195 0.475
address -0.144 -1.103 1.15 0.176 0.95 0.156 0.322 1.058 0.03 0.753 -0.595 0.68 0.242 1.301 2.198 -0.51 0.708 -0.653 1.813 -0.031
adhesion 0.507 0.559 0.152 0.113 0.061 0.272 0.289 0.509 0.762 0.894 0.292 1.017 0.661 0.262 0.685 0.744 0.473 0.784 0.109 0.208
adhesive 0.61 0.252 0.652 0.546 0.218 0.274 0.061 0.368 0.054 0.386 0.384 0.773 0.516 0.307 0.277 0.811 0.639 0.337 0.323 0.615
adjournment 0.372 0.143 0.228 0.538 0.371 0.895 0.105 0.261 0.003 0.72 0.093 0.193 0.51 0.75 0.455 0.84 0.526 0.597 0.318 0.824
adjustment 0.384 0.26 0.412 0.007 0.778 0.791 0.415 0.594 0.54 0.634 0.335 0.439 0.407 0.763 0.071 0.57 0.451 0.511 0.296 0.652
adjustor 0.467 0.505 0.039 0.345 0.19 0.88 0.973 0.529 0.167 0.392 0.204 0.181 0.956 0.022 0.175 0.399 0.479 0.987 0.408 0.093
administration -0.142 0.727 0.192 0.213 -0.188 0.535 1.552 2.063 0.402 0.829 1.35 -0.293 0.565 0.039 0.175 1.128 0.868 0.017 1.256 0.555
admiralty 0.124 0.833 0.488 0.424 0.305 0.159 0.744 0.366 0.553 0.955 0.527 0.061 0.129 0.72 0.596 0.504 0.234 0.64 0.744 0.594
admission 0.429 0.796 0.845 0.08 0.833 0.018 0.036 0.09 1.03 0.682 0.824 0.763 0.771 0.142 0.615 0.123 0.641 1.047 0.913 0.242
admit 0.618 0.736 0.89 0.761 0.314 0.869 0.817 0.124 0.729 0.021 0.378 0.14 0.872 0.994 0.085 0.35 0.033 0.329 0.444 0.915
admittance 0.443 0.48 0.0 0.722 0.662 0.401 0.252 -0.006 0.315 0.92 0.312 0.289 0.583 0.179 0.529 0.689 0.586 0.215 0.547 0.476
admitting 0.716 0.39 0.955 0.276 0.716 0.278 0.797 0.641 0.276 0.729 0.918 0.333 0.917 0.777 0.781 -0.009 0.262 0.842 0.763 0.809
adult 1.157 0.512 0.863 0.137 0.283 -0.575 -0.231 0.369 0.915 0.832 0.302 -0.024 0.404 1.267 0.685 0.379 1.072 0.744 0.365 1.119
adulteration 0.994 0.473 0.014 0.718 0.924 0.69 0.385 0.654 0.444 0.486 0.576 0.516 0.494 0.601 0.894 0.755 0.534 0.798 0.414 0.987
advancement 0.327 0.258 0.582 0.544 0.445 0.202 0.607 0.953 0.425 0.609 0.752 0.967 0.896 0.007 0.133 0.992 0.052 0.12 0.609 0.744
adventism 0.902 0.17 0.242 0.715 0.792 0.619 0.252 0.511 0.657 0.451 0.912 0.286 0.753 0.744 0.556 0.171 0.868 0.981 0.183 0.606
adventure 0.984 0.956 0.877 -0.076 0.873 0.698 0.191 -0.09 0.58 0.875 -0.256 0.944 0.036 0.231 0.996 0.476 -0.026 -0.299 1.184 0.482
adverse 0.29 0.5 1.151 0.914 0.534 0.162 0.051 0.63 0.511 0.516 0.9 0.112 0.863 0.12 0.82 0.389 0.784 0.113 0.095 0.727
adversely 0.118 0.062 0.665 0.501 0.36 0.762 0.473 0.482 0.353 0.739 0.719 0.146 0.256 0.99 0.526 0.621 0.782 0.807 0.049 0.214
advertisement 0.651 0.36 0.851 1.015 0.905 0.493 0.316 0.065 0.295 0.735 0.338 0.019 0.165 0.783 0.705 0.296 0.764 0.311 0.781 0.921
advertiser 0.554 0.957 0.642 0.776 0.508 1.014 0.045 0.654 0.528 0.105 0.101 0.668 0.629 0.731 0.507 0.975 0.343 0.191 0.501 0.602
advise 0.745 0.073 0.908 0.223 0.437 0.674 0.685 0.274 0.558 0.063 0.497 0.165 0.587 0.321 0.276 0.521 0.544 0.032 0.641 0.788
advised 0.391 0.665 0.905 0.179 0.251 0.583 0.464 0.086 0.653 0.513 0.041 0.563 0.459 0.227 0.608 0.995 0.85 0.565 0.308 1.04
advisory 0.517 0.966 0.11 1.045 0.995 0.899 -0.15 1.051 0.439 0.852 1.001 0.288 1.028 0.652 1.085 0.274 0.225 0.95 0.608 0.22
advocate 0.681 0.627 0.143 0.408 0.999 0.289 1.036 0.298 0.927 0.509 0.126 0.09 1.052 0.124 0.4 0.491 0.762 -0.071 0.165 -0.026
aerial 0.105 1.145 0.997 0.684 0.62 0.176 0.049 0.848 0.361 1.156 0.889 0.669 0.04 0.173 0.278 0.942 0.93 0.792 0.017 0.434
aerialist 0.588 0.024 0.831 0.646 0.374 0.157 0.315 0.248 0.364 0.038 0.349 0.043 0.396 0.837 0.211 0.698 0.199 0.677 0.625 0.105
aeronautical 0.355 0.378 0.143 0.163 0.825 0.107 0.833 0.679 0.191 0.31 0.061 0.32 0.163 0.891 0.196 0.746 0.545 0.13 0.803 0.501
aeronautics 0.48 0.084 0.035 0.36 0.033 0.156 0.636 0.136 0.349 -0.001 0.689 0.372 0.613 0.467 0.293 0.93 0.116 0.038 0.536 0.23
affect 0.017 0.618 0.85 1.045 0.738 -0.172 0.559 0.21 0.247 0.369 0.784 0.928 0.638 0.511 0.471 0.205 0.654 0.101 0.705 0.492
affectional 0.345 0.037 0.758 0.775 0.838 0.012 0.775 0.747 0.763 0.832 0.092 0.304 0.95 0.8 0.024 0.13 0.967 0.178 0.502 0.38
affiliation 0.069 0.952 0.9 0.738 0.601 0.864 0.434 0.613 0.145 0.569 0.779 0.975 0.869 0.092 0.385 0.878 0.414 0.182 0.758 -0.113
affirm 0.332 0.085 0.758 0.388 0.107 0.372 0.619 0.965 0.685 0.731 0.16 0.415 0.81 0.985 0.365 1.002 0.383 0.643 0.229 0.766
affordable 0.816 0.159 0.611 0.24 -0.025 0.481 0.812 0.194 0.216 0.24 0.395 0.275 0.566 0.933 0.864 0.677 0.563 0.007 0.251 0.938
afghani 0.663 0.245 0.853 0.786 0.157 0.716 0.48 0.031 0.211 0.758 0.226 0.758 0.66 0.848 0.402 -0.012 0.861 0.88 0.934 0.672
afghanistan 0.885 0.458 1.219 0.626 -0.008 0.171 0.206 0.135 -0.234 0.173 0.961 0.084 0.543 0.634 1.058 0.707 0.518 0.866 0.176 1.263
africa 0.996 0.282 -0.066 1.683 0.532 0.075 -0.128 0.359 0.498 1.374 0.913 0.363 0.696 0.966 1.789 -0.064 0.988 0.922 0.457 1.214
african -1.108 2.691 -0.574 -0.311 0.383 -1.007 2.294 -0.989 1.796 3.275 1.324 -0.444 0.053 1.897 2.178 -1.951 0.827 1.305 -0.666 -0.773
afternoon 0.084 0.954 0.528 0.941 0.459 0.782 0.437 0.154 0.133 0.17 0.906 0.449 0.454 1.069 0.039 0.111 0.13 -0.022 0.633 0.385
age 1.559 -1.532 -0.381 -0.542 0.682 -1.122 2.599 4.148 -4.266 0.27 -1.263 3.876 -2.685 -0.263 5.038 -2.32 3.538 0.892 -3.027 3.298
agency 0.672 -0.15 0.381 0.492 0.297 -0.189 -0.107 -0.333 0.804 1.474 1.276 2.13 -0.408 1.66 1.198 -0.277 0.704 1.56 1.025 0.303
agent 0.175 -0.201 0.243 0.423 0.152 1.167 1.042 0.669 0.422 -0.11 0.317 0.303 0.805 0.918 1.351 0.452 -0.047 0.962 0.515 0.165
agitation 0.484 0.757 0.44 0.836 0.71 0.968 0.426 0.2 0.984 0.95 0.372 0.911 0.441 0.925 0.028 0.157 0.866 0.834 0.374 0.812
agreement -0.385 1.553 1.226 -0.0 0.91 -0.038 1.032 0.771 1.291 1.596 -0.048 0.115 1.028 1.327 0.701 0.394 0.246 1.684 -0.367 -0.279
aid 0.357 -0.342 0.099 1.359 0.012 -0.408 0.055 0.712 -0.247 -0.255 0.456 1.018 0.573 1.138 1.304 2.059 0.532 0.788 0.179 0.405
aim 0.938 0.681 0.547 0.653 0.555 -0.161 0.408 0.85 0.848 0.354 -0.206 -0.193 0.373 1.283 0.113 0.691 0.424 0.078 0.141 -0.095
air 1.862 0.37 2.636 3.051 -1.506 6.693 0.166 -3.845 0.695 2.624 -0.481 4.274 0.459 0.308 1.1 -5.183 -2.385 -6.163 5.732 3.009
aircraft -0.279 1.409 0.218 2.008 0.913 1.886 2.213 -0.289 -1.081 0.317 1.486 -0.278 2.642 0.513 0.107 -1.483 0.697 -0.44 2.045 1.411
airplane 0.103 0.386 -0.063 0.2 0.817 0.437 0.262 0.807 -0.063 0.724 0.543 0.011 0.629 0.427 0.033 0.661 0.803 0.971 0.413 0.367
airport -0.522 1.672 0.973 1.273 0.561 -0.903 1.775 1.297 1.555 0.842 0.016 0.126 1.746 -0.655 -0.541 1.327 1.352 0.8 0.046 0.894
airship 0.623 0.962 0.757 0.679 0.973 0.713 0.466 0.911 0.219 0.524 0.068 0.108 0.437 0.304 0.758 0.062 0.337 0.298 0.84 0.234
alarm 0.456 0.291 -0.054 0.156 0.485 0.085 0.928 0.163 0.584 0.83 0.025 0.481 0.125 1.038 0.808 0.618 0.582 0.185 0.718 1.022
alarmism 0.461 0.583 0.951 0.125 0.623 0.359 0.0 0.69 0.144 0.8 0.93 0.853 0.026 0.722 0.223 0.018 0.602 0.505 0.691 0.769
albert 1.145 -0.5 0.817 0.715 0.745 0.731 0.359 1.324 0.702 1.021 0.371 -0.288 -0.125 1.732 -0.208 0.43 -0.517 0.188 -0.094 1.362
alcohol 0.425 0.817 0.554 0.443 0.976 0.07 0.119 -0.357 -0.098 -0.029 1.382 -0.065 1.298 0.793 0.099 0.532 0.01 -0.278 0.598 0.979
algebra 0.76 0.996 0.844 0.641 0.433 1.273 -0.31 0.627 -0.204 1.182 0.643 0.905 0.653 0.334 -0.992 0.416 0.483 0.258 0.883 0.129
algebraic 0.103 -0.055 1.091 0.542 0.498 0.593 0.195 0.462 0.652 0.971 -0.039 -0.094 0.721 0.069 0.616 0.457 -0.184 0.036 0.588 0.775
algebraist 0.392 0.306 0.136 0.38 0.061 0.018 0.225 0.041 0.009 0.9 0.836 1.012 0.701 0.049 0.611 0.751 0.57 0.793 0.35 0.45
algebras 0.501 0.598 0.31 0.815 0.298 1.095 -0.024 0.804 0.478 0.324 -0.139 0.161 -0.037 0.453 0.183 1.035 0.591 0.506 0.376 0.522
algorithm 0.388 0.766 1.276 -0.146 1.236 0.926 -0.364 -0.288 1.038 0.433 -0.097 -0.15 0.318 1.005 -0.191 0.033 0.883 -0.426 0.241 0.807
alien 0.79 -0.308 0.469 0.472 1.104 0.754 0.562 1.007 0.474 0.916 0.83 0.817 0.496 0.978 0.736 0.833 1.258 0.491 0.757 0.219
allergic 0.766 0.711 0.284 0.159 0.983 0.228 0.028 0.139 0.738 0.41 0.855 0.749 0.108 -0.012 0.542 0.129 0.833 0.035 0.744 0.721
alleviated 0.938 0.355 0.485 0.228 0.343 0.156 0.509 0.402 0.928 0.844 0.684 0.262 0.863 0.723 0.876 0.538 0.009 0.036 0.972 0.852
alley 0.534 0.96 0.233 0.211 0.207 0.807 0.923 0.11 0.081 0.641 0.61 0.078 0.711 0.518 1.04 0.069 0.449 0.794 0.606 1.107
allow 0.674 0.842 0.459 0.453 1.369 1.123 0.548 0.187 0.33 0.586 0.319 1.529 0.878 0.83 0.275 1.297 1.354 1.394 -0.253 -0.311
alloy -0.067 0.341 0.336 0.754 0.478 0.322 0.557 0.667 1.011 0.741 0.296 0.543 0.177 0.388 0.886 0.166 0.295 0.066 0.199 0.355
allurement 0.847 0.462 0.998 0.839 0.933 0.568 0.241 0.325 0.098 0.384 0.494 0.97 0.214 0.699 0.401 0.608 0.619 0.372 0.198 0.78
alphabet 0.077 0.503 0.157 1.339 0.394 -0.08 1.098 -0.077 0.643 0.924 0.567 0.925 1.595 0.294 0.47 0.135 1.033 1.008 0.214 0.454
alt 0.484 0.199 0.318 0.38 0.83 0.98 -0.095 0.27 -0.01 0.152 0.641 0.235 0.629 0.099 0.729 -0.064 0.223 0.112 0.99 0.045
alter 0.821 0.958 0.306 0.83 0.369 0.718 0.139 0.233 0.649 0.098 0.277 0.055 0.65 0.739 0.542 0.404 0.377 0.488 0.819 0.49
alternative 0.613 2.3 -0.56 0.626 -0.87 0.426 2.078 0.792 -0.093 0.888 -0.435 0.408 -0.176 1.286 0.768 -0.742 -0.787 2.964 -0.92 0.333
aluminum 0.936 0.429 0.584 1.01 0.391 0.928 0.548 0.3 0.563 0.036 0.639 0.725 0.498 1.008 0.931 0.044 0.701 0.559 0.303 0.553
amateur 0.232 0.93 0.777 1.198 0.238 0.149 1.144 -0.029 1.072 0.216 0.651 0.988 0.252 0.998 0.363 0.65 1.254 1.317 -0.048 0.553
amateurish 0.531 0.956 0.839 0.965 0.087 0.971 0.061 0.248 0.614 0.18 0.578 0.176 0.083 0.582 0.646 0.781 0.076 0.333 0.37 0.985
amazings 0.888 0.188 0.041 0.882 0.786 0.888 0.251 0.908 0.265 0.129 0.154 0.907 0.607 0.056 0.783 0.655 0.745 0.784 0.909 0.542
ambitious 0.894 -0.057 0.999 1.089 0.167 0.248 0.84 0.01 0.948 0.225 0.218 0.852 0.362 0.905 0.757 1.093 1.025 0.484 0.462 0.357
americanize 0.948 0.69 0.058 0.894 0.547 0.358 0.195 0.743 0.163 0.042 0.521 0.152 0.216 0.732 0.095 0.861 0.259 0.461 0.149 0.009
amethysts 0.093 0.762 0.68 0.625 0.927 0.964 0.536 0.327 0.04 0.604 0.841 0.711 0.528 0.94 0.088 0.803 0.727 0.952 0.605 0.422
amorphous 0.5 0.369 0.701 0.861 0.438 0.361 0.642 0.918 0.759 0.1 0.552 0.921 0.891 0.031 0.062 0.198 0.372 0.72 0.492 0.368
amount 0.025 1.425 1.235 0.882 1.168 -0.424 1.515 0.081 1.407 1.419 0.994 -0.918 0.204 -0.319 0.251 -0.466 -0.483 0.619 0.308 -0.602
amounted 0.335 0.785 0.464 0.574 0.442 0.036 0.853 0.685 0.851 0.048 0.381 0.727 0.24 0.526 0.086 0.682 0.186 0.986 0.328 0.205
amphibian 0.448 0.528 0.232 0.567 0.355 0.09 0.764 0.977 0.118 0.305 0.539 0.646 0.179 0.893 0.12 0.808 0.576 0.275 0.189 0.522
amusement 0.005 0.619 0.759 0.932 0.714 1.011 0.881 0.529 0.362 1.042 0.374 0.889 0.287 0.395 0.27 0.449 0.378 0.083 0.472 0.935
amusements 0.393 0.957 0.099 0.269 0.633 0.566 0.98 0.99 0.188 0.948 0.569 0.807 0.37 0.386 0.462 0.479 0.254 0.548 0.292 0.275
anaesthetics 0.832 0.382 0.097 0.016 0.19 0.974 0.166 0.349 0.936 0.485 0.578 0.659 0.218 0.12 0.178 0.419 0.632 0.391 0.094 0.591
analogize 0.244 0.742 0.094 0.129 0.2 0.173 0.043 0.048 0.467 0.938 0.749 0.584 0.435 0.993 0.94 0.411 0.376 0.678 0.815 0.89
analogous 0.411 0.193 0.35 0.482 0.64 0.526 0.963 0.912 0.177 0.1 0.366 0.795 0.451 0.944 0.156 -0.162 0.816 0.925 0.593 0.694
analyze 0.626 0.329 0.01 0.605 1.045 0.633 1.016 0.968 1.053 0.568 0.572 0.083 1.014 0.83 0.316 0.209 0.124 0.149 0.529 0.287
analyzed 0.181 0.766 0.882 0.376 0.836 0.195 0.276 0.75 0.378 0.499 0.514 0.706 0.14 0.906 0.728 0.445 0.642 0.435 0.102 0.947
anamorphosis 0.579 0.706 0.696 0.988 0.446 0.938 0.982 0.445 0.02 0.298 0.178 0.825 0.511 0.117 0.573 0.928 0.322 0.435 0.762 0.697
anarchist 0.959 0.406 1.152 0.525 0.023 0.143 0.633 0.254 0.19 0.693 1.28 0.03 0.374 0.222 0.545 1.112 -0.08 0.143 0.922 0.038
anatomy 0.308 0.283 -0.055 0.403 0.649 -0.019 0.243 0.988 1.056 0.694 1.04 0.275 0.054 0.706 0.995 0.42 0.99 -0.069 0.882 0.162
ancient 1.159 0.987 1.116 -0.41 0.778 -0.667 -0.332 1.211 -0.589 -0.211 1.151 0.996 -0.395 0.658 0.544 0.902 2.651 1.702 0.476 1.129
angel 0.22 0.725 0.73 0.153 1.047 -0.067 0.672 0.391 0.463 0.263 0.622 0.505 0.676 0.394 0.817 0.773 0.338 1.03 -0.139 0.063
anger 0.205 0.608 0.788 0.814 0.695 1.058 0.747 0.582 0.508 0.365 0.562 0.42 0.916 0.091 0.622 0.572 0.173 0.245 0.761 0.332
angola 0.53 0.715 0.402 0.073 0.635 0.321 0.861 0.108 0.712 0.413 0.402 0.931 0.275 0.212 0.621 0.918 0.106 0.517 0.44 0.616
angrier 0.585 0.282 0.645 0.467 0.479 0.248 0.473 0.712 0.815 0.736 0.378 0.634 0.358 0.453 0.303 0.408 0.845 0.85 0.028 0.051
angry 0.756 0.504 0.74 0.999 0.602 0.721 0.358 0.96 0.569 0.82 0.529 0.78 1.002 0.669 0.371 0.828 0.185 0.428 0.161 0.556
angular 0.285 -0.075 -0.09 0.485 0.406 -0.21 0.715 0.487 0.323 1.097 -0.055 1.458 0.734 0.661 0.942 0.303 0.61 0.976 1.061 -0.239
animal -0.302 -0.061 1.54 0.789 1.863 1.74 -1.123 0.504 -0.024 1.377 0.323 -0.294 0.612 1.836 -0.158 0.106 0.118 0.043 0.677 -0.689
animalism 0.521 0.988 0.941 0.844 0.095 0.758 0.678 0.534 0.573 0.207 0.213 0.577 0.27 0.161 0.673 0.046 0.006 0.752 0.888 0.702
animality 0.788 0.509 0.79 0.708 0.322 0.92 0.972 0.451 0.132 0.458 0.038 0.513 0.659 0.653 0.808 0.254 0.693 0.575 0.196 0.978
animalize 0.479 0.59 0.302 0.636 0.795 0.838 0.786 0.419 0.076 0.931 0.696 0.821 0.124 0.503 0.228 0.234 0.941 0.739 0.795 0.11
ankle 0.094 0.66 0.518 0.438 0.111 0.404 0.198 0.725 0.879 0.65 0.852 0.822 0.327 0.267 0.043 0.941 0.342 0.595 0.863 0.464
annihilator 0.537 0.787 0.77 0.302 0.803 0.41 0.839 0.88 0.236 0.059 0.197 0.92 0.61 0.833 0.364 0.025 0.405 0.447 0.318 0.104
anniversary 0.122 0.523 0.437 0.485 0.924 0.41 0.162 0.962 0.645 0.421 0.241 0.376 0.046 0.626 0.935 -0.146 0.381 0.369 0.673 0.641
announced 0.986 0.482 0.571 1.253 0.158 0.739 0.492 0.49 -0.255 1.22 1.089 0.062 -0.077 0.572 0.664 0.335 0.232 0.226 0.193 -0.073
announcement 0.123 0.619 0.277 0.255 0.193 0.304 0.25 0.566 0.05 0.646 0.617 -0.019 0.456 0.348 0.856 0.329 0.175 0.547 0.137 0.472
annoy 0.731 0.766 0.315 0.378 0.7 0.596 0.561 0.017 0.646 0.984 0.503 0.176 0.779 0.431 0.573 0.128 0.824 0.948 0.469 0.012
answer -0.14 0.46 0.712 1.154 0.133 0.288 -0.036 -0.129 0.582 0.705 0.433 1.01 0.582 1.108 0.77 0.488 0.388 0.058 0.206 -0.1
antagonist 0.638 -0.003 0.991 0.074 0.398 0.683 0.785 0.688 0.282 0.607 0.285 0.246 0.465 0.81 0.301 0.022 0.513 0.278 0.306 0.29
antagonize 0.501 0.26 0.966 0.271 0.382 0.617 0.272 0.262 0.541 0.748 0.452 0.775 0.886 0.774 0.81 0.442 0.553 0.255 0.241 0.625
antecedent 0.318 0.031 0.824 -0.006 0.841 0.025 0.914 0.12 0.825 0.463 0.197 0.082 0.777 0.838 0.929 0.439 0.137 0.285 1.008 0.412
antechamber 0.639 0.568 0.554 0.217 0.011 0.863 0.269 0.117 0.918 0.165 0.877 0.246 0.851 0.66 0.156 0.829 0.058 0.033 0.156 0.411
antedating 0.728 0.004 0.537 0.954 0.226 0.675 0.818 0.441 0.859 0.193 0.997 0.412 0.483 0.46 0.923 0.727 0.849 0.722 0.142 0.534
anterooms 0.659 0.405 0.806 0.984 0.733 0.624 0.577 0.406 0.492 0.207 0.735 0.742 0.862 0.197 0.668 0.474 0.236 0.411 0.354 0.166
anticancer 0.564 0.376 0.468 0.988 0.937 0.454 0.655 0.315 0.134 0.351 0.527 0.039 0.271 0.695 0.712 0.1 0.947 0.096 0.662 0.551
anticyclones 0.34 0.451 0.339 0.653 0.064 0.279 0.353 0.578 0.332 0.655 0.341 0.442 0.026 0.193 0.12 0.727 0.799 0.603 0.737 0.043
antifeminism 0.482 0.557 0.818 0.861 0.037 0.81 0.213 0.85 0.65 0.872 0.103 0.955 0.055 0.407 0.733 0.143 0.359 0.302 0.825 0.196
antifeminist 0.054 0.293 0.171 0.057 0.026 0.98 0.681 0.754 0.737 0.342 0.443 0.985 0.114 0.953 0.803 0.031 0.23 0.687 0.441 0.991
antipsychotic 0.918 0.608 0.042 0.47 0.304 0.089 0.282 0.058 0.624 0.067 0.286 0.547 0.967 0.359 0.816 0.879 0.284 0.365 0.37 0.902
antipsychotics 0.179 -0.012 0.072 0.812 0.815 0.531 0.01 0.987 0.16 0.826 0.951 0.707 0.062 0.453 0.82 0.352 0.045 0.885 0.608 0.17
antisubmarine 0.003 0.121 0.625 0.772 0.25 0.043 0.304 0.572 0.762 0.114 0.648 0.184 0.79 0.856 0.948 0.153 0.927 0.395 0.68 0.878
antitoxic 0.903 0.34 0.802 0.822 0.541 0.489 0.658 0.532 0.92 0.965 0.296 0.221 0.535 0.767 0.867 0.71 0.267 0.552 0.321 0.43
antitumor 0.238 0.171 0.888 0.584 0.189 0.892 0.925 0.606 0.111 0.844 0.166 0.871 0.432 0.295 0.145 0.823 0.405 0.109 0.109 0.188
antonymous 0.301 0.119 0.358 0.154 0.155 0.965 0.594 0.275 0.716 0.813 0.161 0.85 0.187 0.981 0.454 0.692 0.34 0.181 0.783 0.258
anxiety 0.424 0.604 0.921 -0.031 0.971 0.163 0.581 0.634 0.848 0.962 0.418 0.123 0.85 0.932 1.062 0.077 0.835 0.427 0.031 0.719
apartment 0.637 0.379 0.111 1.05 0.616 1.029 0.124 0.238 0.36 0.405 -0.057 0.615 0.419 0.746 0.398 0.772 0.304 0.152 0.316 0.504
apocalyptical 0.117 0.946 0.794 0.187 0.929 0.462 0.064 0.4 0.501 0.023 0.195 0.97 0.014 0.123 0.474 0.143 0.783 0.1 0.443 0.54
apolitical 0.722 0.703 0.766 0.879 0.852 0.376 0.565 0.108 0.223 0.355 0.671 0.616 0.91 0.327 0.728 0.018 0.88 0.944 0.915 0.044
apollo 0.251 1.102 1.063 1.343 1.084 1.447 0.664 1.469 0.569 1.129 0.8 -0.022 1.191 0.535 0.332 0.469 -0.383 -0.517 0.111 0.451
apologize 0.42 0.006 0.978 0.173 0.819 0.085 0.847 0.319 0.757 0.496 0.914 0.16 0.818 0.137 0.139 0.7 0.179 0.717 0.858 0.264
apparel 0.83 0.963 0.085 0.707 1.012 0.328 0.708 0.612 0.376 0.535 0.54 0.651 0.744 0.687 0.543 0.259 0.852 0.662 0.896 0.93
apparition 0.09 0.621 0.702 0.023 0.468 0.219 0.006 0.932 0.662 0.009 0.529 0.382 1.0 0.865 0.561 0.837 0.507 0.769 0.801 0.671
appearance 0.685 -0.106 1.057 0.533 0.272 0.63 0.438 0.262 1.152 -0.089 1.209 0.55 0.302 -0.436 0.847 1.233 0.101 1.096 0.827 1.128
appearances 0.318 1.011 0.563 0.381 0.037 -0.028 0.707 1.034 1.004 0.229 -0.227 -0.057 0.301 0.221 0.767 0.168 0.06 0.872 0.586 0.831
append 0.297 0.182 0.97 0.627 0.498 0.679 0.634 0.085 0.377 0.739 0.106 0.807 0.918 0.128 0.331 0.389 0.989 0.818 0.486 0.289
applaud 0.5 0.845 0.685 0.843 0.336 0.517 0.059 0.211 0.893 0.819 0.93 0.952 0.272 0.296 0.449 0.816 0.295 0.033 0.8 0.139
apple 0.351 1.346 0.853 1.253 0.949 -0.532 0.047 0.351 -0.801 1.503 -0.495 0.993 0.136 0.492 1.302 1.533 0.512 0.498 0.562 0.451
appliance 0.825 0.031 0.523 0.693 0.745 0.098 0.175 0.303 0.321 0.508 0.64 0.676 0.07 0.299 0.822 0.243 0.869 0.005 0.24 0.928
apply 0.534 0.385 0.845 1.052 0.031 0.706 0.893 0.787 0.894 -0.138 0.217 0.505 1.028 0.746 -0.085 0.69 0.804 0.307 0.571 0.159
appraisal 0.324 0.496 0.596 0.969 0.298 0.791 0.849 0.918 0.967 0.095 0.398 0.986 -0.009 0.708 0.824 0.546 0.905 0.913 0.396 0.609
apprenticeship 0.855 0.189 0.97 0.504 0.158 0.01 0.006 0.052 0.642 0.924 0.956 0.8 0.798 0.214 0.424 0.789 0.268 0.69 0.486 0.133
approach 0.165 0.63 0.813 0.521 0.183 1.144 0.552 -0.059 0.623 -0.093 -0.224 0.058 0.04 -0.081 0.37 1.03 1.461 0.884 0.711 1.111
approachable 0.838 0.878 0.5 0.018 0.666 0.487 0.605 0.323 0.946 0.356 0.188 0.606 0.076 0.413 0.729 0.888 0.681 0.502 0.635 0.336
approval 0.231 0.341 0.095 0.541 1.077 0.723 0.737 0.29 0.315 0.4 1.024 0.48 0.703 0.48 0.392 0.458 0.529 0.982 -0.03 0.523
approve 0.976 0.638 0.177 0.099 0.91 0.235 0.902 0.811 0.926 0.253 0.512 0.721 0.419 0.439 0.55 0.285 0.046 0.284 0.864 0.961
approved 0.289 0.576 0.834 0.384 0.286 0.221 -0.137 -0.03 0.303 0.463 0.147 0.775 -0.021 0.799 1.027 0.56 0.463 0.363 0.658 0.993
approving 0.58 0.197 0.214 1.013 0.215 0.049 0.933 0.947 0.397 0.797 0.102 0.181 0.848 0.865 0.732 0.933 0.019 0.387 0.138 0.056
aquarium 0.382 0.089 0.406 0.521 1.017 0.318 0.304 0.572 0.059 0.897 0.767 1.054 0.904 0.701 0.439 0.763 0.407 1.009 0.859 0.049
aqueous 0.19 0.263 0.631 0.792 0.658 0.558 0.478 0.806 0.533 0.425 0.935 0.225 0.914 0.053 0.134 0.678 0.092 0.595 0.534 0.163
arab 0.014 1.802 0.494 -0.303 0.476 -0.208 0.735 0.489 0.605 0.892 0.883 0.424 0.689 -0.162 1.285 0.63 1.16 1.431 0.267 1.022
arbitrary 0.892 0.213 0.856 0.334 0.143 0.846 0.374 0.052 0.83 0.773 0.693 -0.197 0.041 0.434 0.688 0.63 0.705 0.343 0.829 -0.123
arc 0.855 0.596 0.584 0.86 0.336 0.237 0.284 0.748 0.884 0.686 0.631 0.501 0.664 1.19 0.487 -0.1 0.219 0.096 0.311 0.46
arch 0.927 0.106 0.611 0.958 0.404 0.238 0.629 0.985 0.618 0.363 0.756 0.526 0.202 0.493 1.01 1.014 0.312 0.599 -0.142 0.839
archery 0.636 0.044 0.058 0.721 0.011 0.419 0.196 0.914 0.108 0.927 0.855 -0.039 0.799 0.393 0.57 0.181 0.527 0.475 0.445 0.088
architecture 0.456 1.238 1.31 0.105 0.677 -0.346 0.121 0.622 0.118 1.113 1.5 1.273 0.384 1.396 0.663 -0.131 1.008 1.27 0.202 1.031
archive 0.898 0.542 0.834 0.996 0.073 0.493 0.367 0.025 0.294 0.962 0.993 1.098 0.768 0.159 -0.402 -0.131 0.453 0.79 0.74 0.104
area -0.451 1.645 3.185 0.049 5.02 -3.197 0.78 -1.734 -0.101 2.952 3.112 -1.342 2.018 -3.073 1.271 -1.767 2.804 -1.431 1.146 1.118
argentina 0.34 0.029 0.703 1.102 0.231 0.406 1.161 0.288 0.623 0.35 0.743 0.193 0.14 0.968 0.119 0.317 0.1 0.687 -0.026 0.644
argue 0.158 0.509 -0.006 0.418 0.631 0.194 0.477 0.046 0.282 0.101 0.349 1.152 -0.012 0.674 0.997 0.522 0.326 0.818 1.003 0.898
argument 0.089 -0.239 1.373 0.108 1.525 -0.497 0.476 1.476 0.025 1.266 0.868 0.163 0.844 0.336 -0.265 0.836 0.144 0.243 1.146 1.208
arm 0.462 0.823 0.784 0.556 0.395 0.773 0.518 0.231 1.015 0.794 0.184 1.268 0.18 1.066 1.071 0.885 0.096 0.309 0.738 0.147
armor 0.203 0.838 0.038 0.541 0.376 0.203 1.056 0.314 0.702 0.237 0.416 1.02 0.767 0.377 1.053 0.439 0.89 0.429 0.831 0.694
army 1.742 0.262 3.206 -2.387 2.659 3.954 -0.389 1.028 -1.711 -1.176 1.885 0.142 0.985 1.635 2.115 0.613 0.54 -1.908 -1.792 1.054
aroma -0.058 0.412 -0.039 0.999 0.379 0.602 0.153 0.164 0.815 0.38 0.867 0.144 0.305 0.527 0.703 0.777 0.345 0.563 0.031 0.276
arousal 0.276 0.049 0.284 0.964 0.674 0.306 0.843 -0.004 0.071 0.693 0.278 0.343 0.405 0.737 0.683 0.296 0.318 0.024 0.216 0.192
arouse 0.718 0.718 0.216 0.639 0.003 0.462 0.956 0.145 0.687 0.533 0.615 0.266 0.084 0.076 0.863 0.874 0.623 0.609 0.692 0.301
arrange 0.698 0.061 0.63 0.505 0.894 0.833 0.321 0.202 0.324 0.103 0.031 0.621 0.463 0.786 0.884 0.063 0.895 0.705 0.375 0.723
arrangement 0.073 0.491 0.68 1.03 0.221 1.231 -0.095 0.371 0.788 0.376 0.685 0.308 0.809 0.62 0.604 -0.105 -0.04 -0.017 0.917 0.127
arrival 0.2 0.53 0.749 0.719 0.461 0.211 0.037 0.33 0.499 0.1 0.74 0.34 0.713 0.258 0.572 0.809 0.508 0.437 0.009 0.529
arrow 1.002 0.259 0.56 0.509 0.479 0.304 0.861 0.418 0.53 0.66 0.333 0.346 1.01 0.422 0.634 0.346 0.428 0.577 0.167 0.982
art 0.951 -0.392 1.641 1.621 1.87 -0.698 0.286 -0.004 0.921 2.12 2.206 -1.744 0.351 2.885 1.269 1.123 0.285 2.443 -0.436 -0.836
article 4.434 -0.775 1.086 -1.902 -0.984 0.321 0.053 0.334 -2.021 -1.345 1.486 0.165 -0.631 2.719 2.676 -1.782 0.647 1.632 -0.587 0.021
artifact 0.129 0.178 0.84 0.968 0.21 0.645 0.947 0.102 0.438 0.072 0.526 0.523 0.217 0.152 0.94 0.489 0.341 0.007 0.813 0.499
artillery 0.136 0.908 0.697 1.021 0.238 1.038 0.687 0.032 0.222 1.198 0.423 0.182 0.036 0.692 0.192 0.033 0.496 0.918 1.009 0.819
artist 0.138 1.318 -0.58 0.706 0.012 0.688 0.866 0.237 0.217 1.048 0.849 0.012 -0.227 0.222 0.297 0.007 1.039 1.588 0.424 0.239
artlessness 0.664 0.88 0.432 0.021 0.781 0.109 0.748 0.354 0.434 0.744 0.903 0.059 0.518 0.119 0.151 0.076 0.476 0.286 0.448 0.837
ascendence 0.06 0.168 0.11 0.713 0.022 0.375 0.318 0.128 0.668 0.946 0.882 0.453 0.547 0.675 0.558 0.472 0.535 0.833 0.083 0.536
asexual 0.0 0.39 0.499 1.008 0.19 0.335 0.507 0.517 0.833 0.392 0.368 0.893 0.491 0.265 0.087 0.77 0.577 0.205 0.659 0.573
ashamed 0.303 0.728 0.574 0.609 0.434 0.231 0.546 0.007 0.997 0.615 0.3 0.616 0.695 0.645 0.523 0.681 0.709 0.866 0.739 0.689
ashes 0.166 0.659 0.73 1.096 0.711 0.59 1.084 0.786 0.114 0.084 0.392 0.103 0.866 0.12 -0.013 0.808 0.964 -0.071 1.046 0.906
asia 0.933 0.733 0.266 0.167 0.282 -0.276 -0.165 -0.244 0.225 0.179 0.302 0.525 -0.409 1.175 0.199 1.171 1.109 1.529 0.576 -0.252
asian 0.521 0.344 0.273 0.543 0.823 0.278 0.261 0.534 0.562 0.77 0.984 1.3 -0.168 -0.032 -0.278 1.459 0.306 0.779 0.039 0.291
aspect 0.537 -0.105 0.954 0.175 0.524 0.429 -0.19 0.691 0.176 0.863 0.882 0.314 0.338 0.957 1.211 0.782 -0.007 0.223 0.289 1.215
aspen 0.666 0.376 0.475 0.573 0.178 0.869 0.7 0.113 0.231 0.169 0.913 0.096 0.75 0.594 0.623 0.895 0.196 0.832 0.507 0.421
asphalt 0.767 0.765 0.209 0.639 0.626 0.682 0.654 0.841 0.276 0.605 0.819 0.034 0.212 0.995 0.02 0.53 0.642 0.61 0.824 0.821
asphaltic 0.265 0.241 0.721 0.995 0.659 0.331 0.953 0.934 0.496 0.016 0.237 0.987 0.821 0.832 0.889 0.808 0.756 0.441 0.481 0.816
aspirate 0.439 0.181 0.093 0.465 0.565 0.569 0.229 0.638 0.411 0.193 0.417 0.188 0.151 0.592 0.085 0.402 0.71 0.977 0.322 0.403
ass 0.639 0.604 0.825 0.133 0.526 0.561 0.508 0.966 0.773 0.724 0.337 0.808 0.385 0.172 0.379 0.034 0.014 0.924 0.331 0.04
assassinated 0.302 0.06 0.549 0.645 0.085 0.287 0.973 0.625 0.559 0.805 0.864 0.908 0.292 0.395 0.527 0.647 -0.047 0.197 0.896 0.517
assassination 1.224 0.566 0.614 0.991 -0.198 0.954 -0.012 1.287 0.202 0.0 -0.396 -0.186 0.852 0.672 0.209 -0.012 0.582 0.558 0.79 0.812
assaulted 0.271 0.539 0.739 0.392 0.32 0.299 0.835 0.951 0.786 0.915 0.556 0.968 0.746 0.392 0.404 0.424 0.755 0.823 0.24 0.043
assay 0.555 0.806 0.048 0.517 0.968 0.635 0.206 0.898 0.394 0.063 0.667 0.245 0.898 0.8 0.724 0.932 0.171 0.231 0.81 0.224
assembly 0.627 -0.663 1.636 1.911 0.435 0.191 -0.455 0.433 1.158 0.259 0.656 1.727 0.792 0.415 -0.064 1.262 -0.615 1.502 0.445 0.722
assessment 0.571 0.323 0.435 0.244 0.064 0.636 0.62 0.566 0.415 0.989 0.731 0.505 -0.128 0.986 0.629 0.45 0.348 0.838 0.162 0.632
assessments 0.5 0.492 0.564 0.483 0.178 0.557 0.625 0.038 0.331 0.638 0.833 0.276 0.255 0.053 0.195 0.04 0.001 0.651 0.594 0.074
assets 0.812 0.633 0.621 0.819 0.811 0.829 0.352 0.376 0.184 0.959 1.043 -0.124 0.688 0.671 0.917 0.743 -0.074 0.598 0.405 0.322
assign 0.105 0.827 0.303 0.971 0.331 0.791 0.272 0.954 0.42 0.052 0.56 0.533 0.367 0.697 0.785 0.855 0.47 0.3 0.715 0.648
assigned 0.176 0.347 1.058 0.096 0.682 0.267 0.775 0.565 0.322 0.503 0.052 0.309 0.803 0.24 0.997 0.387 0.349 0.974 0.763 0.803
assimilate 0.937 0.592 0.492 0.826 0.665 0.293 0.303 0.597 0.355 0.698 0.065 0.895 0.34 0.816 0.832 0.98 0.814 0.6 0.989 0.993
assist 0.01 0.371 0.43 1.145 0.381 0.622 -0.094 0.737 0.828 0.99 0.108 0.177 0.551 0.608 -0.106 0.268 0.226 0.166 0.911 0.522
assistance 0.157 0.954 0.729 0.327 0.452 0.796 0.738 0.287 0.279 0.201 -0.023 0.583 0.471 0.208 0.424 1.129 0.3 1.112 1.078 0.17
assistances 0.855 0.004 0.12 0.836 0.328 0.763 0.784 0.443 0.508 0.647 0.951 0.02 0.33 0.488 0.847 0.187 0.502 0.455 0.01 0.786
associate 0.977 0.67 0.813 0.533 1.01 0.074 0.793 0.062 0.138 0.902 0.978 0.065 0.5 0.345 0.055 0.783 0.337 0.619 0.379 0.777
association 0.6 1.57 0.794 -0.446 -0.084 -0.487 0.55 -1.014 1.816 0.863 -0.397 1.188 0.318 0.555 -0.091 2.289 1.091 2.105 -0.069 -0.268
associational 0.047 0.479 0.587 0.076 0.206 0.407 0.458 0.871 0.768 0.121 0.713 0.864 0.083 0.251 0.698 0.82 0.417 0.11 0.793 0.404
associations 0.51 0.971 0.681 0.923 0.619 0.793 0.306 0.015 0.819 0.396 0.889 0.325 0.323 0.666 0.752 0.152 0.046 0.964 1.004 0.127
asteroidal 0.687 0.177 0.306 0.778 0.054 0.229 0.58 0.387 -0.003 0.656 0.183 0.243 0.188 0.74 0.761 0.015 0.934 0.52 0.393 0.175
astonish 0.829 0.654 0.365 0.252 0.076 0.889 0.166 0.684 0.538 0.396 0.853 0.683 0.72 0.117 0.672 0.186 0.286 0.195 0.641 0.249
astringe 0.656 0.429 0.465 0.457 0.412 0.057 0.449 0.756 0.835 0.266 0.361 0.731 0.43 0.816 0.867 0.354 0.604 0.245 0.843 0.715
astronautical 0.991 0.867 0.3 0.312 0.744 0.621 0.113 0.258 0.337 0.46 0.043 0.408 0.777 0.513 0.635 0.944 0.165 0.947 0.348 0.489
astronomer 0.731 0.208 0.378 0.838 0.109 -0.195 0.279 0.458 0.519 0.952 0.955 0.391 0.397 0.014 0.102 1.091 0.378 0.448 0.912 0.738
astronomical 0.217 0.453 0.519 0.228 0.576 0.786 0.415 0.69 0.546 1.072 -0.132 0.297 0.979 0.418 0.196 0.604 -0.419 0.227 0.423 0.907
asylum 0.267 0.347 0.826 -0.036 0.939 0.548 0.342 0.105 0.307 0.124 0.148 0.499 0.84 -0.017 0.505 0.404 0.314 -0.012 0.507 1.09
athens 0.831 0.696 0.293 0.048 1.122 0.833 0.04 1.11 0.569 0.253 0.281 0.106 0.929 0.758 0.794 0.36 1.014 0.23 0.191 0.919
athlete 0.748 0.124 0.517 0.658 1.057 0.56 0.4 0.244 0.799 0.004 0.077 0.465 0.729 0.044 0.863 0.891 1.0 0.713 0.42 0.528
athletics 0.186 0.497 0.534 0.531 0.815 0.976 0.694 0.449 0.941 0.742 0.643 0.774 0.15 0.366 0.811 0.426 0.58 0.132 1.026 0.354
atmosphere -0.114 0.807 0.335 0.871 0.302 0.22 1.057 0.486 -0.076 0.749 1.108 1.252 0.902 0.557 0.998 0.259 0.243 1.101 0.94 0.505
atomic 1.302 -0.18 0.445 0.358 1.042 1.582 -0.381 0.631 0.207 1.195 0.122 -0.177 -0.381 0.717 2.008 -0.155 0.623 0.046 -0.357 0.1
attachment 0.718 0.05 0.819 0.939 0.213 0.327 0.332 0.821 0.75 0.369 0.804 0.744 0.134 1.024 0.736 0.484 0.894 0.93 0.339 0.251
attack 0.297 0.949 1.621 1.332 -0.205 -0.983 1.717 0.051 1.44 1.627 -0.083 0.827 1.325 0.505 2.148 1.048 0.167 -0.376 0.938 -0.081
attacker 0.645 0.194 0.842 0.246 0.406 0.353 0.896 0.276 0.568 0.333 0.152 0.771 0.838 0.939 0.934 0.492 0.947 0.788 0.209 0.883
attackers 0.428 0.021 0.08 0.824 0.424 0.156 0.937 0.082 0.226 0.437 0.396 0.491 0.91 0.787 0.824 0.452 0.473 0.545 0.279 0.442
attainment 0.168 0.586 0.863 0.539 0.605 0.791 0.114 0.846 0.724 0.776 0.949 0.244 0.56 0.376 0.315 0.564 0.355 0.927 0.562 0.561
attempt 0.635 1.231 0.12 0.214 -0.273 0.376 1.079 0.443 1.255 0.226 0.926 0.895 0.149 0.57 0.489 0.654 -0.089 -0.036 0.715 0.575
attendance -0.032 1.029 0.106 0.381 0.344 0.294 0.648 0.438 0.197 0.721 0.129 1.04 1.015 0.403 0.95 0.914 0.52 1.017 0.399 0.693
attendances 0.753 0.743 0.524 0.619 0.131 0.858 0.903 0.248 0.339 0.669 0.992 0.583 0.36 0.025 0.053 0.577 0.732 0.557 0.668 0.899
attested 0.488 0.435 0.401 0.416 0.574 0.532 0.754 0.593 0.61 0.859 0.993 0.709 0.078 0.886 0.284 0.702 0.933 1.017 0.526 0.835
attitude 0.991 0.202 0.904 0.973 0.384 0.66 0.257 0.688 0.315 0.07 0.857 0.511 0.409 0.849 0.661 0.799 0.534 0.804 0.511 0.365
attorney 1.198 1.01 0.94 1.064 0.562 0.406 0.721 0.999 -0.219 1.368 -0.029 -0.057 0.046 0.648 1.106 1.077 1.061 0.089 -0.168 -0.027
attraction 0.025 0.872 0.49 0.423 1.179 0.689 0.856 0.063 0.343 0.805 0.874 1.1 0.51 0.536 0.203 -0.099 0.271 -0.136 1.102 0.915
attractor 0.568 0.028 0.324 0.471 0.433 0.886 0.713 0.085 0.606 0.929 0.558 0.161 0.338 0.319 0.61 0.273 0.814 0.453 0.679 0.693
attributable 0.228 0.29 0.108 0.219 0.799 0.143 0.658 0.588 0.409 0.372 0.927 0.949 0.349 0.659 0.567 0.63 0.192 0.208 0.373 0.033
attribute 0.131 0.846 -0.05 1.039 0.713 0.406 0.27 0.192 0.581 0.277 0.763 0.087 0.874 0.362 0.672 0.327 0.697 0.157 1.022 0.106
attributions 0.543 0.69 0.249 0.365 0.06 0.563 0.646 0.647 0.041 0.134 0.73 0.899 0.179 0.146 0.598 0.291 0.831 0.979 0.678 0.181
auditive 0.287 0.801 0.615 0.101 0.193 0.687 0.144 0.167 0.024 0.359 0.94 0.024 0.266 0.644 0.773 0.187 0.471 0.006 0.668 0.679
authority 0.595 1.607 0.303 1.1 -0.051 1.201 -0.277 -0.413 -0.094 0.229 0.852 1.658 0.243 -0.012 0.258 1.121 0.695 1.949 0.918 1.201
authorize 0.98 0.914 0.175 0.84 0.472 0.263 0.062 0.321 0.162 0.913 0.681 0.245 0.916 0.008 0.182 0.379 0.748 0.228 0.441 0.213
authorship 0.242 0.961 0.71 0.401 0.055 0.63 0.361 0.18 0.437 0.42 0.802 0.446 1.001 0.351 0.806 0.767 0.611 0.769 0.479 0.923
auto 0.919 0.096 -0.028 0.355 0.841 0.046 0.178 -0.057 0.536 0.956 1.093 0.792 0.601 0.347 -0.106 0.849 0.728 -0.148 0.343 0.307
autobiographer 0.96 0.822 0.986 0.942 0.181 0.469 0.886 0.637 0.977 0.359 0.243 0.483 0.519 0.051 0.854 0.864 0.736 0.044 0.151 0.795
autobiographies 0.969 0.724 0.913 0.313 0.919 0.216 0.669 0.705 0.041 0.944 0.14 0.618 0.395 0.848 0.599 0.128 0.251 0.651 0.944 0.268
autobuses 0.595 0.242 0.015 0.323 0.504 0.59 0.67 0.113 0.647 0.494 0.356 0.936 0.248 0.335 0.396 0.913 0.433 0.862 0.615 0.888
autocracy 0.995 0.657 0.516 0.544 0.632 0.682 0.405 0.963 0.778 0.287 0.232 0.671 0.361 0.181 0.224 0.931 0.322 0.022 0.253 0.66
autoerotic 0.005 0.291 0.629 0.558 0.259 0.123 0.789 0.902 0.938 0.325 0.588 0.68 0.313 0.747 0.841 0.358 0.86 0.191 0.763 0.697
autofocus 0.36 0.049 0.601 0.676 0.469 0.862 0.184 0.356 0.332 0.006 0.647 0.275 0.52 -0.001 0.446 0.2 0.155 0.237 0.309 0.432
autograft 0.844 0.736 0.791 0.865 0.153 0.854 0.377 0.715 0.085 0.764 0.99 0.708 0.097 0.025 0.587 0.372 0.353 0.723 0.352 0.852
autografts 0.799 0.073 0.01 0.314 0.699 0.554 0.884 0.106 0.888 0.036 0.264 0.461 0.202 0.417 0.052 0.724 0.209 0.663 0.154 0.548
autograph 0.719 0.394 0.769 0.99 0.956 0.804 0.739 0.643 0.672 0.826 0.728 0.89 0.731 0.216 0.05 0.647 0.207 0.22 0.264 1.048
autographic 0.782 0.504 0.0 0.505 0.433 0.266 0.971 0.142 0.102 0.522 0.971 0.352 0.364 0.17 0.369 0.871 0.368 0.968 0.393 0.615
autoimmune 0.807 0.88 0.767 0.942 0.602 0.13 0.675 0.353 0.877 0.013 0.721 0.337 0.925 0.19 0.018 0.582 0.864 0.426 0.122 0.524
autoimmunity 0.422 0.247 0.364 0.985 0.357 0.562 0.673 0.805 0.564 0.05 0.246 0.709 0.524 0.949 0.699 0.419 0.867 0.809 0.548 0.883
autoloading 0.325 0.001 0.841 0.427 0.404 0.957 0.783 0.621 0.316 0.37 0.202 0.638 0.055 0.139 0.327 0.147 0.095 0.513 0.186 0.79
automate 0.973 0.414 0.927 0.795 0.554 0.707 0.886 0.837 0.654 0.926 0.019 0.507 0.634 0.776 0.333 0.811 0.392 0.322 0.376 0.187
automates 0.899 0.274 0.647 0.172 0.915 0.465 0.05 0.461 0.319 0.815 0.018 0.764 0.536 0.521 0.716 0.546 0.622 0.268 0.244 0.974
automatic 0.756 0.308 0.417 1.055 0.344 1.155 0.242 -0.215 0.429 0.764 -0.12 0.531 0.972 1.143 0.609 -0.05 1.046 0.136 0.409 0.172
automobile 0.415 0.156 1.029 0.763 0.578 -0.174 0.002 -0.021 0.145 0.244 0.921 1.241 -0.172 0.453 0.455 0.038 0.017 0.546 0.628 0.959
autopilot 0.194 0.015 0.337 0.04 0.152 0.968 0.537 0.627 0.284 0.709 0.996 0.42 -0.009 0.156 0.557 0.617 0.122 0.432 0.89 0.912
autopilots 0.161 0.782 0.93 0.498 0.262 0.692 0.237 0.39 0.771 0.832 0.259 0.431 0.692 0.726 0.272 0.582 0.576 0.131 0.054 0.524
autoregulation 0.445 0.674 0.047 0.373 0.232 0.018 0.353 0.435 0.847 0.029 0.265 0.916 0.529 0.514 0.18 0.959 0.262 0.383 0.886 0.801
autosuggestion 0.227 0.867 0.145 0.431 0.322 0.477 0.049 0.678 0.72 0.437 0.023 0.492 0.956 0.856 0.353 0.595 0.888 0.296 0.909 0.083
autumn 0.353 0.761 0.993 0.027 0.507 0.522 0.022 0.879 0.88 0.01 0.106 -0.039 0.975 0.351 0.008 0.252 0.838 0.065 0.793 0.423
available 0.719 -0.179 0.716 1.965 -0.206 0.834 0.281 1.774 0.901 0.349 -0.438 -0.125 -0.087 -0.346 0.36 1.547 0.489 1.147 0.267 0.941
avenue 0.904 0.612 0.776 0.853 0.147 0.279 0.83 0.499 0.381 1.063 0.261 0.605 0.527 0.919 -0.168 0.425 0.268 -0.137 0.591 0.96
average -1.091 0.042 0.468 0.457 -0.331 -0.118 1.227 2.9 0.934 0.63 -1.592 1.039 0.472 -0.381 2.519 -0.544 0.326 1.414 1.27 -0.397
awards 0.405 1.212 1.053 0.953 1.146 0.666 -0.039 0.52 -0.006 0.287 -0.033 0.926 -0.006 1.303 0.445 0.194 0.983 0.329 0.384 -0.084
awkward 0.778 0.898 0.489 0.513 0.981 0.781 0.823 0.012 0.23 0.0 0.679 0.577 0.909 0.607 0.622 0.702 0.157 0.589 0.697 0.351
baby 1.045 0.803 0.464 0.804 0.367 1.211 0.064 -0.035 1.23 0.412 0.896 0.241 0.285 0.638 0.711 0.396 -0.125 0.971 0.569 0.748
bachelors 0.278 0.619 0.056 0.72 0.258 0.334 0.429 0.597 0.176 0.813 0.224 0.474 0.845 0.029 0.436 0.174 0.841 0.451 0.505 0.104
back 0.09 -1.349 0.62 1.349 1.431 2.881 -0.546 0.947 1.627 2.104 2.001 2.237 -2.333 -0.925 -2.218 -0.23 2.476 0.536 -0.915 1.897
backwardness 0.04 0.674 0.196 0.428 0.66 0.943 0.546 0.052 0.281 0.801 0.884 0.546 0.215 0.308 0.896 0.724 0.73 0.006 0.763 0.305
bacon -0.046 0.296 0.112 0.056 0.728 0.135 0.1 0.615 0.579 -0.008 0.915 0.376 0.117 0.312 0.726 0.949 0.268 0.198 0.095 0.896
badge 0.88 0.239 0.735 0.334 1.032 0.134 0.586 0.459 0.334 0.782 0.865 0.622 0.433 0.142 0.282 0.463 0.639 0.291 0.671 0.236
badness 0.108 0.242 0.42 0.116 0.529 0.699 0.99 0.3 0.032 0.21 0.124 0.941 0.369 0.37 0.358 0.405 0.675 0.577 0.142 0.018
bag 0.359 0.784 0.311 0.307 0.381 0.636 0.411 0.046 0.761 1.048 0.465 0.587 0.173 0.851 0.783 0.592 0.367 1.028 0.746 0.305
baggers 0.769 0.059 0.951 0.697 0.481 0.494 0.736 0.065 0.669 0.392 0.441 0.974 0.186 0.931 0.116 0.848 0.31 0.564 0.329 0.51
bail -0.019 0.182 -0.025 0.884 0.573 0.685 0.9 0.127 0.041 0.681 0.823 0.239 0.091 0.308 0.938 0.281 0.02 0.702 0.752 0.445
bait 0.782 0.977 0.645 0.087 0.485 0.282 0.907 0.244 0.002 0.984 0.16 0.599 0.533 0.489 0.498 0.185 0.911 0.629 0.57 0.933
bakery 0.372 0.305 0.856 0.136 0.981 0.326 0.267 0.09 0.331 0.551 0.395 0.509 1.001 0.434 0.228 0.423 0.058 0.825 0.221 0.278
balance 0.762 -0.159 0.032 -0.191 0.819 1.18 0.725 -0.095 1.021 -0.118 1.219 0.88 -0.077 0.038 1.181 0.503 0.901 0.454 0.072 1.094
balanced 0.67 0.47 0.214 0.559 0.484 -0.104 0.548 0.497 0.683 0.432 0.45 0.081 0.688 0.401 0.891 0.611 0.656 0.977 0.807 0.191
ball 0.681 -0.389 0.362 0.95 0.114 2.232 0.661 0.893 -0.563 0.279 1.045 0.433 0.501 -0.041 1.037 0.554 -1.264 -0.921 -0.307 3.36
balloon 0.476 0.999 0.74 0.63 0.142 0.903 0.037 0.613 0.608 0.85 0.044 1.08 0.537 1.01 0.766 0.765 0.873 0.484 0.907 1.027
ballots 0.025 0.641 0.615 0.275 1.01 0.163 0.883 0.133 0.717 0.145 0.358 0.148 0.505 0.184 0.205 0.16 0.981 0.022 0.047 0.896
balminess 0.171 0.973 0.427 0.747 0.456 0.388 0.749 0.621 0.284 0.052 0.986 0.465 0.202 0.94 0.275 0.849 0.138 0.025 0.419 0.099
banana 0.109 1.035 0.848 0.142 0.274 0.874 0.404 -0.005 -0.023 0.705 0.758 0.655 0.513 0.922 -0.051 0.712 0.525 0.139 0.087 0.963
band -0.793 -0.393 1.276 -0.124 1.961 -1.074 -1.839 1.041 0.603 -0.837 2.285 1.433 0.835 3.071 0.172 1.602 1.456 2.832 1.77 -1.664
banished 0.218 0.938 0.474 0.757 0.245 0.916 0.952 0.016 0.588 0.345 0.87 0.322 0.225 0.023 0.337 0.26 0.515 0.83 0.502 0.144
bank 1.303 -0.256 0.475 -0.128 1.732 1.032 1.567 -0.477 -0.404 1.384 2.306 0.67 -0.257 0.554 1.616 -0.587 -0.25 0.923 0.131 1.061
banker 0.561 0.368 0.153 0.529 0.631 0.686 0.197 0.858 0.617 0.099 0.277 0.644 0.124 0.596 0.738 0.851 0.36 0.501 0.229 0.548
bankruptcy 0.242 0.865 0.593 0.245 1.006 0.248 0.155 0.537 0.298 0.856 0.734 -0.058 0.09 1.027 0.461 0.671 0.427 0.91 0.233 1.086
banquet 0.996 0.061 0.428 0.909 0.77 0.274 0.043 0.774 0.368 0.504 0.467 0.979 0.746 0.089 0.54 0.078 0.073 0.375 0.366 0.761
baptistic 0.55 0.113 0.4 0.786 0.307 0.788 0.4 0.235 0.98 0.7 0.286 0.607 0.523 0.362 0.376 0.023 0.819 0.098 0.297 0.129
bar 1.036 0.562 -0.036 0.488 0.123 0.625 1.094 0.439 1.418 -0.122 0.297 0.328 -0.011 -0.146 1.241 1.3 0.353 0.41 1.184 0.295
barn -0.008 0.737 0.369 0.853 0.322 0.279 0.91 1.018 0.072 0.735 0.145 0.338 0.196 0.364 0.758 0.634 0.509 0.131 0.07 0.635
barrel 0.333 0.247 0.677 0.086 -0.005 0.532 1.003 0.45 0.998 -0.056 0.898 0.532 0.945 0.692 0.004 0.154 1.327 0.592 0.759 0.261
base 1.775 0.038 1.091 0.177 0.397 1.074 2.339 1.032 -0.629 0.131 2.193 1.6 1.04 0.483 1.429 1.001 1.901 -0.735 -0.363 2.112
baseball -0.017 1.28 1.364 2.417 -0.905 1.886 1.429 1.114 -1.817 1.279 1.807 0.29 2.51 -2.004 3.08 -1.248 -0.189 0.692 0.694 0.41
baseness 0.009 0.362 0.429 0.26 0.261 0.777 0.143 0.474 0.017 0.287 0.19 0.466 0.277 0.003 0.87 0.293 0.15 0.478 0.426 0.532
basic 0.807 -0.618 0.538 2.008 1.206 1.995 0.603 0.228 0.216 0.618 1.532 1.833 1.116 0.352 -0.579 -1.177 2.26 0.822 -1.078 1.689
basin 0.907 0.471 0.89 0.031 0.846 1.03 0.87 0.024 0.789 0.672 -0.044 0.537 0.037 0.98 0.961 0.312 0.124 0.059 0.458 -0.114
basket -0.002 0.905 0.897 0.478 0.737 0.452 0.217 1.005 0.997 0.164 0.735 0.27 0.725 0.876 0.073 -0.001 0.733 0.143 0.42 0.437
basketball -0.009 0.751 0.323 0.09 0.925 1.344 0.563 0.211 1.595 1.386 1.13 1.255 -0.66 0.28 1.64 0.098 -0.063 0.812 -0.337 0.491
bastardize 0.641 0.563 0.058 0.068 0.179 0.982 0.216 0.193 0.382 0.129 0.216 0.582 0.306 0.391 0.668 0.485 0.908 0.432 0.924 0.196
baste 0.938 0.896 0.872 0.688 0.4 0.837 0.12 0.008 0.461 0.346 0.842 0.998 0.382 0.807 0.979 0.374 0.342 0.322 0.069 0.975
bath 0.809 1.057 0.618 0.935 0.061 0.563 0.383 0.771 0.147 1.048 0.314 0.025 -0.0 0.316 0.602 0.85 0.427 0.179 1.015 0.769
bathroom 0.395 0.868 0.865 0.828 0.11 0.086 0.282 0.288 0.406 0.648 1.02 0.351 0.684 0.693 0.531 0.817 0.393 0.627 0.336 0.958
battened 0.768 0.252 0.154 0.01 0.248 0.838 0.897 0.188 0.899 0.715 0.417 0.55 0.92 0.526 0.032 0.917 0.822 0.257 0.082 0.512
battered 0.546 0.165 0.042 0.711 0.772 0.193 0.247 0.134 0.077 0.85 0.785 0.875 -0.028 0.887 0.943 0.613 0.208 0.739 0.191 0.25
battle 1.182 -0.098 2.468 -0.266 0.855 -0.041 -0.905 0.808 1.6 1.2 -1.891 0.308 1.554 0.991 0.217 1.147 2.01 -1.41 2.314 -0.247
battleship 0.969 0.478 0.343 1.032 0.979 0.336 0.427 0.113 0.455 0.428 0.195 0.703 0.315 0.372 0.288 0.937 0.707 0.561 0.666 0.151
battleships 0.626 0.972 0.683 0.597 0.628 0.598 -0.088 0.609 0.881 0.842 0.144 0.539 1.023 0.635 0.204 1.007 0.811 0.349 0.903 0.822
bay 0.519 0.61 -0.394 -0.063 0.14 1.414 0.776 1.125 -0.079 0.187 0.859 -0.099 0.885 1.378 0.858 1.33 1.487 -0.06 1.442 0.14
beach 0.989 -0.037 0.665 0.143 0.107 0.817 0.953 -0.108 -0.116 -0.045 0.103 0.625 0.885 0.419 0.667 -0.205 0.899 0.247 0.44 0.307
bead 0.688 0.999 0.721 -0.057 0.922 0.928 -0.039 0.764 0.64 0.294 0.637 0.096 0.893 0.77 0.654 0.057 0.991 0.384 0.837 0.166
beam 0.342 0.032 0.317 0.515 0.815 0.356 0.147 1.146 0.338 0.087 0.343 0.499 0.834 -0.032 0.017 1.066 0.752 0.284 0.235 0.143
bear -0.431 -0.32 0.631 0.039 0.209 0.931 0.913 0.435 -0.038 1.056 0.439 1.26 -0.123 1.09 1.696 -0.327 -0.015 -0.314 0.667 1.075
beard 0.932 0.333 0.183 0.655 0.077 0.31 1.006 0.302 0.186 0.428 1.084 0.504 0.369 0.878 0.359 0.611 0.454 1.019 0.556 0.065
beat 0.617 0.515 0.751 -0.237 1.075 0.931 0.165 0.247 0.269 0.093 1.048 0.014 0.524 0.791 0.654 0.725 1.12 -0.13 0.663 0.411
beauty 0.931 0.79 0.043 0.951 0.063 -0.067 1.023 0.654 0.249 0.546 0.298 1.069 0.921 0.778 0.867 1.098 0.381 0.366 0.765 0.717
become 1.952 2.372 2.348 -1.468 -0.645 0.778 -1.403 1.119 1.386 1.375 0.076 -1.192 1.819 2.316 -1.419 3.051 -1.776 1.553 -0.978 -1.731
bed 0.911 1.049 0.247 0.053 0.263 0.719 0.49 0.508 0.271 0.264 1.007 0.063 0.361 1.031 0.395 0.074 0.73 0.367 0.608 0.727
bedroom 0.333 0.837 0.357 0.216 0.411 0.601 0.239 0.878 0.591 0.689 0.372 0.316 0.604 0.741 0.928 0.071 0.065 0.21 0.422 0.861
bee 0.755 0.961 0.269 0.185 0.88 0.717 0.198 0.509 0.447 0.133 0.009 0.288 0.292 0.34 0.78 1.017 1.032 0.657 0.815 0.798
beef -0.095 0.8 0.794 -0.051 0.229 0.671 0.262 -0.036 0.744 0.808 0.477 0.642 0.426 0.73 0.001 0.624 0.929 1.089 0.069 0.036
beer 0.524 1.202 1.052 0.137 1.108 0.731 0.732 0.236 0.327 0.693 1.264 -0.044 0.215 0.823 0.224 0.596 0.422 -0.085 0.132 0.691
beethoven 0.613 0.413 0.097 0.327 1.079 0.828 0.483 0.543 0.948 0.595 1.226 0.466 0.967 0.896 -0.015 1.006 0.184 -0.013 0.6 0.235
beetle 0.123 0.79 0.849 0.086 0.01 0.165 0.542 0.431 0.786 0.7 -0.038 0.909 0.718 0.141 0.476 0.412 0.516 0.257 0.788 0.17
beginner -0.019 0.904 1.101 0.955 0.481 0.212 0.468 0.508 0.323 1.071 0.936 0.266 0.215 0.168 0.043 0.166 0.126 0.085 0.523 0.233
beginning -0.076 0.598 0.167 -0.044 1.564 -0.256 0.836 0.469 0.343 0.423 0.745 0.88 0.976 0.011 1.583 -0.392 1.248 0.457 0.707 0.286
behavior -0.582 0.15 0.961 0.343 0.699 0.873 -0.156 0.786 0.682 1.385 0.462 0.71 -0.026 0.333 0.898 0.784 0.751 -0.015 1.101 0.5
behaviorist 0.956 0.25 -0.002 0.949 0.722 0.221 0.909 0.581 0.397 0.301 0.31 0.817 0.977 0.723 0.056 0.099 0.269 0.026 0.626 0.791
behavioural 0.71 0.926 0.045 0.091 0.474 0.64 0.249 0.934 0.458 0.126 0.546 0.052 0.282 0.669 0.734 0.684 0.588 0.236 0.275 0.767
being 4.662 -4.641 4.488 -0.271 -1.595 -0.954 -2.895 1.657 0.521 -3.587 1.458 -1.289 0.749 0.582 5.204 2.537 1.305 4.407 -1.584 0.429
belief -0.354 1.116 1.018 0.604 -0.014 0.38 1.316 0.535 0.963 0.451 0.789 0.133 -0.081 0.54 1.195 0.045 0.138 0.618 0.393 -0.386
believe 0.632 0.986 -0.169 0.987 0.25 0.437 -0.11 0.773 1.051 0.799 0.777 0.174 1.177 0.582 0.539 0.46 0.964 0.695 1.228 0.483
believing 0.165 0.576 0.912 0.335 0.358 0.175 0.991 0.584 0.599 0.77 0.14 0.318 0.327 0.053 0.815 0.554 0.807 0.699 0.604 0.501
belligerence 0.073 0.041 0.555 0.025 0.652 0.934 0.918 0.125 0.54 0.199 0.276 0.626 0.318 0.573 0.925 0.972 0.034 0.257 0.732 1.015
bellowing 0.176 0.05 0.682 0.112 0.754 0.85 0.22 0.497 0.353 0.898 0.613 0.492 0.613 0.063 0.668 0.598 0.728 0.981 0.561 0.471
belly 0.245 0.509 0.63 0.453 0.785 0.466 0.814 0.021 0.049 0.737 0.59 0.443 0.573 0.354 0.265 0.285 -0.022 0.752 0.144 0.84
bench 0.153 0.62 0.789 0.282 0.036 0.106 0.749 0.159 0.016 0.879 0.777 0.082 0.748 1.112 0.688 0.225 0.482 0.786 0.627 0.492
benchmark 0.649 0.663 0.865 0.36 0.324 0.526 0.222 0.971 0.479 0.99 0.787 0.321 0.351 0.801 0.058 0.65 0.431 0.075 0.77 0.673
bend 0.324 0.694 0.879 0.285 0.767 0.389 0.063 0.672 0.615 0.111 0.623 0.38 0.376 -0.039 0.4 0.192 0.453 0.48 0.937 0.988
bendability 0.775 0.049 0.86 0.751 0.22 0.824 0.043 0.077 0.407 0.902 0.619 0.673 0.244 0.372 0.809 0.505 0.559 0.366 0.919 0.016
benefactor 0.427 0.135 0.249 0.87 0.673 0.836 0.649 0.7 0.212 0.991 0.607 0.229 0.409 0.643 0.386 0.879 0.729 0.828 0.094 0.636
benefited 0.345 0.329 0.336 0.929 0.923 0.101 0.756 0.294 0.069 0.355 0.086 0.843 0.738 0.844 0.525 0.529 0.876 0.209 0.514 0.224
bengali 0.257 0.632 0.767 0.222 0.166 1.022 0.189 0.458 0.699 0.06 1.019 1.015 0.556 0.008 0.757 0.522 0.039 0.435 0.077 0.751
berlin 0.609 1.503 -0.002 0.425 -0.362 0.136 1.669 0.481 0.785 0.615 0.553 0.056 0.908 0.433 0.364 0.719 1.115 0.617 1.046 0.641
berry 0.827 0.569 0.07 0.256 0.242 0.059 0.341 0.584 1.104 0.859 0.82 0.743 0.167 0.383 1.122 -0.138 0.822 0.729 0.849 0.143
besieging 0.274 0.508 0.51 0.308 0.097 0.332 0.221 0.658 0.025 0.864 0.803 0.827 0.139 0.647 0.405 0.422 0.129 0.105 0.504 0.478
bestowal 0.799 0.663 0.934 0.022 0.191 0.129 0.501 0.74 0.169 0.128 0.002 0.708 0.286 0.805 0.273 0.464 0.784 0.699 0.215 0.983
bestowals 0.801 0.57 0.153 0.131 0.349 0.929 0.547 0.466 0.807 0.103 0.583 0.775 0.675 0.476 0.38 0.949 0.497 0.352 0.151 0.943
beverage 0.762 0.614 0.601 0.596 0.749 0.489 0.851 0.058 0.829 0.685 0.177 0.848 0.951 0.932 0.252 0.126 0.504 0.763 0.173 0.403
bewitchment 0.765 0.776 0.138 0.656 0.504 0.02 0.407 0.77 0.8 0.936 0.298 0.27 0.805 0.261 0.702 0.484 0.271 0.459 0.757 0.823
bible -0.168 0.308 1.049 0.576 0.998 -0.242 -0.381 1.281 0.302 -0.262 0.939 0.796 0.723 0.354 -0.219 -0.218 1.208 0.931 1.217 0.998
bibliographies 0.574 0.121 0.976 0.454 0.357 0.913 0.84 0.358 0.151 0.281 0.329 0.028 0.807 0.158 0.302 0.35 0.08 0.555 0.549 0.395
bicycle 0.037 0.517 0.325 0.732 0.377 0.565 0.926 0.281 -0.16 0.011 0.974 1.029 0.573 0.475 0.459 0.556 0.947 -0.141 -0.112 0.518
bike 0.459 0.579 0.787 0.925 -0.04 0.144 0.717 0.05 -0.003 0.657 0.041 0.949 0.788 1.058 0.532 0.638 0.996 0.936 0.373 1.013
bikini 0.654 0.61 0.317 0.149 0.254 0.445 0.934 0.746 0.369 0.261 0.448 0.191 0.926 0.335 -0.022 0.477 0.369 0.264 0.963 0.097
bill 0.334 -0.602 0.984 1.808 0.809 1.423 -0.669 1.654 -0.141 1.154 0.906 -0.066 1.117 1.637 -0.429 -0.149 -0.225 1.22 -0.577 0.645
billboard 0.233 1.089 0.747 0.996 0.713 0.749 0.568 0.46 0.001 0.976 0.439 0.349 0.313 0.199 0.578 0.433 0.285 0.23 -0.011 0.587
billion 1.438 1.579 0.902 -0.713 0.022 -0.035 1.558 0.446 0.396 0.68 -0.555 -0.005 0.173 1.895 1.47 1.612 0.248 -0.882 -0.333 -0.617
bin 0.174 0.439 0.477 0.075 1.003 0.474 0.252 0.494 0.345 0.621 0.878 0.231 0.924 0.248 0.157 0.577 0.32 0.053 0.262 0.95
binary -0.154 1.717 0.401 0.702 0.63 1.254 -0.533 -0.752 0.375 1.449 -0.118 1.27 0.275 1.467 0.795 1.19 0.479 0.096 0.998 0.003
binging 0.277 0.573 0.329 0.093 0.17 0.965 0.186 0.114 0.079 0.286 0.874 0.074 0.623 0.677 0.15 0.379 0.429 0.4 0.269 0.547
biographer 0.095 0.825 0.751 0.615 0.094 0.823 0.797 0.862 0.564 0.329 0.499 0.738 0.549 0.534 0.149 0.403 0.583 0.53 0.871 0.119
bird -0.106 0.564 1.032 1.181 0.714 0.445 -0.147 0.643 0.376 0.129 0.819 1.381 0.454 0.163 0.382 0.81 0.77 0.807 -0.025 0.497
birds 0.629 -0.028 0.018 0.757 0.226 0.853 0.105 0.916 0.38 0.16 0.563 0.921 0.253 0.788 0.243 0.556 0.435 0.89 0.47 0.406
birth 0.716 1.44 0.271 0.249 -0.502 -0.065 1.614 2.144 -0.011 0.106 -0.166 -0.592 1.74 -0.243 2.548 0.443 0.881 0.508 -0.28 1.009
birthday 0.038 0.965 0.959 1.105 0.629 0.768 0.737 0.727 0.255 0.689 0.701 0.181 0.414 0.91 -0.082 0.113 0.313 0.219 0.493 0.646
bishop -0.051 0.2 0.723 0.634 0.733 0.19 0.818 -0.095 0.256 0.075 0.54 0.53 1.116 0.895 0.604 0.092 0.965 1.188 0.961 0.974
bishops 0.699 -0.058 0.598 0.158 1.055 0.83 -0.056 -0.017 0.327 0.018 1.09 0.593 0.596 0.78 0.601 0.348 0.575 0.451 0.448 0.571
bit -1.02 0.695 0.95 1.363 0.347 0.531 0.175 0.534 1.04 0.252 0.712 2.856 0.151 -1.365 2.348 0.964 -0.827 1.162 0.433 1.051
bite 1.06 0.169 0.389 0.008 0.504 0.51 0.679 0.545 0.455 0.216 0.038 -0.018 0.814 0.699 0.454 0.344 0.937 0.43 0.255 1.035
bitter 0.216 -0.018 1.222 0.358 0.67 -0.006 0.662 0.329 0.117 0.142 -0.082 1.014 1.02 0.807 0.276 0.404 0.458 0.52 0.092 0.928
black 0.69 -5.276 0.688 3.729 5.715 0.735 -0.923 0.781 1.882 2.324 0.405 4.177 -3.332 2.232 -2.809 2.481 0.575 -1.305 -2.564 1.772
blacken 0.034 0.866 0.999 0.552 0.848 0.578 0.468 0.303 0.873 0.608 0.934 0.107 0.079 0.711 0.936 0.986 0.713 0.876 0.334 0.474
blackmailed 0.326 0.344 0.152 0.168 0.253 0.869 0.081 0.822 0.115 0.731 0.851 0.433 0.705 0.024 0.253 0.774 0.988 0.228 0.91 0.674
blade 0.942 0.198 0.492 1.152 -0.01 0.818 0.672 0.832 0.881 0.239 0.377 0.415 0.163 0.217 -0.009 0.569 0.991 -0.014 0.134 0.431
blanket 0.962 0.249 0.705 0.297 0.664 0.42 0.082 0.836 0.94 0.137 0.824 0.483 0.733 0.708 0.922 0.685 0.579 0.347 0.547 0.598
blaze 0.989 0.914 0.907 0.469 0.279 0.606 0.682 0.189 0.021 0.342 0.168 0.16 0.627 0.259 0.141 0.595 0.475 0.87 0.008 0.645
bleach 0.527 0.365 0.03 0.672 0.262 0.502 0.385 0.315 0.716 0.543 0.712 0.757 0.304 0.034 0.277 0.894 0.827 0.099 0.68 0.043
blend 0.715 0.44 0.269 0.247 0.909 0.376 0.489 0.628 0.806 0.532 0.27 0.391 0.131 0.301 1.023 0.185 0.039 0.35 0.042 0.796
blessing 0.442 0.182 0.313 0.786 0.432 0.064 0.16 0.284 0.472 1.004 0.351 0.161 0.487 0.442 0.417 0.661 0.177 0.097 0.895 0.723
blithering 0.739 0.843 0.349 0.278 0.425 0.262 0.084 0.982 0.802 0.038 0.759 0.648 0.596 0.912 0.758 0.509 0.189 0.547 0.582 0.383
blitzed 0.79 0.691 0.689 0.343 0.48 0.435 0.28 0.083 0.21 0.604 0.409 0.854 0.521 0.317 0.034 0.149 0.822 0.138 0.323 0.917
blizzard 0.491 0.852 0.54 0.146 0.036 0.866 0.874 0.665 0.73 0.179 0.879 0.178 0.597 0.489 0.223 0.881 0.825 0.36 0.877 0.884
block 0.527 -0.146 0.712 1.025 0.395 0.846 0.852 0.488 1.137 -0.007 -0.135 0.32 0.776 1.036 0.803 0.683 0.816 0.102 0.324 0.587
blonde 0.332 -0.084 0.717 0.744 0.618 0.895 0.458 0.53 0.221 0.966 0.197 0.378 0.276 0.241 0.845 0.105 0.735 0.571 0.839 0.671
bloom 0.877 0.745 0.585 0.813 0.797 0.13 0.885 0.949 0.997 0.704 0.539 0.33 0.761 0.567 0.323 0.311 0.078 0.508 0.905 0.182
blossom 0.002 0.837 1.071 0.102 0.392 0.633 0.041 0.464 0.638 0.754 0.177 0.462 0.976 0.292 0.501 0.766 0.777 0.456 0.718 0.704
blow 1.024 0.194 0.834 0.674 0.011 -0.123 0.312 0.516 0.921 1.071 0.534 1.111 0.82 0.651 0.019 0.256 0.871 0.974 0.532 -0.041
blue -1.556 1.239 1.833 1.396 0.164 0.803 2.202 0.562 1.458 -0.859 1.906 2.38 1.633 0.428 1.186 0.677 -2.045 -0.652 -0.067 -1.394
bluejacket 0.376 0.294 0.817 0.296 0.545 0.046 0.398 0.82 0.224 0.554 0.022 0.177 0.55 0.071 0.678 0.349 0.924 0.15 0.604 0.185
blues 1.15 0.343 1.366 0.248 0.088 1.311 0.076 0.075 1.511 -0.17 0.768 0.895 0.457 0.416 -0.07 1.325 -0.301 0.123 0.405 0.489
blunders 0.8 0.673 0.324 0.554 0.568 0.451 0.831 0.33 0.363 0.378 0.448 0.198 0.728 0.01 0.398 0.869 0.182 0.132 0.933 0.07
blur 0.41 0.085 0.309 0.724 0.453 0.039 0.737 0.089 0.261 1.015 0.329 0.394 0.319 0.633 0.703 0.145 0.348 0.188 0.079 0.978
blurting 0.932 0.984 0.868 0.924 0.765 0.578 0.495 0.632 0.739 0.598 0.77 0.937 0.197 0.885 0.929 0.098 0.537 0.337 0.793 0.358
board -0.412 -0.003 0.47 0.764 2.337 1.096 0.452 -0.707 0.351 0.483 2.211 0.913 1.023 -0.75 1.927 0.086 -0.832 -0.008 0.74 0.593
boardwalk 0.116 0.599 0.412 0.709 0.326 0.196 0.78 0.354 0.684 0.444 0.391 0.62 0.045 0.138 0.636 0.455 0.127 0.721 0.144 0.724
boast 0.716 0.123 0.5 0.342 0.42 0.324 0.735 0.49 0.852 0.782 0.981 0.547 0.707 0.811 0.097 0.027 0.367 0.066 0.33 0.573
boastful 0.87 0.421 0.707 0.805 0.296 0.473 0.674 0.702 0.457 0.908 0.786 0.098 0.494 0.781 0.225 0.976 0.876 0.054 0.283 0.399
boat 0.798 -0.15 0.735 1.091 0.746 0.462 0.641 0.777 1.102 -0.051 0.91 -0.236 1.095 0.857 -0.027 0.275 0.199 0.374 -0.075 0.535
bobbers 0.175 0.085 0.898 0.284 0.288 0.18 0.592 0.898 0.803 0.516 0.372 0.145 0.198 0.67 0.817 0.719 0.262 0.749 0.916 0.363
bodily 0.883 0.224 0.028 0.197 0.633 0.582 0.874 -0.053 0.725 0.507 0.831 0.794 0.627 0.642 1.006 0.505 0.53 0.693 0.93 0.399
body -0.738 1.972 0.382 1.092 1.687 1.486 1.317 -2.711 0.832 2.557 3.083 2.86 -0.379 1.959 -0.155 -1.57 -1.004 1.045 -0.24 -0.069
bohemia 0.255 0.172 0.407 0.66 0.085 0.19 0.561 0.207 0.433 0.177 0.249 0.758 0.776 0.773 0.418 0.505 0.392 0.949 0.965 0.44
boil 0.609 0.227 0.394 0.62 0.974 0.908 0.036 0.165 0.655 0.771 0.181 0.232 0.648 0.472 0.384 0.432 1.004 0.172 0.169 0.729
boisterously 0.018 0.38 0.567 0.816 0.294 0.283 0.929 0.168 0.069 0.75 0.675 0.75 0.756 0.396 0.753 0.045 0.207 0.174 0.501 0.58
boldness 0.125 0.975 0.668 0.694 0.9 0.212 0.264 0.329 0.457 0.197 0.201 0.314 0.883 0.656 0.574 0.77 0.211 1.001 0.349 0.824
bond 0.366 -0.029 0.977 0.335 0.171 0.46 0.743 1.317 0.787 0.047 1.468 0.282 1.393 0.737 -0.138 -0.356 1.111 1.115 1.368 1.221
bone 0.381 0.722 -0.061 0.191 0.919 0.379 0.252 1.135 0.488 -0.14 0.539 0.728 0.289 -0.019 0.576 0.352 0.845 0.65 0.522 0.317
book -1.688 -3.73 2.566 5.073 0.044 -1.303 -0.04 -0.258 1.693 -0.926 0.635 1.168 3.815 -1.352 2.778 -1.857 -2.06 4.275 0.542 0.131
booklet 0.662 0.237 0.869 0.111 0.449 0.12 0.432 0.724 0.785 0.852 0.297 0.554 0.603 0.514 0.689 0.647 0.357 0.322 0.345 0.71
boot 0.27 0.822 0.526 0.464 0.442 0.924 0.396 0.498 0.324 0.529 0.777 0.755 0.234 0.129 0.422 0.756 0.735 0.818 0.495 0.142
bootless 0.436 0.7 0.174 0.284 0.706 0.87 0.051 0.981 0.633 0.596 0.019 0.882 0.195 0.065 0.376 0.531 0.394 0.227 0.347 0.346
born 0.11 -2.034 2.77 -2.541 2.254 -0.864 -1.063 2.371 2.748 -1.855 0.944 -0.758 1.606 2.555 -0.546 -0.312 -0.083 0.099 3.607 0.963
boston -0.373 0.418 0.786 0.585 0.952 0.051 0.345 0.882 1.08 0.148 0.18 1.337 0.63 0.832 1.305 0.082 1.231 1.046 1.151 0.444
bottle 0.484 0.426 0.688 0.053 0.63 0.24 0.988 0.798 1.047 0.625 0.919 0.025 0.074 0.267 0.167 0.472 0.89 -0.003 0.478 0.334
bottom 0.962 0.322 -0.067 1.061 0.386 1.246 0.511 0.037 0.102 -0.03 1.306 0.313 0.543 0.12 1.107 -0.02 0.338 0.653 0.021 0.589
bounce 0.397 0.418 0.236 0.276 0.444 0.811 0.734 0.949 0.464 0.818 0.743 0.836 0.43 0.353 0.767 0.79 0.331 0.745 0.261 0.342
bounced 0.574 0.869 0.517 0.5 0.744 0.235 0.571 0.267 0.022 0.073 0.452 0.173 0.305 0.876 0.484 0.936 0.821 0.326 0.246 0.076
box 0.123 1.282 0.908 1.202 0.827 -0.039 0.386 -0.005 -0.496 2.116 0.651 1.739 0.177 1.228 0.787 -0.151 0.456 -0.661 -0.162 -0.484
boxer 0.468 0.2 0.896 0.945 0.367 0.447 0.108 0.14 0.508 0.145 0.975 0.027 -0.029 1.006 0.291 0.028 0.09 0.863 0.364 0.135
boxing 0.413 0.971 0.684 1.187 0.456 0.748 0.321 0.235 1.255 0.187 0.057 0.396 -0.069 0.861 0.468 0.693 0.277 -0.193 0.035 0.844
boy 0.034 1.415 -0.553 -0.957 -0.036 -0.31 2.602 1.922 1.179 -1.084 0.892 1.249 1.816 1.435 0.543 1.082 -1.136 1.129 0.919 0.517
brace 0.718 0.468 0.058 0.748 0.671 0.801 0.859 0.224 0.375 0.667 0.482 0.522 0.758 0.338 0.454 0.7 0.705 0.808 0.238 0.372
bracelet -0.003 0.346 0.883 0.477 0.95 0.346 0.408 0.721 0.916 0.521 0.005 0.532 0.603 0.846 0.652 0.714 0.242 0.244 1.011 0.654
brag 0.635 0.024 0.52 0.37 0.394 0.721 0.377 0.461 0.852 0.51 0.178 0.163 0.757 0.755 0.543 0.498 0.847 0.883 0.736 0.223
braid 0.674 0.701 0.342 0.953 0.962 0.112 0.692 0.045 0.668 0.439 0.278 0.131 0.827 0.925 0.437 0.638 0.477 0.988 0.424 0.259
brain 0.924 0.985 0.614 -0.092 0.117 1.272 1.042 -0.257 -0.214 -0.414 1.167 0.756 0.534 1.158 0.875 -0.077 1.331 0.876 1.087 0.137
brained 0.948 0.173 0.186 0.391 0.112 0.077 0.855 0.581 0.881 0.338 0.279 0.384 0.478 0.263 0.406 0.344 0.29 0.707 0.953 0.309
brainless 0.91 0.226 0.012 0.633 0.722 0.232 0.523 0.644 0.57 0.641 0.944 0.536 0.341 0.464 0.558 0.565 0.992 0.354 0.415 0.947
brake 0.969 0.032 1.023 -0.028 0.269 1.006 0.63 0.187 0.474 0.667 0.495 1.04 0.002 1.057 0.084 0.903 0.05 0.962 0.322 0.928
branch 1.228 0.723 1.049 -0.286 0.745 1.187 0.91 0.515 -0.042 0.583 0.809 1.746 0.823 1.092 0.039 0.056 -0.808 1.853 -0.459 1.313
brand 0.702 0.301 0.901 0.675 -0.109 1.048 -0.15 0.699 -0.339 0.344 0.144 0.647 0.404 0.144 0.658 0.242 0.545 0.221 0.646 0.22
brand-newness 0.23 0.562 0.864 0.117 0.448 0.34 0.172 0.241 0.254 0.25 0.241 0.833 0.742 0.341 0.859 0.658 0.853 0.169 0.173 0.756
brandish 0.938 0.251 0.913 0.503 0.509 0.799 0.886 0.529 0.55 0.47 0.202 0.708 0.851 0.515 0.825 0.259 0.517 0.574 0.198 0.546
brandy 0.735 0.294 0.63 0.759 0.374 0.658 0.87 0.247 0.756 0.068 0.799 0.176 0.866 0.062 0.138 0.174 0.868 0.904 0.335 0.248
brass 0.47 -0.022 0.629 0.794 -0.197 0.829 0.576 -0.008 0.009 0.351 1.301 0.633 0.903 0.966 0.016 0.547 0.398 0.51 1.038 0.064
brave 0.483 0.359 0.574 0.973 0.272 -0.019 0.797 0.61 0.651 1.135 0.907 0.291 1.017 0.953 0.905 0.735 0.522 0.77 0.371 0.553
bread 0.385 1.014 0.844 0.683 1.063 0.215 0.184 0.191 0.784 0.264 0.584 1.043 0.365 0.013 -0.084 0.546 -0.142 0.384 0.477 0.383
break 0.493 0.86 1.482 0.127 2.138 0.617 0.084 -0.333 0.237 0.574 0.551 1.686 0.173 -0.036 -0.827 -0.053 0.239 0.117 0.345 0.716
breakfast 0.843 0.909 0.883 0.246 0.603 -0.022 0.364 0.204 0.615 0.322 0.715 0.068 0.676 0.156 0.514 0.031 0.78 0.864 0.979 0.921
breathe 0.65 0.17 0.132 0.345 0.643 0.773 0.449 0.68 0.756 0.619 0.238 0.249 0.126 0.855 0.333 0.436 0.851 0.985 0.038 0.681
breather 0.922 0.043 0.768 0.867 0.227 0.486 0.659 0.445 0.054 0.078 0.012 0.144 0.971 0.428 0.969 0.507 0.377 0.575 0.441 0.898
breed 0.391 0.654 -0.137 0.841 0.109 0.394 1.037 0.36 0.84 0.689 0.534 0.413 0.106 -0.1 0.477 0.469 1.048 0.681 1.078 1.139
brick 0.407 1.099 1.064 0.961 1.097 0.176 0.229 1.036 0.675 0.306 0.094 0.226 0.12 0.209 0.165 0.598 0.611 0.512 0.397 0.709
bride 0.952 0.895 0.216 0.23 0.4 0.463 0.534 0.404 0.157 0.764 1.052 0.826 0.656 0.844 0.714 0.723 0.003 0.735 0.17 0.179
bridge 0.563 0.336 0.303 -0.529 1.572 0.167 0.393 1.489 -0.943 0.323 2.035 1.948 -0.128 0.625 1.508 -0.359 1.015 0.849 0.204 0.434
bridges 0.398 0.883 1.01 0.189 -0.094 0.122 0.382 0.467 0.905 0.05 1.031 1.147 0.259 0.713 0.968 0.573 -0.013 0.204 0.574 0.769
brigadier 0.873 0.673 0.904 0.568 0.459 0.62 0.002 1.101 0.237 0.778 0.413 0.924 0.577 1.112 0.263 0.301 0.576 0.258 0.251 0.377
bright 0.541 0.232 0.186 1.04 0.321 0.292 1.18 0.774 1.106 0.348 0.37 0.655 0.688 -0.072 0.924 0.67 0.943 0.698 -0.184 1.326
brightly 0.872 0.38 0.414 0.108 0.186 0.616 0.048 0.712 0.546 0.767 0.472 0.161 0.101 0.787 0.373 0.654 0.245 0.114 0.57 0.698
brightness 0.472 0.675 0.855 0.059 0.205 0.997 0.191 0.811 0.506 0.678 0.417 0.601 0.174 0.698 1.013 0.354 0.756 0.257 -0.031 0.802
bring 0.998 0.73 1.178 1.482 0.19 1.118 0.438 -0.201 0.182 0.631 -0.49 -0.354 1.451 1.062 0.073 -0.559 1.207 1.221 1.08 0.032
brisker 0.763 0.904 0.785 0.638 0.41 0.38 0.056 0.819 0.208 0.78 0.765 0.875 0.089 0.111 0.067 0.382 0.385 0.501 0.113 0.353
britain 0.195 0.785 0.258 0.089 1.316 0.624 0.3 0.517 0.099 -0.178 -0.422 1.142 1.404 1.478 0.264 1.116 0.563 0.747 0.894 0.112
brittany 0.289 0.755 0.557 0.172 1.008 0.838 0.454 0.797 0.232 0.209 0.351 0.042 0.544 1.024 1.016 0.746 0.68 0.505 0.359 0.636
broad 0.614 0.976 0.593 -0.053 0.739 0.317 0.789 0.962 0.434 -0.023 0.091 0.808 -0.195 0.887 0.538 0.03 0.256 0.18 0.301 0.318
broadcast 0.932 1.09 2.013 1.529 1.552 -0.751 0.912 0.0 -0.011 1.268 -1.029 0.927 0.62 0.796 0.442 0.093 -0.148 -0.308 1.323 1.131
broadcasters 0.217 0.588 0.619 0.977 0.637 -0.019 0.19 0.906 0.573 0.594 0.206 0.843 0.917 0.512 0.252 0.904 0.111 0.752 0.391 0.112
broadcasting 0.266 0.067 0.687 0.656 0.291 0.454 0.283 0.402 1.114 0.958 0.889 -0.169 0.041 0.958 1.24 0.586 1.218 0.138 0.307 0.913
brochure 0.226 0.549 0.348 0.129 0.741 0.672 0.137 0.82 0.631 0.73 0.176 0.338 0.395 0.822 0.464 0.058 0.527 0.304 0.603 0.258
brokerage 0.666 0.224 0.991 0.337 0.121 0.444 0.107 0.096 0.479 0.562 0.397 0.439 0.336 0.443 0.841 0.206 0.402 0.192 0.446 0.305
bronchus 0.264 0.735 0.364 0.199 0.044 0.76 0.811 0.626 0.574 0.142 0.982 0.946 0.938 0.117 0.251 0.817 0.436 0.654 0.177 0.319
bronze 0.614 -0.047 1.171 0.363 0.272 0.671 0.828 0.929 -0.131 0.556 -0.211 0.613 1.28 0.595 0.891 0.561 -0.418 0.316 1.829 0.076
brood 0.51 0.73 0.876 0.575 0.169 0.028 0.082 0.623 0.914 0.027 0.417 0.501 0.847 0.381 0.904 0.84 0.537 0.471 0.215 0.787
brother 0.851 0.174 0.857 -0.122 0.715 0.602 -0.102 1.051 0.444 0.559 0.795 0.457 0.525 1.099 0.543 1.016 0.836 1.006 0.189 0.806
brotherhood 0.044 0.755 0.599 0.094 1.004 0.619 0.137 0.058 0.982 0.324 0.912 0.776 0.018 0.278 0.997 0.464 0.86 0.373 0.439 0.302
brown 0.788 -0.699 0.74 1.01 0.845 -0.902 1.266 -0.368 0.478 0.918 1.244 0.34 0.555 1.331 0.337 -0.521 0.461 0.821 0.945 1.221
bruise 0.028 0.092 0.029 0.196 0.121 0.633 0.857 0.25 0.13 0.229 0.139 0.954 0.933 0.973 0.888 0.383 0.939 0.962 0.433 0.667
brush 0.831 0.161 0.291 0.844 0.668 0.278 0.241 0.888 0.254 0.418 0.397 0.627 0.004 0.25 -0.044 0.081 0.169 0.591 0.528 0.247
brussels 0.957 0.266 0.497 0.005 0.508 0.929 0.372 0.892 1.059 0.605 0.707 0.82 0.246 0.859 0.91 0.757 0.724 0.268 0.428 0.082
buck 0.607 0.972 0.919 0.858 0.419 0.705 0.995 0.43 0.662 0.306 0.77 0.833 0.051 0.175 0.49 0.039 0.385 0.329 0.933 0.71
bucket 0.398 0.937 0.583 0.662 0.785 0.106 0.059 0.812 0.246 0.891 0.261 0.167 0.97 1.021 0.516 0.686 0.026 0.816 0.019 0.833
bud 0.266 -0.046 0.067 0.204 0.88 0.683 0.107 0.559 0.264 0.392 0.255 0.31 0.724 0.561 0.403 0.223 0.619 -0.037 0.9 0.488
budget -0.038 0.035 0.995 0.533 1.009 0.332 0.15 1.327 0.729 0.052 0.534 0.408 0.009 0.373 -0.459 0.895 -0.246 0.073 0.923 0.185
buffer 0.65 0.62 0.791 0.148 0.738 0.755 -0.058 0.583 0.137 0.719 0.078 0.128 1.034 0.145 0.948 0.398 0.051 0.861 1.01 0.53
bug 0.035 0.482 0.882 0.869 0.758 -0.065 0.638 0.842 0.785 0.262 0.593 0.703 0.968 0.855 0.143 0.636 0.715 0.448 0.992 0.875
buggered 0.406 0.085 0.377 0.404 0.329 0.912 0.161 0.836 0.044 0.053 0.525 0.96 0.871 0.361 0.835 0.108 0.885 0.192 0.145 0.522
build 0.602 0.514 0.361 1.309 0.169 0.47 0.479 0.472 0.767 0.613 0.889 0.832 0.939 0.175 0.861 0.543 0.708 0.412 1.086 1.528
builders 0.519 0.012 0.516 0.463 0.892 0.641 0.273 0.868 0.916 0.045 1.009 0.86 0.508 0.895 0.412 0.872 0.668 0.507 0.168 0.304
building 0.23 2.718 -1.031 0.4 0.349 0.954 0.984 1.308 -0.477 0.64 0.223 0.597 0.707 -0.108 0.178 0.463 1.821 1.338 1.007 1.274
bulb 0.407 0.701 0.719 0.759 0.179 0.98 0.886 0.553 0.153 0.699 0.739 0.315 1.05 0.874 0.88 -0.016 0.635 0.846 0.559 0.548
bulgarian 0.118 0.069 0.807 0.373 0.999 1.164 0.155 0.305 0.247 0.274 -0.201 0.053 0.294 0.284 0.944 0.245 0.549 0.711 0.767 0.556
bulletin 0.792 1.062 0.123 0.723 0.094 0.165 -0.211 0.497 -0.042 0.127 0.238 0.563 0.753 0.474 1.061 1.137 0.985 0.488 0.772 0.122
bun 0.363 0.105 0.36 0.421 0.338 0.727 0.507 0.032 0.877 0.435 0.775 0.201 0.841 0.629 1.02 0.934 0.119 0.885 0.809 0.293
bunking 0.345 0.031 0.264 0.449 0.388 0.758 0.494 0.567 0.614 0.705 0.722 0.483 0.968 0.108 0.293 0.336 0.511 0.047 0.732 0.472
bunny 0.757 0.833 0.115 0.435 0.783 0.327 0.958 0.769 0.951 0.699 -0.066 0.036 0.172 0.926 0.037 0.048 0.142 0.671 0.11 0.669
bureaucrat 0.815 0.155 0.707 0.507 0.709 0.449 0.489 0.092 0.275 0.731 0.14 0.517 0.233 0.245 0.184 0.57 0.452 0.255 0.586 0.847
burger 0.922 0.25 0.429 0.703 0.028 0.795 0.097 0.787 0.435 0.625 0.117 0.267 0.165 0.711 0.127 0.35 0.025 0.154 -0.004 0.76
burn 1.062 0.226 0.735 0.172 0.308 0.534 1.054 1.137 0.18 0.539 0.047 0.261 0.144 1.145 0.571 0.499 -0.02 0.136 0.819 0.207
burned 0.801 0.821 0.903 0.544 0.969 0.737 0.316 0.564 0.342 0.344 1.049 0.127 0.529 0.672 0.856 0.475 0.562 0.819 0.626 0.786
burning 0.248 1.129 0.152 0.53 1.024 1.056 0.7 0.587 1.152 1.067 0.858 0.609 1.068 0.121 0.112 0.579 0.659 0.94 0.262 0.242
burst 0.95 0.404 0.281 0.384 0.983 0.906 0.918 0.687 0.733 0.841 0.811 0.316 0.425 -0.074 0.821 0.636 0.67 0.207 0.009 0.767
burying 0.353 0.862 0.25 0.028 0.513 0.862 0.084 0.64 0.626 0.109 0.612 0.793 0.279 -0.011 0.575 0.651 0.378 0.089 0.953 0.838
bus 1.095 0.135 1.097 0.503 0.596 0.002 0.527 -0.036 0.416 0.755 -0.102 1.039 0.627 0.873 -0.037 1.684 -0.018 0.33 0.741 0.893
bush 1.315 0.841 -0.079 1.267 0.036 1.404 0.793 0.876 -0.308 0.522 0.296 0.497 0.964 1.107 0.151 0.048 -0.191 0.685 -0.364 0.89
business 0.026 -0.777 1.566 0.529 -0.493 -1.423 1.97 0.593 2.115 0.195 1.794 0.788 1.082 -0.099 1.534 1.419 2.287 -1.654 1.265 1.913
businessperson 0.633 0.316 0.063 0.983 0.857 0.828 0.838 0.914 0.434 0.797 0.515 0.032 0.5 0.916 0.215 0.46 0.256 0.292 0.7 0.543
butter 0.83 -0.036 0.926 0.504 0.154 0.808 0.737 0.462 0.85 0.299 0.521 0.397 0.746 0.447 0.003 0.304 0.164 0.099 0.423 0.081
butterfly 0.611 1.039 0.163 0.663 0.764 0.299 0.94 0.574 0.378 1.018 0.49 0.925 0.772 0.7 0.914 0.102 0.131 0.127 0.71 0.074
button 0.889 0.853 0.502 0.665 0.001 0.393 0.741 -0.06 -0.076 1.168 0.093 0.528 0.792 0.849 0.301 -0.072 0.456 -0.201 0.713 0.583
buy 0.321 1.105 0.933 -0.111 0.881 0.327 0.58 0.014 0.154 0.664 0.551 -0.09 0.61 0.244 0.806 0.719 0.358 0.989 1.14 0.675
cab 0.256 0.412 0.656 0.322 0.697 0.276 1.018 0.799 0.076 0.852 0.476 0.59 0.423 0.456 0.005 0.798 0.437 0.665 0.727 0.132
cabbage 0.948 0.974 0.666 0.441 0.956 0.874 0.195 0.366 0.313 0.341 0.512 0.031 0.777 0.467 0.759 0.233 0.099 0.196 0.423 0.838
cache 0.686 0.637 -0.126 0.102 0.608 0.795 0.675 1.125 0.718 0.258 0.211 0.279 -0.104 0.293 0.345 0.456 0.955 -0.07 0.851 0.801
cactus 0.762 0.335 0.533 0.208 0.178 0.11 0.386 0.221 0.304 0.18 0.774 0.17 0.96 0.406 0.749 0.411 0.295 0.184 0.992 0.838
caesarism 0.408 0.335 0.807 0.043 0.533 0.563 0.384 0.249 0.032 0.33 0.179 0.245 0.042 0.623 0.511 0.537 0.91 0.6 0.985 0.579
cafe 0.437 0.151 0.509 0.64 0.414 0.254 0.227 0.428 0.536 0.752 1.073 0.631 0.664 0.13 0.634 0.587 0.172 0.589 0.866 0.252
cake 0.313 0.188 0.051 0.632 0.903 0.933 0.06 0.133 0.648 0.916 0.414 0.779 0.952 0.069 0.611 0.732 0.433 0.447 0.822 0.403
calcify 0.75 0.09 0.134 0.557 0.133 0.776 0.141 0.927 0.24 0.298 0.539 0.472 0.135 0.286 0.409 0.617 0.076 0.73 0.482 0.814
calculate 1.089 0.947 0.298 0.158 0.236 0.125 0.39 0.496 1.086 1.055 0.24 0.608 0.192 0.33 -0.049 0.803 0.862 0.646 0.371 0.651
calculation 1.031 0.598 0.887 0.749 0.241 0.619 0.125 0.946 -0.239 0.283 0.873 0.545 0.682 0.594 0.735 0.627 0.893 0.259 0.921 0.9
calendar 0.825 -0.115 -0.137 0.338 1.47 1.017 0.033 -0.204 -0.19 0.927 0.96 0.538 0.079 1.533 0.132 -0.021 0.174 -0.353 1.536 -0.161
caliper 0.582 0.195 0.42 0.305 0.443 0.368 0.204 0.541 0.19 0.608 0.089 0.514 0.786 0.673 0.735 0.023 0.804 0.057 0.024 0.07
call 0.141 1.528 0.673 -0.504 0.984 1.093 -0.53 -0.27 0.83 0.466 0.198 -0.396 0.452 0.966 -0.263 -0.584 1.664 0.539 0.458 0.334
calmness 0.225 0.214 0.419 0.368 0.873 0.062 0.053 0.845 0.486 0.01 0.701 0.068 0.703 0.973 0.378 0.004 0.388 0.227 0.058 0.531
camel 0.043 0.403 0.378 0.579 0.741 0.103 0.531 0.176 0.927 1.007 0.669 0.226 0.216 0.437 0.013 0.425 0.254 0.645 0.521 0.166
camera 0.533 0.656 1.156 0.65 0.208 -0.055 0.054 0.585 0.269 1.019 0.105 1.337 -0.293 0.419 1.02 0.292 0.247 0.772 1.0 1.081
campaign 0.971 0.036 0.367 0.844 0.546 -0.631 0.931 -0.069 1.011 -0.227 1.511 0.241 1.425 1.232 0.1 -0.106 1.196 1.315 -0.44 1.351
campaigning -0.037 0.032 0.494 0.429 0.381 0.542 0.557 0.957 0.368 0.398 1.005 0.545 0.958 0.941 0.046 0.702 0.862 0.267 0.333 0.056
campfires 0.541 0.538 0.98 0.345 0.628 0.759 0.644 0.702 0.92 0.152 0.075 0.456 0.55 0.76 0.535 0.007 0.65 0.108 0.116 0.946
can -2.907 1.893 4.882 -8.708 -2.584 8.867 -0.231 -1.088 -4.639 -2.865 4.501 15.709 -11.29 -4.224 -3.504 -17.133 5.531 -14.787 9.831 -19.183
canal 0.408 0.915 0.62 0.666 1.133 1.079 0.999 0.262 0.481 0.111 0.391 0.947 0.379 0.767 0.096 0.747 0.823 0.688 0.917 0.523
candidate 0.846 0.332 0.635 0.646 0.863 0.33 0.795 1.324 0.501 1.113 1.112 0.228 0.553 0.858 0.069 1.084 0.349 0.894 0.052 0.966
candle -0.055 0.4 0.06 0.314 0.954 0.967 0.102 0.052 1.006 1.008 0.252 0.574 -0.05 0.474 0.141 0.79 0.698 0.982 0.388 0.027
candy 0.157 0.733 -0.043 0.137 0.669 0.745 0.113 0.193 0.334 0.422 0.787 0.702 0.712 1.06 0.067 0.73 0.853 0.333 0.694 0.13
canine 0.719 0.361 0.331 0.255 0.764 0.253 0.337 0.147 0.234 0.815 0.832 0.261 0.407 0.571 0.081 0.571 0.879 0.799 0.091 0.074
canker 0.219 0.556 0.615 0.9 0.601 0.795 0.295 0.505 0.788 0.195 0.736 0.02 0.8 0.722 0.861 0.639 0.016 0.928 0.937 0.435
cannon 0.225 0.284 0.923 0.678 -0.071 0.775 0.278 0.214 0.934 0.713 0.25 0.533 0.278 0.158 0.96 0.657 0.902 0.007 0.953 0.52
canonical 1.037 0.269 0.27 0.67 0.009 0.967 1.014 1.023 -0.047 0.851 0.975 0.512 0.333 0.003 1.038 0.329 0.396 -0.035 0.328 0.944
canonize 0.856 0.65 0.342 0.418 0.066 0.668 0.167 0.304 0.058 0.725 0.539 0.208 0.669 0.536 0.705 0.003 0.103 0.658 0.299 0.299
canvass 0.842 0.027 0.561 0.33 0.222 0.555 0.732 0.082 0.832 0.042 0.439 0.7 0.896 0.842 0.875 0.347 0.041 0.623 0.039 0.34
canyon 0.603 0.594 0.677 0.166 0.087 0.012 0.871 0.667 0.997 0.947 0.996 0.826 0.035 0.02 0.804 0.222 0.1 1.042 0.165 0.553
cap 0.645 -0.105 0.964 0.75 0.6 0.939 0.024 0.582 0.438 0.871 0.665 0.176 0.88 0.942 0.346 0.873 0.106 0.534 -0.015 0.097
capital 2.561 1.704 0.531 -1.867 2.568 1.133 -1.243 -0.92 0.318 -0.881 2.148 -0.08 -1.63 2.229 -0.626 -0.167 1.204 1.493 -0.782 0.073
capitalised 0.602 0.734 0.418 0.674 0.582 0.489 0.626 0.395 0.524 0.024 0.72 0.613 0.525 0.42 0.288 0.469 0.852 0.502 0.213 0.183
capitalism -0.098 0.67 0.866 0.04 0.554 0.823 0.254 0.077 1.092 0.874 0.138 0.089 0.827 0.017 0.884 1.053 0.575 0.423 0.223 1.011
capitation 0.492 0.381 0.835 0.569 0.084 0.415 0.158 0.858 0.841 0.979 0.601 0.967 0.015 0.76 0.982 0.396 0.765 0.61 0.843 0.092
captain 1.034 1.083 1.046 0.851 1.245 0.422 0.719 0.696 1.499 1.085 -0.421 0.226 0.35 0.516 0.626 0.182 0.852 -0.35 0.626 0.879
capture 0.71 0.264 0.493 0.029 0.157 0.099 1.042 0.408 0.966 1.2 0.263 -0.199 -0.056 0.362 0.727 0.799 0.493 1.026 0.06 0.334
car 2.527 -2.339 0.358 0.843 0.705 0.465 1.451 -0.532 1.541 -0.359 2.476 0.741 -0.289 1.439 -0.274 0.352 1.052 0.481 0.682 1.315
caramelize 0.206 0.502 0.338 0.6 0.971 0.491 0.787 0.818 0.412 0.454 0.387 0.017 0.864 0.277 0.392 0.946 0.27 0.993 0.543 0.461
carbon -0.803 -0.619 0.099 1.241 0.302 0.794 0.403 -0.01 0.887 -0.179 1.232 0.403 0.621 -0.108 1.702 0.257 0.18 1.507 1.169 0.328
carbonate 0.144 1.078 0.041 0.497 0.218 0.648 0.589 0.808 0.613 0.031 0.271 0.448 0.263 0.305 0.609 0.767 0.312 0.254 0.636 0.493
carbonic 0.124 0.732 0.052 0.489 0.338 0.553 0.268 0.977 0.16 0.763 0.962 0.788 0.724 0.807 0.997 0.63 0.217 0.674 0.395 0.331
carburettors 0.994 0.303 0.213 0.206 0.435 0.99 0.224 0.957 0.643 0.847 0.111 0.554 0.068 0.741 0.975 0.115 0.334 0.015 0.471 0.992
card 2.501 -0.284 2.3 -0.741 0.737 -1.079 1.158 1.41 -0.933 0.265 -0.075 1.924 -0.007 1.94 -0.912 -0.268 0.406 -0.85 -0.072 0.981
cardinality 0.67 0.302 0.035 0.844 0.066 0.968 0.129 0.938 0.164 -0.034 0.519 0.613 0.955 0.014 0.846 0.879 0.516 0.619 0.148 0.379
cardinals 0.838 0.457 0.747 0.437 0.432 0.944 0.937 0.832 0.74 -0.007 0.447 0.465 0.315 0.328 -0.028 1.091 0.049 0.086 0.138 0.185
care 1.281 -0.225 -0.336 0.681 -0.06 0.327 1.123 0.392 1.276 0.917 0.891 -0.468 -0.289 1.383 0.834 1.407 0.831 -0.375 1.745 0.337
career -0.263 0.963 1.412 -0.715 0.534 0.383 1.236 2.122 0.09 0.563 0.96 -0.047 1.544 0.291 0.872 0.962 2.108 -0.253 -0.254 -0.161
careerism 0.197 0.437 0.094 0.663 0.108 0.968 0.588 0.625 0.339 0.515 0.593 0.359 0.388 0.913 0.467 0.777 0.639 0.023 0.481 0.913
carefreeness 0.696 0.553 0.055 0.273 0.729 0.49 0.182 0.879 0.688 0.557 0.615 0.171 0.692 0.802 0.691 0.65 0.401 1.0 0.707 0.457
careful -0.05 0.89 0.328 0.73 -0.01 0.053 0.199 0.552 0.99 0.376 0.66 0.568 0.972 0.705 0.722 0.677 0.62 0.3 0.296 0.336
cargo 0.303 0.297 0.608 0.692 0.324 0.628 0.377 0.037 0.233 0.917 0.556 0.011 0.087 0.973 0.88 0.953 0.556 0.89 1.299 0.56
carnival 0.24 0.658 0.013 0.844 0.242 0.259 0.553 0.666 -0.032 0.416 0.555 0.841 0.394 0.67 0.808 0.044 0.299 0.652 0.302 0.323
carnivore 0.505 0.605 0.658 0.232 0.434 0.706 0.752 0.834 0.968 0.191 0.557 0.553 0.653 0.215 0.633 0.386 0.41 0.817 0.996 0.87
carriage 0.265 0.633 0.305 0.155 0.222 1.014 0.589 0.455 0.157 0.584 0.163 0.089 0.46 0.075 0.647 0.898 0.731 0.832 0.864 0.763
carrier 0.565 0.994 1.487 0.028 1.662 1.86 -0.048 1.316 0.355 1.424 1.14 -0.089 0.173 0.643 0.191 -0.193 -0.146 -0.175 0.196 1.248
carrot 0.995 0.626 0.273 0.246 -0.009 0.015 0.797 0.061 0.426 0.142 0.235 0.697 0.895 0.821 0.861 0.189 0.913 0.747 0.103 0.25
carry 0.361 0.296 0.666 1.096 0.951 1.062 0.044 1.365 0.924 0.326 -0.381 -0.422 0.991 0.811 0.194 1.31 0.941 0.741 0.518 0.87
cart 0.413 0.749 0.605 0.231 0.899 0.647 0.448 0.546 1.072 0.757 0.185 0.307 0.302 0.09 0.927 0.806 0.251 0.932 0.507 0.254
cartoon 0.875 0.406 0.897 0.316 -0.195 0.924 0.942 0.957 0.953 1.133 0.174 0.633 0.24 0.871 1.302 -0.073 1.338 0.496 0.664 1.164
case -0.03 0.727 1.048 2.034 0.652 0.315 0.299 -0.573 0.048 3.561 0.693 0.762 0.165 0.019 -1.027 -2.143 2.557 1.375 0.754 0.771
casey 0.011 0.233 0.154 0.487 0.898 0.962 0.92 0.896 0.98 0.089 0.221 0.917 0.746 1.016 0.214 0.71 0.162 0.392 0.518 0.709
cash -0.037 0.712 1.085 0.381 0.645 1.297 -0.295 0.95 0.597 0.834 0.988 -0.2 0.632 0.515 0.483 0.379 0.529 1.029 0.2 0.189
cast 0.13 0.795 0.494 1.007 0.565 0.621 0.849 1.203 0.065 0.16 1.071 0.192 1.324 0.541 0.623 -0.358 0.358 0.31 0.822 1.108
casteless 0.138 0.736 0.603 0.283 0.132 0.537 0.667 0.609 0.884 0.072 0.781 0.481 0.935 0.48 0.716 0.374 0.818 0.502 0.842 0.428
castle 0.18 0.415 0.678 0.194 0.082 0.845 0.218 -0.101 0.513 0.398 0.928 0.78 -0.03 -0.244 -0.095 0.47 0.658 0.828 0.645 1.206
castled 0.81 0.284 0.483 0.447 0.986 0.662 0.772 0.57 0.629 0.521 0.061 0.204 0.49 0.186 0.257 0.104 0.814 0.213 0.67 0.693
cat 0.83 0.172 -0.163 0.703 0.609 1.227 0.814 0.582 0.932 0.392 0.321 0.518 0.903 1.186 1.247 1.17 -0.238 -0.229 0.663 0.225
catalogued 0.078 0.861 0.129 0.431 0.56 0.631 0.978 0.736 0.27 0.174 0.144 0.697 0.337 0.321 0.183 0.606 0.09 0.69 0.034 0.555
catch 0.451 1.011 0.535 0.593 0.82 0.851 0.817 -0.038 0.789 0.182 0.184 0.124 0.19 1.061 0.053 0.744 0.744 -0.065 0.932 0.935
categorization 0.78 0.889 0.629 0.262 0.547 0.396 0.0 0.673 0.736 0.652 0.936 0.838 0.374 0.785 0.843 0.991 0.344 0.345 0.724 0.357
category 0.529 1.258 -0.062 0.583 0.736 0.836 0.616 0.589 0.871 1.534 -0.245 0.397 0.841 0.265 0.964 -0.031 0.133 0.386 1.571 0.279
caterpillar 0.355 0.944 0.397 0.191 0.795 0.007 0.318 0.247 0.194 0.059 0.691 0.735 0.433 0.438 0.025 0.837 0.5 0.166 0.066 0.713
cathedral 0.679 0.076 0.165 0.15 1.161 0.924 -0.125 0.094 0.61 0.165 0.245 0.775 0.597 0.765 -0.011 0.445 1.028 0.735 -0.081 0.952
catholics 0.412 0.347 0.692 0.445 0.835 0.053 0.083 0.37 0.628 0.603 0.86 0.632 0.932 1.011 0.981 -0.143 1.161 0.763 0.93 0.499
cattle 0.755 0.428 0.228 0.855 0.971 0.755 0.509 0.731 -0.03 0.583 1.03 0.533 0.807 0.259 0.974 0.279 1.078 -0.049 0.558 0.468
causative 0.182 0.512 -0.014 0.78 0.225 0.674 0.509 0.175 0.125 -0.0 0.968 0.588 0.129 0.205 0.237 0.575 0.071 0.502 0.814 0.444
causing 0.355 1.293 1.119 0.501 1.447 0.68 0.511 1.013 0.584 0.405 0.134 -0.128 1.184 -0.501 0.918 0.812 1.039 -0.226 0.315 0.392
cautious 0.758 0.789 0.081 0.206 0.529 0.16 0.301 0.983 0.904 0.011 0.842 0.286 0.232 0.119 0.957 1.014 0.013 0.388 0.483 0.474
cave -0.08 0.208 0.021 0.776 0.287 0.902 0.648 0.888 1.084 1.029 0.166 0.725 0.018 0.591 0.523 -0.048 1.094 0.083 0.882 0.227
ceaseless 0.155 0.82 0.703 0.777 0.787 0.834 0.636 0.425 0.213 0.562 0.447 0.804 0.467 0.559 0.549 0.981 0.479 0.111 0.918 0.41
ceiling 0.074 0.905 0.729 0.972 0.679 0.937 0.945 0.415 0.746 0.777 0.122 0.464 0.613 1.031 0.702 0.465 0.663 0.571 0.153 0.779
cell -0.832 1.383 -0.191 1.127 -0.938 1.31 0.512 0.178 0.512 1.611 1.021 0.497 -0.398 1.445 2.174 -0.08 1.254 1.498 0.333 -1.476
cement 0.75 -0.038 0.405 0.311 0.334 0.102 -0.07 0.867 0.179 0.997 0.815 0.157 0.097 0.451 0.531 0.277 0.525 0.43 0.022 0.988
cemetery 0.25 0.548 0.609 0.728 1.002 0.934 -0.1 0.358 0.982 0.877 0.553 0.291 1.143 -0.063 0.472 -0.065 0.843 0.301 1.214 0.205
censoring 0.825 0.375 0.063 0.583 0.754 0.456 0.233 0.37 0.507 0.97 0.15 0.258 0.826 0.08 0.46 0.251 0.471 0.583 0.465 0.398
censorship 0.153 0.206 0.567 -0.105 1.092 0.695 0.521 0.163 0.459 0.064 0.394 1.027 0.257 0.642 0.558 0.352 1.02 0.255 0.408 0.015
censorships 0.615 0.047 0.196 0.898 0.991 0.41 0.93 0.664 0.59 0.258 0.699 0.054 0.062 0.216 0.54 0.062 0.511 0.218 0.258 0.477
center 1.614 1.4 2.027 2.329 -0.228 -2.19 0.364 0.057 -2.271 0.136 2.196 0.488 1.879 0.896 1.337 2.424 1.738 -0.027 0.79 -0.585
century 0.238 -2.291 -1.745 -0.163 1.267 3.073 1.247 4.074 -0.865 -1.26 -1.339 1.332 -2.587 0.769 3.93 -2.252 4.21 0.531 -1.534 -1.505
ceramic 0.354 0.23 0.905 0.15 0.241 0.909 0.134 0.955 0.614 1.039 0.955 0.332 0.449 0.969 1.068 0.634 0.695 0.199 0.301 0.695
ceramicist 0.392 0.389 0.326 0.292 0.661 0.591 0.449 0.595 0.495 0.61 0.857 0.2 0.124 0.134 0.454 0.365 0.675 0.985 0.67 0.364
ceremonious 0.936 0.609 0.774 0.335 0.713 0.442 0.259 0.891 0.988 0.494 0.054 0.751 0.631 0.087 0.299 0.564 0.568 0.009 0.301 0.923
certificate 0.698 0.628 0.691 0.488 0.471 0.657 0.623 0.915 0.472 0.206 0.863 -0.101 0.594 0.96 0.696 0.228 1.06 -0.016 0.762 0.348
cession 0.766 0.235 0.721 0.052 0.984 0.024 0.813 0.947 0.229 0.634 0.083 0.62 0.805 0.635 0.748 0.433 0.221 0.836 0.64 0.993
chain 1.202 -0.165 1.213 1.244 0.117 1.097 -0.32 0.644 -0.053 0.663 -0.23 0.786 -0.311 0.421 1.047 1.134 1.224 1.012 0.427 0.566
chair 0.894 0.536 0.801 0.282 0.004 0.702 0.421 0.847 0.141 0.294 0.269 0.893 0.748 0.563 0.657 0.538 0.116 0.242 0.54 0.899
chairmanship 0.932 0.963 0.854 0.271 0.441 0.424 0.367 0.842 0.515 0.961 0.716 0.283 0.936 0.26 0.86 0.599 0.482 0.804 0.792 0.741
challenge -0.201 0.925 0.999 0.809 1.035 0.227 0.254 1.153 1.011 1.068 0.759 1.068 0.819 0.64 0.528 0.983 -0.132 0.727 0.789 0.546
chamber 0.502 0.938 0.568 -0.15 1.167 0.612 0.544 0.567 -0.048 0.723 0.531 0.153 -0.083 -0.03 0.467 1.362 0.684 0.385 0.09 0.638
championship 1.538 0.496 0.281 -0.418 1.061 1.427 0.902 0.281 1.383 1.163 -0.35 -0.904 0.393 1.339 -0.386 -0.344 0.01 0.674 0.647 0.311
chance 0.714 0.604 0.612 0.507 0.751 0.04 0.102 0.285 0.814 0.731 -0.19 -0.01 -0.201 1.146 0.677 0.282 0.214 0.125 0.018 0.097
chandler 0.127 1.009 0.893 0.178 0.803 0.737 0.596 0.019 0.22 0.28 0.393 0.427 0.352 0.009 0.07 0.591 0.615 0.907 0.481 0.076
change -0.647 0.265 1.551 1.529 0.327 1.921 1.385 1.697 1.759 1.171 -0.146 1.468 1.363 -0.346 1.622 0.861 0.625 -0.612 -0.519 0.031
changeableness 0.403 0.904 0.002 0.07 0.952 0.868 0.026 0.414 0.7 0.921 0.698 0.812 0.683 0.347 0.238 0.774 0.252 0.956 0.38 0.351
channel -0.172 -0.24 0.591 1.033 0.654 -0.302 1.588 0.786 0.161 1.569 0.544 0.364 0.947 1.596 -0.368 1.038 -0.589 -0.592 0.71 1.77
chaos 0.223 0.71 0.055 0.967 0.755 0.085 0.42 0.54 0.31 0.401 1.044 0.436 0.618 0.005 0.291 -0.206 0.158 1.026 1.12 0.732
chapel 0.658 0.479 0.046 0.556 0.998 0.293 0.616 0.801 0.255 0.73 0.448 0.755 0.335 0.927 0.7 0.149 0.166 0.657 1.105 0.356
character 1.102 1.062 -0.727 0.049 2.243 2.195 0.644 -0.964 -0.304 1.352 0.077 0.627 0.467 1.296 1.623 1.344 -0.298 -0.224 0.972 0.244
characteristic 0.538 -0.35 1.294 0.394 0.115 0.339 0.412 -0.02 0.935 -0.328 0.246 0.77 0.902 1.197 0.387 0.431 0.037 0.683 0.133 0.058
characterless 0.895 0.022 0.617 0.722 0.945 0.199 0.066 0.973 0.875 0.247 0.523 0.077 0.273 0.07 0.421 0.114 0.619 0.922 0.549 0.513
characters 0.507 0.366 0.928 -0.693 1.728 0.504 1.506 1.624 0.968 0.766 -0.221 -0.415 0.848 1.321 2.358 0.101 -0.364 -0.214 1.107 -1.178
charge 0.904 0.772 0.098 1.451 0.505 -0.039 -0.029 1.028 0.316 0.964 0.085 0.469 0.401 0.549 0.04 0.469 -0.186 0.784 -0.172 0.129
charged 0.831 0.699 0.823 0.558 0.093 0.979 0.394 0.159 0.226 -0.008 0.502 0.943 0.121 0.165 0.127 0.612 0.261 0.861 1.067 0.319
charm 0.466 0.838 0.521 0.048 0.828 0.044 0.774 0.825 -0.03 0.758 0.864 0.258 0.997 0.058 0.261 0.012 1.016 0.888 0.438 1.032
chatter 0.637 0.941 0.327 0.819 0.906 0.244 0.79 0.51 0.332 0.313 0.472 0.797 0.579 0.989 0.035 0.271 0.384 0.08 0.109 0.07
chauvinist 0.723 0.724 0.727 0.792 0.144 0.149 0.076 0.099 0.763 0.909 0.3 0.378 0.511 0.127 0.551 0.882 0.464 0.962 0.672 0.204
cheap 0.438 0.38 0.289 1.01 0.152 0.318 0.639 0.968 0.889 0.484 0.54 0.348 -0.027 0.805 0.069 0.106 0.27 0.978 0.536 0.92
cheapen 0.406 0.64 0.784 0.102 0.607 0.447 0.127 0.876 0.838 0.334 0.566 0.487 0.979 0.15 0.092 0.623 0.304 0.863 0.412 0.226
cheat 0.487 0.228 0.943 0.467 0.946 0.801 0.358 0.803 0.747 0.177 0.294 0.956 0.845 0.703 1.008 0.269 0.789 0.008 0.669 0.887
check 0.876 0.561 0.274 0.613 1.236 0.134 0.021 0.817 0.581 0.265 0.398 0.776 0.534 1.123 0.717 0.562 0.922 -0.062 0.837 0.88
cheerleader 0.367 0.677 0.753 0.412 0.29 0.849 0.286 0.962 0.931 0.639 0.452 0.785 0.563 0.821 0.709 0.253 0.616 0.148 0.271 0.392
cheers 0.008 0.666 0.576 0.527 0.245 0.869 0.607 0.474 1.001 0.08 0.954 0.463 0.247 0.52 0.898 0.093 0.187 0.731 0.363 0.531
cheese -0.119 0.654 0.512 0.537 0.71 0.64 0.637 0.317 0.274 0.638 0.866 0.053 -0.043 0.275 0.347 0.343 0.529 0.185 0.935 1.025
cheetah 0.827 0.034 0.28 0.651 0.41 0.849 0.052 0.758 0.644 0.693 0.175 0.879 0.9 0.162 0.571 0.928 0.844 0.323 0.896 0.14
chef 0.45 0.262 0.539 0.167 0.514 0.168 0.05 0.73 0.411 0.143 0.096 0.788 1.018 0.464 0.39 0.217 0.484 0.448 -0.0 0.334
chemical -0.075 0.123 -0.281 1.673 2.509 2.49 -0.847 1.17 0.879 1.45 2.021 -0.851 0.862 -1.003 -0.072 0.593 1.572 1.894 0.147 1.304
chemistry 0.5 0.544 0.482 -0.197 0.712 0.985 -0.195 -0.282 0.84 -0.535 0.817 1.122 0.675 0.004 0.184 -0.459 0.203 1.129 -0.312 -0.276
cherry 0.893 0.91 0.646 0.643 0.238 -0.036 0.579 0.768 0.394 0.111 0.65 0.995 0.19 0.882 -0.047 0.309 0.612 0.403 0.091 0.119
chess -0.232 0.543 1.193 1.054 1.153 0.897 0.155 -0.132 -0.171 1.367 1.46 0.66 1.196 0.381 0.415 0.515 -0.407 1.102 0.68 1.383
chick 0.817 0.486 0.976 1.064 0.799 0.537 0.705 0.315 0.81 0.25 0.875 0.578 0.838 0.586 0.358 0.438 0.738 0.35 0.086 0.289
chicken 0.045 0.711 0.708 0.523 -0.077 0.715 0.778 0.698 0.378 0.635 -0.169 0.082 0.346 1.064 1.097 0.781 -0.021 0.317 0.928 0.449
chief -0.8 2.041 0.554 -0.04 3.395 -0.286 0.798 -0.192 0.862 1.041 0.203 -1.829 1.247 1.061 -0.091 -0.241 2.074 1.312 -0.965 1.779
child -0.365 -0.298 0.53 1.378 1.371 -0.289 -0.215 1.092 1.188 0.573 0.274 -0.398 0.004 0.308 0.038 1.836 -0.499 1.498 -0.363 0.035
childhood 0.939 1.122 0.442 0.851 -0.009 0.829 1.092 0.709 0.698 0.348 0.735 -0.237 -0.056 0.183 0.427 1.072 0.664 0.923 -0.061 0.485
children 1.589 0.246 -0.322 0.565 -0.542 0.802 2.013 2.574 -0.185 1.31 1.053 -0.105 -0.059 1.909 1.425 -0.751 -0.886 -0.598 1.137 0.595
chile -0.094 -0.052 0.895 0.626 0.237 0.292 0.945 0.868 0.288 0.015 0.233 0.334 0.854 0.819 0.268 0.069 0.776 0.53 0.875 0.307
chin 0.746 0.529 0.195 0.614 0.8 0.594 0.287 0.51 0.373 0.518 0.9 0.738 0.831 0.328 0.287 0.562 0.868 0.517 0.999 0.861
chip 0.134 0.088 0.16 1.01 0.517 1.319 -0.186 0.928 0.822 0.132 0.688 0.845 0.913 0.976 1.06 0.919 0.34 0.234 0.467 1.019
chipmunk 0.098 0.488 0.879 0.994 0.233 0.3 0.75 -0.001 0.588 0.898 0.386 0.448 0.521 0.232 0.143 0.414 0.456 0.33 0.212 0.649
chloride 0.175 0.374 0.206 0.978 0.547 0.545 0.722 0.707 0.785 0.645 0.917 0.881 1.034 0.529 0.404 0.716 0.806 0.23 0.259 0.932
chocolate 0.016 0.86 0.956 -0.099 0.159 0.944 0.619 1.132 0.686 1.003 0.672 1.012 0.657 0.12 0.238 0.078 0.451 0.512 0.003 0.624
choice 0.762 1.097 1.032 0.132 -0.249 0.47 1.179 1.261 -0.016 0.112 0.428 0.26 0.618 0.034 0.155 0.856 0.397 0.764 -0.039 0.346
choke 0.547 0.791 -0.0 0.455 0.081 0.385 0.05 0.264 0.49 0.621 0.307 0.588 0.73 0.487 0.353 0.473 0.112 0.422 0.644 0.562
choose 1.075 0.495 0.656 0.219 0.158 0.883 0.054 1.249 0.977 0.493 0.29 1.111 0.691 0.045 -0.246 0.306 -0.243 1.133 0.586 0.772
chooses 0.78 0.532 0.603 0.869 0.625 0.929 0.196 0.903 0.36 0.713 0.052 0.247 0.48 0.872 0.986 0.235 0.469 0.37 0.501 0.971
chopper 0.751 0.843 0.003 0.314 0.907 0.025 0.394 0.492 0.815 0.899 0.598 0.431 0.231 0.549 0.538 0.233 0.206 0.191 0.331 0.167
chord 0.173 0.867 0.427 -0.059 0.883 0.568 0.333 0.133 0.43 0.609 0.927 0.443 0.5 0.894 0.81 0.174 0.163 0.199 -0.019 0.429
christianise 0.621 0.792 0.828 0.333 0.449 0.333 0.751 0.166 0.233 0.998 0.152 0.423 0.76 0.747 0.048 0.917 0.161 0.443 0.75 0.82
christianity 0.585 0.565 -0.036 0.947 1.235 -0.051 1.349 0.346 0.723 0.824 0.729 0.839 0.034 0.53 1.335 0.003 0.994 0.578 0.502 0.904
christmas 0.092 -0.042 0.04 0.429 0.199 0.055 1.129 0.466 1.337 1.363 -0.421 -0.721 1.033 1.394 -0.28 1.447 0.802 -0.445 0.222 0.751
chromatic 0.634 0.267 0.116 1.072 -0.042 1.001 0.975 0.388 0.374 0.227 0.522 0.451 0.643 0.301 0.473 0.596 -0.142 0.952 0.522 0.232
chronicle 0.682 0.18 0.954 1.07 0.167 0.939 0.361 0.693 0.284 0.15 0.751 0.683 0.53 0.11 0.602 0.384 0.916 0.061 0.17 0.61
chronologize 0.363 0.006 0.928 0.462 0.549 0.608 0.091 0.49 0.652 0.937 0.301 0.851 0.799 0.55 0.805 0.889 0.218 0.615 0.77 0.843
chuck 0.612 0.408 0.692 0.57 0.398 1.006 0.332 0.241 0.538 0.617 0.75 0.04 0.28 0.189 -0.083 0.446 0.514 0.741 0.717 0.709
church -3.175 2.084 1.788 -1.648 1.771 -0.451 1.41 3.017 1.617 1.511 2.471 0.878 1.973 -0.882 0.92 -3.456 -0.951 1.625 -1.924 -0.721
churchs 0.055 0.379 0.292 0.672 0.198 0.261 0.996 0.376 0.65 0.421 0.344 0.105 0.499 0.912 0.721 0.248 0.998 0.004 0.471 0.199
cigarette 0.769 0.505 -0.023 0.108 0.169 0.217 0.73 0.007 0.442 0.215 0.846 0.659 0.657 0.758 0.422 0.224 -0.032 0.352 0.408 0.173
circle 0.369 0.933 1.142 0.035 0.422 1.033 0.055 0.853 -0.24 1.075 1.084 0.432 0.892 1.18 0.525 1.099 0.56 0.29 -0.323 0.261
circularize 0.783 0.153 0.738 0.069 0.083 0.302 0.188 0.152 0.382 0.721 0.18 0.829 0.528 0.225 0.006 0.529 0.894 0.694 0.695 0.642
circulate 0.695 0.129 0.81 0.11 0.574 0.822 0.361 0.437 0.951 0.846 0.389 0.395 0.95 0.667 0.186 0.783 0.07 0.282 0.59 0.139
circulation 0.045 0.897 0.735 0.541 0.45 0.559 1.092 0.256 0.535 0.149 1.014 0.103 0.904 0.626 0.163 0.882 0.99 0.109 0.529 0.513
circumcising 0.844 0.003 0.305 0.764 0.038 0.208 0.98 0.916 0.18 0.121 0.81 0.092 0.651 0.362 0.631 0.256 0.433 0.725 0.546 0.701
circumcision 0.561 0.506 0.224 1.002 0.222 0.788 1.017 0.341 0.064 0.833 0.509 0.374 0.666 0.625 1.02 -0.016 0.695 0.793 0.12 0.336
circumcisions 0.302 0.274 0.884 0.591 0.386 0.337 0.741 0.472 0.414 0.861 0.685 0.721 0.725 0.706 0.494 0.53 0.069 0.428 0.909 0.922
circumference 0.847 0.333 0.87 0.262 0.495 0.478 0.415 0.313 0.05 0.153 0.075 0.764 0.886 0.772 0.698 0.893 0.485 1.008 0.672 0.523
circumferential 0.156 0.929 0.306 0.393 0.997 0.51 0.817 0.544 0.492 0.189 0.849 0.096 0.425 0.506 0.453 0.654 0.608 0.82 0.827 0.439
circumnavigate 0.064 0.356 0.758 0.278 0.352 0.412 0.653 0.825 0.503 0.822 0.742 0.306 0.093 0.568 1.007 0.855 0.115 0.826 0.26 0.252
circumnavigations 0.049 0.079 0.676 0.199 0.897 0.599 0.225 0.494 0.778 0.124 0.934 0.139 0.195 0.744 0.737 0.711 0.252 0.453 0.359 0.259
circumpolar 0.386 0.74 0.773 0.098 0.756 0.321 0.071 0.183 0.553 0.158 0.951 0.678 0.916 0.061 0.866 0.44 0.448 0.72 1.035 0.826
circumscribed 0.774 0.04 0.552 0.315 0.921 1.007 0.525 0.173 0.889 0.916 0.531 0.232 0.978 0.845 0.706 0.222 0.342 0.229 0.17 0.784
circumscribes 0.596 0.155 0.877 0.171 0.587 0.976 0.033 0.345 0.807 0.163 0.339 0.998 0.163 0.389 0.268 0.785 0.388 0.987 0.264 0.059
circumspect 0.538 0.194 0.313 0.53 0.315 0.288 0.363 0.392 0.664 0.73 0.113 0.561 0.767 0.205 0.775 0.186 0.275 0.142 0.806 0.066
circumstances 0.106 0.295 0.867 0.536 -0.071 0.118 0.241 0.782 0.374 0.004 0.065 1.321 0.726 0.946 -0.111 0.803 -0.015 0.316 0.493 0.504
circumvent 0.241 0.662 0.959 0.037 0.682 0.052 0.843 0.663 0.048 0.887 0.367 0.718 0.662 0.815 0.044 0.396 0.092 0.476 0.266 0.322
circumvented 0.525 0.227 0.163 0.605 0.164 0.035 0.543 0.856 0.307 0.891 0.796 0.094 0.421 0.135 0.081 0.439 0.851 0.752 0.876 0.977
circumventing 0.535 0.615 0.425 0.862 0.372 0.057 0.051 0.84 0.991 0.802 0.866 0.105 0.268 0.562 0.119 0.314 0.385 0.346 0.349 0.868
circumvents 0.15 0.711 0.304 0.093 0.266 0.767 0.337 0.19 0.364 0.166 0.607 0.119 0.916 0.449 0.951 0.913 0.666 0.264 0.49 0.871
circumvolution 0.593 0.902 0.645 0.572 0.744 0.549 0.453 0.257 0.243 0.971 0.35 0.487 0.595 0.72 0.181 0.845 0.336 0.112 0.19 0.959
citizen 0.781 1.03 0.639 0.642 0.21 0.533 0.774 0.278 0.017 0.064 0.097 0.66 1.01 0.808 0.052 0.13 0.942 0.323 0.121 0.336
citizenship 1.081 0.923 0.075 -0.01 1.06 0.494 1.087 0.193 0.52 0.73 0.342 0.857 0.42 0.685 0.235 0.047 0.127 0.811 0.293 0.937
citrus 0.264 0.279 0.076 0.454 0.175 0.261 0.806 0.945 1.043 0.149 0.851 0.059 0.44 0.533 0.694 0.844 -0.019 0.537 0.628 0.236
city 4.212 2.542 3.778 -1.944 -0.2 -3.052 -3.581 -9.092 5.135 5.659 -4.708 4.303 -6.984 0.504 6.237 -0.88 2.012 3.074 -5.692 0.968
civilise 0.507 0.625 0.857 0.022 0.557 0.248 0.744 0.464 0.564 0.573 0.863 0.253 0.455 0.883 0.517 0.884 0.988 0.299 0.258 0.732
clairvoyant 0.792 0.03 0.315 0.647 0.294 0.504 0.47 0.895 0.535 0.232 0.024 0.779 0.259 0.575 0.872 0.198 0.838 0.118 0.471 0.653
clamor 0.235 0.471 0.8 0.428 0.736 0.143 0.816 0.169 0.625 0.666 0.146 0.522 0.351 0.464 0.844 0.862 0.018 0.331 0.79 0.098
clamorous 0.11 0.318 0.541 0.137 0.031 0.035 0.051 0.181 0.73 0.481 0.861 0.347 0.445 0.063 0.877 0.092 0.851 0.235 0.874 0.989
clarify 0.679 0.717 0.809 0.912 0.735 0.401 0.791 0.964 0.33 0.052 0.686 0.264 0.624 0.279 0.605 0.566 0.85 0.247 0.182 0.115
clash 0.517 0.078 0.198 0.978 0.453 0.409 0.355 0.335 0.466 0.23 0.969 0.023 0.737 0.655 -0.027 0.716 0.713 0.789 0.886 0.517
classicist 0.197 0.46 1.013 0.693 0.807 0.013 0.852 0.442 0.479 0.493 0.817 0.113 0.843 0.841 0.119 0.994 0.231 0.301 0.824 0.209
classics 0.48 1.004 0.292 0.634 0.474 0.851 0.848 0.39 0.337 0.601 0.484 0.654 0.926 0.256 0.23 0.813 0.849 0.179 0.551 0.996
classification 0.824 0.685 0.359 -0.159 0.167 0.598 0.163 0.762 1.065 -0.485 -0.268 -0.124 0.595 0.315 0.389 1.12 1.31 0.003 1.053 1.331
classify 0.427 0.367 0.777 0.386 0.135 0.42 0.689 0.992 0.957 0.609 0.92 0.848 0.778 0.941 0.208 0.932 0.039 0.107 0.081 0.139
clean 0.171 0.369 0.995 0.86 0.52 0.827 0.406 0.91 0.71 0.422 0.827 0.591 0.948 0.299 -0.136 0.441 0.761 0.066 0.214 0.343
clergyman 0.165 0.271 -0.016 0.531 0.284 0.271 0.633 0.845 0.24 0.467 0.606 0.216 0.993 0.564 0.16 -0.01 0.743 0.774 0.847 0.158
clericalism 0.496 0.248 0.327 0.768 0.021 0.328 0.838 0.185 0.726 0.784 0.145 0.666 0.465 0.003 0.12 0.741 0.766 0.685 0.789 0.704
click 0.517 0.237 0.409 0.189 0.396 0.055 0.631 0.286 0.737 0.646 0.27 0.537 0.952 0.826 0.639 1.032 0.397 0.089 0.373 0.479
clients 0.145 0.482 0.658 0.708 0.796 0.264 0.527 0.065 0.804 0.181 0.45 0.837 0.855 0.244 1.135 0.288 0.226 0.876 0.542 0.941
cliff 0.914 0.738 -0.019 0.527 1.019 0.79 0.408 0.047 0.647 0.256 0.021 0.526 0.687 1.06 0.809 0.045 0.855 0.815 0.082 0.002
cliffhanger 0.061 0.324 0.309 0.278 0.366 0.405 0.628 0.645 0.39 0.455 0.121 0.741 0.379 0.858 0.566 0.539 0.613 0.453 0.846 0.774
climb 0.455 0.784 0.97 0.235 0.198 0.399 0.182 -0.032 0.157 0.898 0.122 0.468 0.128 0.49 0.226 0.33 0.938 0.233 0.766 0.067
clinic 0.895 0.884 0.757 0.129 0.259 0.257 0.918 0.59 0.305 0.175 0.779 0.043 0.061 1.002 0.478 0.855 0.764 0.43 0.437 0.601
clip 0.901 0.541 0.578 0.652 0.006 0.472 0.58 0.585 0.323 1.009 -0.07 0.809 0.764 0.548 0.753 0.717 0.19 0.816 0.596 0.655
clock -0.254 0.958 0.064 -0.433 1.018 1.274 1.149 0.864 0.56 0.914 0.696 -0.105 0.736 0.973 0.985 -0.468 -0.177 1.173 -1.061 0.425
close 0.888 1.448 0.523 -0.758 0.198 2.238 0.59 2.404 1.402 -1.146 0.407 -0.543 0.641 0.117 -0.125 1.707 1.469 1.102 -0.876 0.003
closet 0.495 0.968 0.132 0.6 0.17 0.713 0.387 0.292 0.374 0.502 0.281 0.352 0.677 0.416 0.787 0.164 0.449 0.626 0.307 0.262
cloth 0.124 0.127 0.358 0.879 0.24 0.828 -0.107 0.196 0.836 0.322 0.023 0.066 0.252 0.194 -0.015 0.805 0.544 1.024 0.538 0.206
clothes 0.359 0.709 0.194 0.67 0.166 0.766 0.98 0.037 0.976 0.045 0.53 0.349 0.46 0.579 0.32 0.681 0.58 0.142 0.687 0.836
cloud 0.272 0.601 0.545 0.886 1.007 0.227 0.425 0.579 0.692 0.993 0.281 0.499 0.499 -0.033 0.704 0.247 0.505 0.516 0.195 0.419
clown 0.467 0.198 0.667 0.852 0.409 0.294 0.568 0.395 0.207 0.922 0.835 0.862 1.075 0.921 0.684 0.422 0.899 0.945 0.993 0.923
clownish 0.692 0.373 0.247 0.471 0.623 0.985 0.938 0.629 0.695 0.798 0.168 0.535 0.142 0.761 0.908 0.203 0.245 0.113 0.183 0.811
clozapine 0.085 0.415 0.972 0.914 0.34 0.551 0.029 0.268 0.485 0.952 0.928 0.402 0.408 0.885 0.862 0.518 0.418 0.011 0.411 0.427
club -0.526 1.516 1.722 -0.495 0.724 -1.319 1.334 -0.703 2.446 2.149 1.133 1.39 -0.236 0.278 -0.12 1.358 -0.292 -0.406 0.349 0.195
clubhouse 0.514 0.643 0.218 0.088 0.352 0.179 0.298 0.736 0.065 0.696 0.129 0.1 0.472 0.094 0.69 0.72 0.476 0.101 0.109 0.2
