abandon 0.161 -0.112 -0.339 0.033 -0.171 0.131 -0.046 0.084 -0.041 -0.281 -0.313 0.031 0.11 -0.065 0.023 0.231 -0.039 -0.108 0.008 0.222 0.458 -0.285 -0.072 -0.184 0.283 -0.082 0.039 -0.087 -0.152 -0.139 0.156 -0.125 -0.176 0.127 -0.53 -0.025 -0.042 0.016 -0.135 -0.125 -0.061 0.214 -0.326 -0.057 -0.188 -0.275 -0.164 -0.355 0.054 0.107 -0.15 -0.137 0.099 -0.105 0.003 -0.137 -0.074 -0.143 -0.01 0.007 -0.115 -0.176 -0.027 -0.085 -0.055 -0.248 -0.093 0.32 -0.194 0.031 0.035 0.081 0.083 0.365 -0.042 -0.247 0.203 -0.051 0.07 0.217 -0.168 0.037 0.249 -0.212 -0.188 0.181 -0.021 -0.118 -0.308 -0.226 0.276 0.234 -0.021 0.139 0.084 0.003 -0.056 -0.058 -0.062 0.081
abandonment -0.152 -0.12 -0.015 0.047 -0.173 0.012 0.052 -0.164 0.121 0.207 -0.015 -0.14 -0.039 0.249 -0.217 -0.17 -0.107 0.132 0.204 0.34 -0.064 0.06 0.268 0.102 0.071 0.112 -0.296 -0.086 -0.56 0.17 -0.045 0.297 -0.059 -0.315 -0.451 0.027 0.186 -0.072 0.251 -0.296 0.086 -0.15 0.172 0.088 0.246 0.18 -0.161 0.113 -0.704 0.069 0.054 0.088 -0.118 -0.158 0.038 -0.336 0.052 0.166 -0.107 -0.031 0.076 -0.137 0.119 -0.194 -0.158 0.156 -0.0 -0.087 -0.12 -0.229 0.23 -0.158 0.201 -0.144 -0.208 -0.36 0.227 -0.053 0.185 -0.345 -0.04 -0.105 0.054 0.051 -0.527 -0.142 -0.34 0.224 0.009 0.027 0.327 -0.395 0.205 -0.221 0.126 -0.486 -0.239 0.078 0.214 0.312
abashed 0.161 -0.112 -0.339 0.033 -0.171 0.131 -0.046 0.084 -0.041 -0.281 -0.313 0.031 0.11 -0.065 0.023 0.231 -0.039 -0.108 0.008 0.222 0.458 -0.285 -0.072 -0.184 0.283 -0.082 0.039 -0.087 -0.152 -0.139 0.156 -0.125 -0.176 0.127 -0.53 -0.025 -0.042 0.016 -0.135 -0.125 -0.061 0.214 -0.326 -0.057 -0.188 -0.275 -0.164 -0.355 0.054 0.107 -0.15 -0.137 0.099 -0.105 0.003 -0.137 -0.074 -0.143 -0.01 0.007 -0.115 -0.176 -0.027 -0.085 -0.055 -0.248 -0.093 0.32 -0.194 0.031 0.035 0.081 0.083 0.365 -0.042 -0.247 0.203 -0.051 0.07 0.217 -0.168 0.037 0.249 -0.212 -0.188 0.181 -0.021 -0.118 -0.308 -0.226 0.276 0.234 -0.021 0.139 0.084 0.003 -0.056 -0.058 -0.062 0.081
abbreviate 0.161 -0.112 -0.339 0.033 -0.171 0.131 -0.046 0.084 -0.041 -0.281 -0.313 0.031 0.11 -0.065 0.023 0.231 -0.039 -0.108 0.008 0.222 0.458 -0.285 -0.072 -0.184 0.283 -0.082 0.039 -0.087 -0.152 -0.139 0.156 -0.125 -0.176 0.127 -0.53 -0.025 -0.042 0.016 -0.135 -0.125 -0.061 0.214 -0.326 -0.057 -0.188 -0.275 -0.164 -0.355 0.054 0.107 -0.15 -0.137 0.099 -0.105 0.003 -0.137 -0.074 -0.143 -0.01 0.007 -0.115 -0.176 -0.027 -0.085 -0.055 -0.248 -0.093 0.32 -0.194 0.031 0.035 0.081 0.083 0.365 -0.042 -0.247 0.203 -0.051 0.07 0.217 -0.168 0.037 0.249 -0.212 -0.188 0.181 -0.021 -0.118 -0.308 -0.226 0.276 0.234 -0.021 0.139 0.084 0.003 -0.056 -0.058 -0.062 0.081
abductor 0.161 -0.112 -0.339 0.033 -0.171 0.131 -0.046 0.084 -0.041 -0.281 -0.313 0.031 0.11 -0.065 0.023 0.231 -0.039 -0.108 0.008 0.222 0.458 -0.285 -0.072 -0.184 0.283 -0.082 0.039 -0.087 -0.152 -0.139 0.156 -0.125 -0.176 0.127 -0.53 -0.025 -0.042 0.016 -0.135 -0.125 -0.061 0.214 -0.326 -0.057 -0.188 -0.275 -0.164 -0.355 0.054 0.107 -0.15 -0.137 0.099 -0.105 0.003 -0.137 -0.074 -0.143 -0.01 0.007 -0.115 -0.176 -0.027 -0.085 -0.055 -0.248 -0.093 0.32 -0.194 0.031 0.035 0.081 0.083 0.365 -0.042 -0.247 0.203 -0.051 0.07 0.217 -0.168 0.037 0.249 -0.212 -0.188 0.181 -0.021 -0.118 -0.308 -0.226 0.276 0.234 -0.021 0.139 0.084 0.003 -0.056 -0.058 -0.062 0.081
ablaze 0.161 -0.112 -0.339 0.033 -0.171 0.131 -0.046 0.084 -0.041 -0.281 -0.313 0.031 0.11 -0.065 0.023 0.231 -0.039 -0.108 0.008 0.222 0.458 -0.285 -0.072 -0.184 0.283 -0.082 0.039 -0.087 -0.152 -0.139 0.156 -0.125 -0.176 0.127 -0.53 -0.025 -0.042 0.016 -0.135 -0.125 -0.061 0.214 -0.326 -0.057 -0.188 -0.275 -0.164 -0.355 0.054 0.107 -0.15 -0.137 0.099 -0.105 0.003 -0.137 -0.074 -0.143 -0.01 0.007 -0.115 -0.176 -0.027 -0.085 -0.055 -0.248 -0.093 0.32 -0.194 0.031 0.035 0.081 0.083 0.365 -0.042 -0.247 0.203 -0.051 0.07 0.217 -0.168 0.037 0.249 -0.212 -0.188 0.181 -0.021 -0.118 -0.308 -0.226 0.276 0.234 -0.021 0.139 0.084 0.003 -0.056 -0.058 -0.062 0.081
abnormal 0.161 -0.112 -0.339 0.033 -0.171 0.131 -0.046 0.084 -0.041 -0.281 -0.313 0.031 0.11 -0.065 0.023 0.231 -0.039 -0.108 0.008 0.222 0.458 -0.285 -0.072 -0.184 0.283 -0.082 0.039 -0.087 -0.152 -0.139 0.156 -0.125 -0.176 0.127 -0.53 -0.025 -0.042 0.016 -0.135 -0.125 -0.061 0.214 -0.326 -0.057 -0.188 -0.275 -0.164 -0.355 0.054 0.107 -0.15 -0.137 0.099 -0.105 0.003 -0.137 -0.074 -0.143 -0.01 0.007 -0.115 -0.176 -0.027 -0.085 -0.055 -0.248 -0.093 0.32 -0.194 0.031 0.035 0.081 0.083 0.365 -0.042 -0.247 0.203 -0.051 0.07 0.217 -0.168 0.037 0.249 -0.212 -0.188 0.181 -0.021 -0.118 -0.308 -0.226 0.276 0.234 -0.021 0.139 0.084 0.003 -0.056 -0.058 -0.062 0.081
abnormality 0.161 -0.112 -0.339 0.033 -0.171 0.131 -0.046 0.084 -0.041 -0.281 -0.313 0.031 0.11 -0.065 0.023 0.231 -0.039 -0.108 0.008 0.222 0.458 -0.285 -0.072 -0.184 0.283 -0.082 0.039 -0.087 -0.152 -0.139 0.156 -0.125 -0.176 0.127 -0.53 -0.025 -0.042 0.016 -0.135 -0.125 -0.061 0.214 -0.326 -0.057 -0.188 -0.275 -0.164 -0.355 0.054 0.107 -0.15 -0.137 0.099 -0.105 0.003 -0.137 -0.074 -0.143 -0.01 0.007 -0.115 -0.176 -0.027 -0.085 -0.055 -0.248 -0.093 0.32 -0.194 0.031 0.035 0.081 0.083 0.365 -0.042 -0.247 0.203 -0.051 0.07 0.217 -0.168 0.037 0.249 -0.212 -0.188 0.181 -0.021 -0.118 -0.308 -0.226 0.276 0.234 -0.021 0.139 0.084 0.003 -0.056 -0.058 -0.062 0.081
abortion -0.175 -0.357 0.05 -0.21 0.042 0.221 -0.064 -0.213 0.151 0.066 -0.239 -0.465 -0.434 -0.158 0.203 0.439 0.169 0.107 0.069 -0.353 -0.463 0.016 0.269 -0.365 0.175 -0.096 0.332 -0.025 0.008 0.124 -0.01 -0.045 -0.118 -0.106 0.069 0.029 0.06 -0.015 0.247 0.245 0.083 0.078 0.223 -0.122 -0.369 0.341 0.277 0.036 0.028 -0.138 -0.27 0.066 -0.15 -0.095 0.076 -0.037 -0.127 0.025 -0.169 -0.12 0.298 0.183 -0.005 0.196 0.029 -0.15 -0.362 0.305 -0.062 -0.346 0.052 -0.162 0.48 0.086 0.218 -0.141 0.229 0.117 0.23 -0.459 -0.249 -0.188 0.573 -0.166 -0.127 -0.055 0.299 0.182 0.053 -0.085 0.004 -0.063 -0.229 0.159 0.035 -0.015 0.495 -0.062 0.055 -0.24
about -0.07 0.097 0.154 -0.394 0.189 0.367 0.298 -0.027 0.209 0.118 0.252 -0.037 -0.321 -0.02 -0.286 -0.021 -0.181 0.123 0.025 0.052 0.545 -0.137 -0.331 0.191 0.761 -0.201 -0.394 -0.012 0.027 0.239 -0.058 0.624 -0.134 0.262 0.129 -0.091 0.319 0.134 0.47 -0.315 -0.183 -0.478 -0.096 -0.646 -0.039 -0.338 0.18 -0.116 0.109 -0.608 -0.05 -0.026 -0.38 -0.502 0.018 0.018 0.099 -0.163 -0.146 0.155 0.215 -0.007 -0.061 0.244 -0.062 -0.176 0.139 -0.427 0.386 0.042 0.097 0.034 0.02 0.136 -0.052 0.215 0.182 -0.003 -0.071 0.194 -0.004 -0.107 -0.351 0.218 0.08 0.005 0.031 -0.073 0.208 -0.093 0.248 -0.376 0.29 0.151 0.227 -0.3 -0.283 -0.451 -0.23 -0.03
abraham 0.132 -0.055 -0.083 -0.022 -0.105 0.236 0.034 -0.315 0.084 -0.007 0.212 -0.187 0.034 -0.06 0.02 0.196 0.453 -0.4 -0.07 0.201 0.168 -0.182 -0.029 -0.078 0.19 -0.064 0.191 0.176 -0.017 -0.0 -0.38 0.156 -0.144 -0.198 0.08 -0.004 0.14 0.292 0.461 -0.112 0.2 -0.125 -0.03 0.191 -0.077 0.006 -0.381 0.145 -0.003 -0.085 -0.17 0.124 -0.142 0.22 0.17 -0.193 0.051 -0.325 -0.196 -0.095 -0.513 -0.329 0.086 0.08 -0.082 -0.018 -0.393 0.123 -0.181 -0.212 -0.399 -0.055 -0.068 -0.038 -0.344 -0.009 0.125 -0.069 0.072 -0.117 0.341 -0.196 0.087 -0.268 0.231 -0.219 0.012 0.005 0.052 0.442 0.197 -0.069 -0.041 0.161 -0.043 -0.441 -0.576 -0.287 -0.067 0.146
absconding 0.161 -0.112 -0.339 0.033 -0.171 0.131 -0.046 0.084 -0.041 -0.281 -0.313 0.031 0.11 -0.065 0.023 0.231 -0.039 -0.108 0.008 0.222 0.458 -0.285 -0.072 -0.184 0.283 -0.082 0.039 -0.087 -0.152 -0.139 0.156 -0.125 -0.176 0.127 -0.53 -0.025 -0.042 0.016 -0.135 -0.125 -0.061 0.214 -0.326 -0.057 -0.188 -0.275 -0.164 -0.355 0.054 0.107 -0.15 -0.137 0.099 -0.105 0.003 -0.137 -0.074 -0.143 -0.01 0.007 -0.115 -0.176 -0.027 -0.085 -0.055 -0.248 -0.093 0.32 -0.194 0.031 0.035 0.081 0.083 0.365 -0.042 -0.247 0.203 -0.051 0.07 0.217 -0.168 0.037 0.249 -0.212 -0.188 0.181 -0.021 -0.118 -0.308 -0.226 0.276 0.234 -0.021 0.139 0.084 0.003 -0.056 -0.058 -0.062 0.081
absence 0.019 0.268 0.023 -0.301 -0.356 0.193 0.141 0.463 0.073 0.102 -0.244 -0.019 -0.248 -0.04 0.142 0.026 -0.047 -0.084 0.311 -0.012 0.039 0.2 -0.034 -0.398 -0.145 0.13 -0.111 0.271 0.264 -0.127 -0.157 -0.02 -0.553 -0.222 0.114 -0.274 -0.078 -0.258 -0.015 0.041 0.073 -0.225 0.156 -0.28 0.273 -0.256 0.254 0.087 0.258 0.122 0.192 -0.047 0.008 -0.179 -0.018 0.261 0.105 0.257 -0.081 0.211 -0.031 0.133 -0.242 -0.124 -0.096 0.059 0.223 0.107 0.056 0.123 -0.173 -0.038 -0.25 0.096 -0.134 -0.092 0.216 0.063 0.052 0.118 0.161 0.312 -0.359 -0.018 -0.101 -0.052 -0.134 0.482 0.158 -0.103 -0.061 -0.248 -0.217 -0.315 -0.142 0.222 0.082 -0.197 0.017 0.159
absolute 0.143 -0.398 -0.058 -0.083 0.335 -0.298 0.028 0.215 0.102 0.253 0.223 -0.089 -0.3 -0.024 -0.111 0.133 0.151 0.016 -0.104 -0.139 0.085 0.007 -0.017 -0.119 0.18 0.096 0.043 -0.024 0.117 0.461 0.153 -0.282 0.066 -0.107 -0.206 0.102 -0.257 -0.278 -0.29 0.127 -0.382 -0.333 0.111 -0.3 0.404 -0.237 -0.063 -0.32 0.02 0.009 -0.175 -0.391 -0.106 0.248 0.155 -0.255 -0.052 -0.259 0.188 0.079 0.209 0.064 0.287 -0.035 -0.095 -0.188 -0.174 -0.063 -0.127 -0.079 0.172 0.16 0.073 0.086 -0.293 0.365 -0.007 0.057 -0.055 0.215 0.31 0.19 0.154 0.073 0.057 -0.051 -0.385 -0.146 0.05 -0.073 0.096 -0.162 0.075 0.074 -0.047 0.055 0.005 -0.195 -0.125 0.011
absorbance 0.161 -0.112 -0.339 0.033 -0.171 0.131 -0.046 0.084 -0.041 -0.281 -0.313 0.031 0.11 -0.065 0.023 0.231 -0.039 -0.108 0.008 0.222 0.458 -0.285 -0.072 -0.184 0.283 -0.082 0.039 -0.087 -0.152 -0.139 0.156 -0.125 -0.176 0.127 -0.53 -0.025 -0.042 0.016 -0.135 -0.125 -0.061 0.214 -0.326 -0.057 -0.188 -0.275 -0.164 -0.355 0.054 0.107 -0.15 -0.137 0.099 -0.105 0.003 -0.137 -0.074 -0.143 -0.01 0.007 -0.115 -0.176 -0.027 -0.085 -0.055 -0.248 -0.093 0.32 -0.194 0.031 0.035 0.081 0.083 0.365 -0.042 -0.247 0.203 -0.051 0.07 0.217 -0.168 0.037 0.249 -0.212 -0.188 0.181 -0.021 -0.118 -0.308 -0.226 0.276 0.234 -0.021 0.139 0.084 0.003 -0.056 -0.058 -0.062 0.081
absorbing 0.161 -0.112 -0.339 0.033 -0.171 0.131 -0.046 0.084 -0.041 -0.281 -0.313 0.031 0.11 -0.065 0.023 0.231 -0.039 -0.108 0.008 0.222 0.458 -0.285 -0.072 -0.184 0.283 -0.082 0.039 -0.087 -0.152 -0.139 0.156 -0.125 -0.176 0.127 -0.53 -0.025 -0.042 0.016 -0.135 -0.125 -0.061 0.214 -0.326 -0.057 -0.188 -0.275 -0.164 -0.355 0.054 0.107 -0.15 -0.137 0.099 -0.105 0.003 -0.137 -0.074 -0.143 -0.01 0.007 -0.115 -0.176 -0.027 -0.085 -0.055 -0.248 -0.093 0.32 -0.194 0.031 0.035 0.081 0.083 0.365 -0.042 -0.247 0.203 -0.051 0.07 0.217 -0.168 0.037 0.249 -0.212 -0.188 0.181 -0.021 -0.118 -0.308 -0.226 0.276 0.234 -0.021 0.139 0.084 0.003 -0.056 -0.058 -0.062 0.081
abstract -0.136 -0.107 -0.035 0.353 -0.253 0.153 0.048 -0.195 0.047 -0.027 0.482 -0.348 -0.555 -0.219 -0.094 -0.085 0.413 0.364 0.18 -0.23 -0.284 0.062 -0.231 -0.135 -0.151 -0.146 -0.054 -0.163 -0.039 -0.154 -0.292 -0.067 -0.245 0.172 -0.118 0.061 0.187 -0.011 0.023 -0.105 0.317 -0.083 0.067 0.076 0.056 -0.252 0.511 0.017 0.104 -0.225 0.074 0.059 -0.103 -0.137 0.432 0.048 0.016 0.245 -0.065 -0.183 -0.29 0.113 -0.022 -0.233 -0.14 0.024 0.164 0.219 0.15 -0.231 -0.101 0.15 -0.228 0.166 0.265 -0.256 0.246 -0.31 -0.136 -0.095 -0.386 0.296 0.09 -0.328 -0.213 0.156 0.03 0.481 -0.186 -0.403 0.231 0.189 -0.094 -0.091 0.114 0.002 0.492 -0.493 0.093 0.254
abstractionist 0.161 -0.112 -0.339 0.033 -0.171 0.131 -0.046 0.084 -0.041 -0.281 -0.313 0.031 0.11 -0.065 0.023 0.231 -0.039 -0.108 0.008 0.222 0.458 -0.285 -0.072 -0.184 0.283 -0.082 0.039 -0.087 -0.152 -0.139 0.156 -0.125 -0.176 0.127 -0.53 -0.025 -0.042 0.016 -0.135 -0.125 -0.061 0.214 -0.326 -0.057 -0.188 -0.275 -0.164 -0.355 0.054 0.107 -0.15 -0.137 0.099 -0.105 0.003 -0.137 -0.074 -0.143 -0.01 0.007 -0.115 -0.176 -0.027 -0.085 -0.055 -0.248 -0.093 0.32 -0.194 0.031 0.035 0.081 0.083 0.365 -0.042 -0.247 0.203 -0.051 0.07 0.217 -0.168 0.037 0.249 -0.212 -0.188 0.181 -0.021 -0.118 -0.308 -0.226 0.276 0.234 -0.021 0.139 0.084 0.003 -0.056 -0.058 -0.062 0.081
abundance 0.103 -0.217 -0.136 -0.118 0.024 -0.023 0.059 0.017 0.112 -0.109 0.339 0.026 0.008 -0.173 0.177 -0.233 -0.118 0.37 -0.32 0.023 0.186 0.2 -0.223 0.175 0.058 0.122 0.344 -0.032 0.112 0.003 0.282 -0.044 -0.122 0.089 -0.088 0.111 0.23 0.052 0.26 0.377 0.324 -0.012 -0.569 -0.277 0.12 -0.199 0.05 -0.011 0.093 0.075 0.159 -0.044 0.171 0.111 0.088 0.272 0.068 -0.412 0.038 -0.005 -0.079 0.158 0.211 -0.214 -0.223 -0.255 -0.002 0.184 0.067 -0.253 -0.081 -0.045 0.054 0.083 -0.041 -0.064 0.194 -0.118 -0.059 -0.031 0.019 -0.469 -0.136 0.167 0.271 0.049 -0.233 0.097 0.153 0.045 -0.337 -0.029 0.061 0.197 -0.355 -0.19 0.053 -0.023 0.171 -0.122
abuse -0.208 0.091 0.037 0.204 0.016 0.235 0.087 0.045 -0.111 0.18 0.054 -0.024 0.039 0.092 -0.001 -0.018 -0.036 -0.216 -0.352 0.266 0.166 -0.017 0.084 -0.069 0.081 0.516 -0.069 0.102 0.039 -0.1 0.182 -0.013 -0.054 -0.177 0.195 0.34 -0.052 0.076 -0.195 0.113 -0.09 0.063 0.278 -0.112 0.087 -0.251 -0.249 -0.126 -0.094 -0.014 -0.321 -0.067 -0.066 -0.014 0.245 -0.46 0.001 -0.143 -0.355 0.018 0.104 0.291 0.083 0.031 0.102 0.239 0.03 0.255 0.033 0.285 0.251 0.778 -0.021 -0.278 -0.102 0.1 0.086 -0.099 0.086 0.078 -0.175 0.09 0.075 -0.177 -0.151 0.35 -0.084 -0.445 -0.024 -0.006 0.031 -0.07 -0.315 -0.288 0.394 0.477 -0.13 0.148 -0.058 -0.33
academicism 0.161 -0.112 -0.339 0.033 -0.171 0.131 -0.046 0.084 -0.041 -0.281 -0.313 0.031 0.11 -0.065 0.023 0.231 -0.039 -0.108 0.008 0.222 0.458 -0.285 -0.072 -0.184 0.283 -0.082 0.039 -0.087 -0.152 -0.139 0.156 -0.125 -0.176 0.127 -0.53 -0.025 -0.042 0.016 -0.135 -0.125 -0.061 0.214 -0.326 -0.057 -0.188 -0.275 -0.164 -0.355 0.054 0.107 -0.15 -0.137 0.099 -0.105 0.003 -0.137 -0.074 -0.143 -0.01 0.007 -0.115 -0.176 -0.027 -0.085 -0.055 -0.248 -0.093 0.32 -0.194 0.031 0.035 0.081 0.083 0.365 -0.042 -0.247 0.203 -0.051 0.07 0.217 -0.168 0.037 0.249 -0.212 -0.188 0.181 -0.021 -0.118 -0.308 -0.226 0.276 0.234 -0.021 0.139 0.084 0.003 -0.056 -0.058 -0.062 0.081
accelerate 0.161 -0.112 -0.339 0.033 -0.171 0.131 -0.046 0.084 -0.041 -0.281 -0.313 0.031 0.11 -0.065 0.023 0.231 -0.039 -0.108 0.008 0.222 0.458 -0.285 -0.072 -0.184 0.283 -0.082 0.039 -0.087 -0.152 -0.139 0.156 -0.125 -0.176 0.127 -0.53 -0.025 -0.042 0.016 -0.135 -0.125 -0.061 0.214 -0.326 -0.057 -0.188 -0.275 -0.164 -0.355 0.054 0.107 -0.15 -0.137 0.099 -0.105 0.003 -0.137 -0.074 -0.143 -0.01 0.007 -0.115 -0.176 -0.027 -0.085 -0.055 -0.248 -0.093 0.32 -0.194 0.031 0.035 0.081 0.083 0.365 -0.042 -0.247 0.203 -0.051 0.07 0.217 -0.168 0.037 0.249 -0.212 -0.188 0.181 -0.021 -0.118 -0.308 -0.226 0.276 0.234 -0.021 0.139 0.084 0.003 -0.056 -0.058 -0.062 0.081
accentuate 0.161 -0.112 -0.339 0.033 -0.171 0.131 -0.046 0.084 -0.041 -0.281 -0.313 0.031 0.11 -0.065 0.023 0.231 -0.039 -0.108 0.008 0.222 0.458 -0.285 -0.072 -0.184 0.283 -0.082 0.039 -0.087 -0.152 -0.139 0.156 -0.125 -0.176 0.127 -0.53 -0.025 -0.042 0.016 -0.135 -0.125 -0.061 0.214 -0.326 -0.057 -0.188 -0.275 -0.164 -0.355 0.054 0.107 -0.15 -0.137 0.099 -0.105 0.003 -0.137 -0.074 -0.143 -0.01 0.007 -0.115 -0.176 -0.027 -0.085 -0.055 -0.248 -0.093 0.32 -0.194 0.031 0.035 0.081 0.083 0.365 -0.042 -0.247 0.203 -0.051 0.07 0.217 -0.168 0.037 0.249 -0.212 -0.188 0.181 -0.021 -0.118 -0.308 -0.226 0.276 0.234 -0.021 0.139 0.084 0.003 -0.056 -0.058 -0.062 0.081
acceptable -0.088 -0.104 0.208 0.157 -0.105 -0.012 0.229 0.05 0.347 0.304 0.064 -0.165 0.022 -0.131 0.323 0.271 0.373 0.079 0.09 0.235 0.096 -0.113 -0.239 -0.029 0.094 0.189 0.19 0.155 -0.126 0.089 0.068 -0.096 0.492 0.125 0.11 -0.039 -0.11 0.25 -0.121 -0.054 0.037 0.218 -0.366 0.141 0.103 0.148 -0.145 -0.096 -0.087 -0.181 0.099 0.067 0.076 0.453 0.175 -0.018 0.178 0.013 -0.232 -0.217 -0.098 0.042 -0.259 0.054 -0.154 -0.245 0.158 0.245 -0.136 0.032 0.295 -0.116 -0.181 0.184 -0.143 0.151 0.21 -0.089 -0.057 0.077 0.079 0.309 -0.202 -0.155 -0.051 0.365 -0.135 -0.211 0.149 -0.249 0.385 0.134 0.052 -0.254 0.086 -0.122 0.206 0.182 -0.182 0.007
acceptance -0.138 -0.15 0.306 -0.031 -0.016 0.296 -0.134 -0.198 -0.09 0.022 -0.251 0.091 -0.249 0.374 -0.09 -0.014 0.186 -0.188 0.218 0.467 -0.151 -0.181 -0.071 -0.217 -0.072 0.267 -0.204 -0.065 0.429 -0.183 0.206 -0.158 0.044 -0.081 0.128 -0.066 0.128 -0.202 -0.18 0.126 -0.192 0.244 -0.016 0.186 0.057 -0.001 -0.097 -0.003 -0.246 0.189 -0.02 0.015 0.478 -0.074 0.369 0.167 -0.322 0.213 0.019 0.223 0.082 -0.144 -0.349 -0.018 -0.134 0.076 -0.199 -0.47 -0.053 -0.045 0.378 -0.089 -0.428 0.085 -0.146 0.017 0.219 0.153 0.199 0.25 -0.317 -0.291 -0.203 0.131 -0.211 -0.004 -0.132 0.04 -0.137 -0.233 0.076 -0.078 -0.03 -0.144 0.279 -0.074 0.002 0.286 0.079 0.132
accessible 0.29 0.037 0.265 0.445 -0.05 -0.282 -0.245 -0.214 0.073 0.003 -0.074 -0.037 -0.136 -0.221 -0.037 0.039 -0.084 0.287 0.12 -0.093 -0.294 -0.34 -0.189 -0.141 0.2 -0.325 -0.182 -0.018 0.111 0.178 -0.003 -0.192 -0.094 0.072 0.039 0.248 0.483 0.105 0.046 -0.254 0.113 -0.04 -0.461 0.157 -0.158 -0.04 0.099 -0.222 0.174 -0.159 -0.029 -0.017 0.3 -0.008 -0.169 -0.281 -0.325 0.104 -0.099 0.328 -0.155 0.274 -0.026 0.244 0.205 0.464 -0.226 -0.012 0.337 -0.229 0.439 -0.235 0.007 0.09 -0.227 0.224 0.134 -0.001 0.006 -0.152 -0.284 0.16 0.028 -0.032 -0.022 0.169 0.185 -0.14 -0.168 0.326 -0.166 -0.118 0.204 0.053 0.282 0.1 -0.152 0.16 0.03 0.056
acclaim 0.161 -0.112 -0.339 0.033 -0.171 0.131 -0.046 0.084 -0.041 -0.281 -0.313 0.031 0.11 -0.065 0.023 0.231 -0.039 -0.108 0.008 0.222 0.458 -0.285 -0.072 -0.184 0.283 -0.082 0.039 -0.087 -0.152 -0.139 0.156 -0.125 -0.176 0.127 -0.53 -0.025 -0.042 0.016 -0.135 -0.125 -0.061 0.214 -0.326 -0.057 -0.188 -0.275 -0.164 -0.355 0.054 0.107 -0.15 -0.137 0.099 -0.105 0.003 -0.137 -0.074 -0.143 -0.01 0.007 -0.115 -0.176 -0.027 -0.085 -0.055 -0.248 -0.093 0.32 -0.194 0.031 0.035 0.081 0.083 0.365 -0.042 -0.247 0.203 -0.051 0.07 0.217 -0.168 0.037 0.249 -0.212 -0.188 0.181 -0.021 -0.118 -0.308 -0.226 0.276 0.234 -0.021 0.139 0.084 0.003 -0.056 -0.058 -0.062 0.081
accommodation 0.161 -0.112 -0.339 0.033 -0.171 0.131 -0.046 0.084 -0.041 -0.281 -0.313 0.031 0.11 -0.065 0.023 0.231 -0.039 -0.108 0.008 0.222 0.458 -0.285 -0.072 -0.184 0.283 -0.082 0.039 -0.087 -0.152 -0.139 0.156 -0.125 -0.176 0.127 -0.53 -0.025 -0.042 0.016 -0.135 -0.125 -0.061 0.214 -0.326 -0.057 -0.188 -0.275 -0.164 -0.355 0.054 0.107 -0.15 -0.137 0.099 -0.105 0.003 -0.137 -0.074 -0.143 -0.01 0.007 -0.115 -0.176 -0.027 -0.085 -0.055 -0.248 -0.093 0.32 -0.194 0.031 0.035 0.081 0.083 0.365 -0.042 -0.247 0.203 -0.051 0.07 0.217 -0.168 0.037 0.249 -0.212 -0.188 0.181 -0.021 -0.118 -0.308 -0.226 0.276 0.234 -0.021 0.139 0.084 0.003 -0.056 -0.058 -0.062 0.081
accommodative 0.161 -0.112 -0.339 0.033 -0.171 0.131 -0.046 0.084 -0.041 -0.281 -0.313 0.031 0.11 -0.065 0.023 0.231 -0.039 -0.108 0.008 0.222 0.458 -0.285 -0.072 -0.184 0.283 -0.082 0.039 -0.087 -0.152 -0.139 0.156 -0.125 -0.176 0.127 -0.53 -0.025 -0.042 0.016 -0.135 -0.125 -0.061 0.214 -0.326 -0.057 -0.188 -0.275 -0.164 -0.355 0.054 0.107 -0.15 -0.137 0.099 -0.105 0.003 -0.137 -0.074 -0.143 -0.01 0.007 -0.115 -0.176 -0.027 -0.085 -0.055 -0.248 -0.093 0.32 -0.194 0.031 0.035 0.081 0.083 0.365 -0.042 -0.247 0.203 -0.051 0.07 0.217 -0.168 0.037 0.249 -0.212 -0.188 0.181 -0.021 -0.118 -0.308 -0.226 0.276 0.234 -0.021 0.139 0.084 0.003 -0.056 -0.058 -0.062 0.081
accomplished 0.084 -0.151 0.199 -0.083 0.069 -0.288 0.017 0.104 0.149 -0.136 0.047 -0.085 0.111 0.034 -0.065 0.249 -0.273 0.192 -0.147 0.217 0.019 -0.09 0.218 -0.265 0.023 -0.065 -0.094 -0.057 0.08 0.16 0.01 -0.129 -0.135 -0.093 0.228 -0.22 0.301 0.103 0.245 0.419 -0.236 -0.395 -0.158 0.129 0.105 0.108 0.386 -0.379 -0.138 -0.139 -0.075 -0.074 -0.047 0.205 -0.225 -0.235 -0.213 0.06 -0.0 -0.15 -0.32 -0.059 0.009 -0.099 -0.326 0.227 -0.257 0.042 -0.317 0.044 0.102 -0.148 -0.29 0.242 0.088 0.172 0.187 0.023 -0.201 0.095 -0.012 0.387 -0.423 0.107 0.234 -0.057 -0.151 -0.136 0.01 -0.267 -0.146 -0.195 0.381 0.028 -0.097 -0.218 -0.236 -0.008 -0.13 0.058
accomplishments 0.161 -0.112 -0.339 0.033 -0.171 0.131 -0.046 0.084 -0.041 -0.281 -0.313 0.031 0.11 -0.065 0.023 0.231 -0.039 -0.108 0.008 0.222 0.458 -0.285 -0.072 -0.184 0.283 -0.082 0.039 -0.087 -0.152 -0.139 0.156 -0.125 -0.176 0.127 -0.53 -0.025 -0.042 0.016 -0.135 -0.125 -0.061 0.214 -0.326 -0.057 -0.188 -0.275 -0.164 -0.355 0.054 0.107 -0.15 -0.137 0.099 -0.105 0.003 -0.137 -0.074 -0.143 -0.01 0.007 -0.115 -0.176 -0.027 -0.085 -0.055 -0.248 -0.093 0.32 -0.194 0.031 0.035 0.081 0.083 0.365 -0.042 -0.247 0.203 -0.051 0.07 0.217 -0.168 0.037 0.249 -0.212 -0.188 0.181 -0.021 -0.118 -0.308 -0.226 0.276 0.234 -0.021 0.139 0.084 0.003 -0.056 -0.058 -0.062 0.081
accordance 0.346 -0.131 0.032 0.024 0.014 0.076 -0.103 0.39 0.076 -0.014 -0.081 -0.152 0.038 -0.092 0.157 0.06 -0.108 0.271 0.252 0.251 -0.115 -0.046 -0.186 -0.494 0.007 0.279 -0.264 -0.058 -0.016 -0.013 0.078 0.119 0.107 0.126 -0.098 -0.041 -0.045 0.242 -0.243 0.217 0.141 0.18 -0.046 -0.072 -0.078 -0.024 -0.056 0.057 -0.315 -0.044 0.451 -0.024 0.219 -0.196 0.042 0.073 0.015 0.088 0.004 0.083 0.375 -0.043 -0.088 -0.049 -0.03 0.122 0.335 -0.062 0.187 -0.096 0.04 -0.229 0.155 0.064 -0.105 0.11 -0.533 0.036 0.137 -0.11 0.191 -0.067 0.044 0.044 -0.394 -0.432 -0.228 0.14 -0.078 -0.207 -0.043 -0.159 -0.259 0.105 -0.477 0.236 -0.203 -0.007 0.053 -0.067
account -0.192 0.167 0.075 -0.282 -0.066 0.086 -0.012 -0.053 -0.115 -0.263 0.223 -0.148 0.012 -0.186 -0.142 -0.171 0.317 -0.238 -0.089 0.227 -0.107 0.283 -0.26 0.39 -0.126 -0.095 -0.358 -0.024 0.004 -0.341 -0.207 0.038 -0.045 0.355 0.303 -0.177 -0.018 0.075 0.059 0.004 0.176 -0.053 0.19 0.256 0.535 -0.419 -0.212 -0.206 0.028 -0.13 -0.126 -0.199 -0.03 -0.168 -0.168 -0.116 -0.265 0.033 0.015 -0.001 -0.236 0.028 -0.011 -0.09 -0.2 0.406 0.053 0.108 -0.069 0.09 0.016 0.317 -0.155 -0.293 0.102 0.211 -0.006 -0.357 -0.268 0.191 0.179 -0.079 0.222 0.099 0.198 0.242 -0.157 -0.002 -0.031 -0.146 0.187 -0.165 0.123 -0.024 -0.047 0.29 0.028 -0.167 0.117 -0.199
ache 0.161 -0.112 -0.339 0.033 -0.171 0.131 -0.046 0.084 -0.041 -0.281 -0.313 0.031 0.11 -0.065 0.023 0.231 -0.039 -0.108 0.008 0.222 0.458 -0.285 -0.072 -0.184 0.283 -0.082 0.039 -0.087 -0.152 -0.139 0.156 -0.125 -0.176 0.127 -0.53 -0.025 -0.042 0.016 -0.135 -0.125 -0.061 0.214 -0.326 -0.057 -0.188 -0.275 -0.164 -0.355 0.054 0.107 -0.15 -0.137 0.099 -0.105 0.003 -0.137 -0.074 -0.143 -0.01 0.007 -0.115 -0.176 -0.027 -0.085 -0.055 -0.248 -0.093 0.32 -0.194 0.031 0.035 0.081 0.083 0.365 -0.042 -0.247 0.203 -0.051 0.07 0.217 -0.168 0.037 0.249 -0.212 -0.188 0.181 -0.021 -0.118 -0.308 -0.226 0.276 0.234 -0.021 0.139 0.084 0.003 -0.056 -0.058 -0.062 0.081
acknowledge 0.161 -0.112 -0.339 0.033 -0.171 0.131 -0.046 0.084 -0.041 -0.281 -0.313 0.031 0.11 -0.065 0.023 0.231 -0.039 -0.108 0.008 0.222 0.458 -0.285 -0.072 -0.184 0.283 -0.082 0.039 -0.087 -0.152 -0.139 0.156 -0.125 -0.176 0.127 -0.53 -0.025 -0.042 0.016 -0.135 -0.125 -0.061 0.214 -0.326 -0.057 -0.188 -0.275 -0.164 -0.355 0.054 0.107 -0.15 -0.137 0.099 -0.105 0.003 -0.137 -0.074 -0.143 -0.01 0.007 -0.115 -0.176 -0.027 -0.085 -0.055 -0.248 -0.093 0.32 -0.194 0.031 0.035 0.081 0.083 0.365 -0.042 -0.247 0.203 -0.051 0.07 0.217 -0.168 0.037 0.249 -0.212 -0.188 0.181 -0.021 -0.118 -0.308 -0.226 0.276 0.234 -0.021 0.139 0.084 0.003 -0.056 -0.058 -0.062 0.081
acknowledgement 0.161 -0.112 -0.339 0.033 -0.171 0.131 -0.046 0.084 -0.041 -0.281 -0.313 0.031 0.11 -0.065 0.023 0.231 -0.039 -0.108 0.008 0.222 0.458 -0.285 -0.072 -0.184 0.283 -0.082 0.039 -0.087 -0.152 -0.139 0.156 -0.125 -0.176 0.127 -0.53 -0.025 -0.042 0.016 -0.135 -0.125 -0.061 0.214 -0.326 -0.057 -0.188 -0.275 -0.164 -0.355 0.054 0.107 -0.15 -0.137 0.099 -0.105 0.003 -0.137 -0.074 -0.143 -0.01 0.007 -0.115 -0.176 -0.027 -0.085 -0.055 -0.248 -0.093 0.32 -0.194 0.031 0.035 0.081 0.083 0.365 -0.042 -0.247 0.203 -0.051 0.07 0.217 -0.168 0.037 0.249 -0.212 -0.188 0.181 -0.021 -0.118 -0.308 -0.226 0.276 0.234 -0.021 0.139 0.084 0.003 -0.056 -0.058 -0.062 0.081
acoustic 0.126 0.031 -0.174 0.251 0.027 0.002 0.015 0.03 0.105 -0.177 0.139 -0.112 -0.124 0.318 -0.42 -0.283 -0.268 0.118 0.468 0.098 0.066 0.062 0.043 0.159 0.135 -0.094 0.607 0.166 0.116 -0.012 0.511 -0.144 -0.183 0.005 0.23 0.262 0.508 -0.131 -0.475 0.201 0.534 -0.515 -0.334 0.087 0.152 -0.086 0.074 0.191 0.31 0.055 0.099 0.227 0.142 -0.226 0.019 0.266 0.152 -0.008 -0.1 0.008 -0.058 0.043 0.019 -0.07 -0.194 0.064 0.55 -0.235 0.114 -0.26 0.25 0.195 -0.151 0.052 0.269 0.065 0.156 -0.433 0.199 -0.167 0.105 -0.331 -0.32 0.155 -0.116 -0.279 -0.034 -0.525 -0.015 -0.12 0.168 -0.09 -0.017 0.007 0.333 0.193 0.086 -0.098 0.013 -0.28
acoustical 0.161 -0.112 -0.339 0.033 -0.171 0.131 -0.046 0.084 -0.041 -0.281 -0.313 0.031 0.11 -0.065 0.023 0.231 -0.039 -0.108 0.008 0.222 0.458 -0.285 -0.072 -0.184 0.283 -0.082 0.039 -0.087 -0.152 -0.139 0.156 -0.125 -0.176 0.127 -0.53 -0.025 -0.042 0.016 -0.135 -0.125 -0.061 0.214 -0.326 -0.057 -0.188 -0.275 -0.164 -0.355 0.054 0.107 -0.15 -0.137 0.099 -0.105 0.003 -0.137 -0.074 -0.143 -0.01 0.007 -0.115 -0.176 -0.027 -0.085 -0.055 -0.248 -0.093 0.32 -0.194 0.031 0.035 0.081 0.083 0.365 -0.042 -0.247 0.203 -0.051 0.07 0.217 -0.168 0.037 0.249 -0.212 -0.188 0.181 -0.021 -0.118 -0.308 -0.226 0.276 0.234 -0.021 0.139 0.084 0.003 -0.056 -0.058 -0.062 0.081
acoustics 0.161 -0.112 -0.339 0.033 -0.171 0.131 -0.046 0.084 -0.041 -0.281 -0.313 0.031 0.11 -0.065 0.023 0.231 -0.039 -0.108 0.008 0.222 0.458 -0.285 -0.072 -0.184 0.283 -0.082 0.039 -0.087 -0.152 -0.139 0.156 -0.125 -0.176 0.127 -0.53 -0.025 -0.042 0.016 -0.135 -0.125 -0.061 0.214 -0.326 -0.057 -0.188 -0.275 -0.164 -0.355 0.054 0.107 -0.15 -0.137 0.099 -0.105 0.003 -0.137 -0.074 -0.143 -0.01 0.007 -0.115 -0.176 -0.027 -0.085 -0.055 -0.248 -0.093 0.32 -0.194 0.031 0.035 0.081 0.083 0.365 -0.042 -0.247 0.203 -0.051 0.07 0.217 -0.168 0.037 0.249 -0.212 -0.188 0.181 -0.021 -0.118 -0.308 -0.226 0.276 0.234 -0.021 0.139 0.084 0.003 -0.056 -0.058 -0.062 0.081
acquiring 0.161 -0.112 -0.339 0.033 -0.171 0.131 -0.046 0.084 -0.041 -0.281 -0.313 0.031 0.11 -0.065 0.023 0.231 -0.039 -0.108 0.008 0.222 0.458 -0.285 -0.072 -0.184 0.283 -0.082 0.039 -0.087 -0.152 -0.139 0.156 -0.125 -0.176 0.127 -0.53 -0.025 -0.042 0.016 -0.135 -0.125 -0.061 0.214 -0.326 -0.057 -0.188 -0.275 -0.164 -0.355 0.054 0.107 -0.15 -0.137 0.099 -0.105 0.003 -0.137 -0.074 -0.143 -0.01 0.007 -0.115 -0.176 -0.027 -0.085 -0.055 -0.248 -0.093 0.32 -0.194 0.031 0.035 0.081 0.083 0.365 -0.042 -0.247 0.203 -0.051 0.07 0.217 -0.168 0.037 0.249 -0.212 -0.188 0.181 -0.021 -0.118 -0.308 -0.226 0.276 0.234 -0.021 0.139 0.084 0.003 -0.056 -0.058 -0.062 0.081
acquisition -0.06 0.104 -0.36 0.059 0.207 0.013 0.41 0.074 0.228 0.133 0.16 -0.042 -0.226 -0.571 0.018 0.266 0.1 -0.198 0.075 -0.006 0.113 -0.082 -0.344 0.049 0.138 -0.069 -0.326 0.098 -0.111 0.171 0.15 -0.124 0.227 -0.392 0.241 -0.269 0.045 -0.04 0.29 -0.069 -0.217 0.006 -0.139 -0.046 0.047 0.107 0.27 0.257 0.181 -0.109 -0.171 -0.099 -0.508 -0.246 0.103 -0.15 -0.084 -0.172 0.246 0.213 -0.245 0.185 -0.047 -0.134 -0.315 -0.214 -0.107 0.014 0.226 -0.092 0.206 -0.011 0.046 -0.024 0.242 -0.147 0.045 -0.076 0.011 0.232 -0.057 0.273 0.199 -0.246 0.301 -0.007 -0.008 -0.043 -0.028 -0.181 -0.0 -0.226 -0.203 0.207 -0.068 -0.138 0.185 0.34 0.092 -0.295
acquisitive 0.161 -0.112 -0.339 0.033 -0.171 0.131 -0.046 0.084 -0.041 -0.281 -0.313 0.031 0.11 -0.065 0.023 0.231 -0.039 -0.108 0.008 0.222 0.458 -0.285 -0.072 -0.184 0.283 -0.082 0.039 -0.087 -0.152 -0.139 0.156 -0.125 -0.176 0.127 -0.53 -0.025 -0.042 0.016 -0.135 -0.125 -0.061 0.214 -0.326 -0.057 -0.188 -0.275 -0.164 -0.355 0.054 0.107 -0.15 -0.137 0.099 -0.105 0.003 -0.137 -0.074 -0.143 -0.01 0.007 -0.115 -0.176 -0.027 -0.085 -0.055 -0.248 -0.093 0.32 -0.194 0.031 0.035 0.081 0.083 0.365 -0.042 -0.247 0.203 -0.051 0.07 0.217 -0.168 0.037 0.249 -0.212 -0.188 0.181 -0.021 -0.118 -0.308 -0.226 0.276 0.234 -0.021 0.139 0.084 0.003 -0.056 -0.058 -0.062 0.081
acre 0.089 0.085 -0.012 -0.048 -0.024 -0.025 -0.325 -0.162 -0.309 0.02 -0.012 -0.253 -0.209 -0.129 0.054 -0.079 -0.188 -0.29 0.078 -0.067 0.194 -0.161 -0.16 -0.377 -0.196 0.071 -0.084 -0.178 0.163 -0.095 -0.173 -0.126 0.394 0.061 -0.05 -0.139 -0.194 -0.36 -0.143 0.134 -0.482 -0.108 0.046 0.059 -0.068 -0.005 -0.259 -0.147 0.262 -0.087 -0.113 -0.003 0.127 -0.112 -0.457 -0.047 0.077 -0.05 -0.233 0.054 -0.068 0.342 0.156 0.082 -0.125 0.374 0.113 0.277 -0.128 -0.059 0.051 -0.088 -0.083 0.169 0.243 0.011 -0.589 -0.241 -0.055 -0.23 0.075 0.442 0.165 0.023 0.13 -0.037 0.246 0.06 0.096 0.084 -0.021 -0.112 -0.302 0.217 0.126 0.024 -0.028 -0.155 -0.12 -0.347
acrobat 0.161 -0.112 -0.339 0.033 -0.171 0.131 -0.046 0.084 -0.041 -0.281 -0.313 0.031 0.11 -0.065 0.023 0.231 -0.039 -0.108 0.008 0.222 0.458 -0.285 -0.072 -0.184 0.283 -0.082 0.039 -0.087 -0.152 -0.139 0.156 -0.125 -0.176 0.127 -0.53 -0.025 -0.042 0.016 -0.135 -0.125 -0.061 0.214 -0.326 -0.057 -0.188 -0.275 -0.164 -0.355 0.054 0.107 -0.15 -0.137 0.099 -0.105 0.003 -0.137 -0.074 -0.143 -0.01 0.007 -0.115 -0.176 -0.027 -0.085 -0.055 -0.248 -0.093 0.32 -0.194 0.031 0.035 0.081 0.083 0.365 -0.042 -0.247 0.203 -0.051 0.07 0.217 -0.168 0.037 0.249 -0.212 -0.188 0.181 -0.021 -0.118 -0.308 -0.226 0.276 0.234 -0.021 0.139 0.084 0.003 -0.056 -0.058 -0.062 0.081
acronymic 0.161 -0.112 -0.339 0.033 -0.171 0.131 -0.046 0.084 -0.041 -0.281 -0.313 0.031 0.11 -0.065 0.023 0.231 -0.039 -0.108 0.008 0.222 0.458 -0.285 -0.072 -0.184 0.283 -0.082 0.039 -0.087 -0.152 -0.139 0.156 -0.125 -0.176 0.127 -0.53 -0.025 -0.042 0.016 -0.135 -0.125 -0.061 0.214 -0.326 -0.057 -0.188 -0.275 -0.164 -0.355 0.054 0.107 -0.15 -0.137 0.099 -0.105 0.003 -0.137 -0.074 -0.143 -0.01 0.007 -0.115 -0.176 -0.027 -0.085 -0.055 -0.248 -0.093 0.32 -0.194 0.031 0.035 0.081 0.083 0.365 -0.042 -0.247 0.203 -0.051 0.07 0.217 -0.168 0.037 0.249 -0.212 -0.188 0.181 -0.021 -0.118 -0.308 -0.226 0.276 0.234 -0.021 0.139 0.084 0.003 -0.056 -0.058 -0.062 0.081
acrylic 0.161 -0.112 -0.339 0.033 -0.171 0.131 -0.046 0.084 -0.041 -0.281 -0.313 0.031 0.11 -0.065 0.023 0.231 -0.039 -0.108 0.008 0.222 0.458 -0.285 -0.072 -0.184 0.283 -0.082 0.039 -0.087 -0.152 -0.139 0.156 -0.125 -0.176 0.127 -0.53 -0.025 -0.042 0.016 -0.135 -0.125 -0.061 0.214 -0.326 -0.057 -0.188 -0.275 -0.164 -0.355 0.054 0.107 -0.15 -0.137 0.099 -0.105 0.003 -0.137 -0.074 -0.143 -0.01 0.007 -0.115 -0.176 -0.027 -0.085 -0.055 -0.248 -0.093 0.32 -0.194 0.031 0.035 0.081 0.083 0.365 -0.042 -0.247 0.203 -0.051 0.07 0.217 -0.168 0.037 0.249 -0.212 -0.188 0.181 -0.021 -0.118 -0.308 -0.226 0.276 0.234 -0.021 0.139 0.084 0.003 -0.056 -0.058 -0.062 0.081
act -0.036 -0.383 0.062 -0.267 -0.112 0.469 0.095 -0.063 0.182 -0.187 -0.305 -0.102 -0.195 -0.356 -0.129 0.15 -0.038 0.059 -0.101 0.26 0.292 -0.205 0.37 0.383 -0.186 -0.169 0.153 -0.058 0.213 -0.052 -0.261 0.023 0.189 0.006 -0.007 -0.122 0.07 -0.312 -0.264 -0.03 0.072 0.157 -0.012 -0.06 0.258 -0.352 -0.343 -0.068 -0.05 -0.185 -0.017 0.046 0.034 -0.122 0.096 -0.157 0.106 -0.054 -0.085 -0.098 -0.39 0.273 -0.051 -0.426 0.117 0.371 -0.165 -0.278 -0.248 0.083 0.075 0.392 -0.1 -0.171 0.024 0.027 0.224 0.024 -0.157 0.127 0.068 -0.133 -0.229 0.077 0.375 0.35 -0.037 0.121 -0.181 0.162 -0.067 -0.074 0.298 0.365 0.092 -0.014 0.065 0.077 0.179 -0.192
acting 0.047 -0.151 -0.04 -0.082 -0.579 0.019 0.165 -0.316 -0.091 0.175 0.101 -0.14 0.028 0.382 0.117 0.037 0.4 -0.027 0.167 -0.102 -0.303 0.283 0.412 -0.049 -0.164 0.157 -0.102 0.121 -0.054 0.039 -0.075 0.127 -0.01 -0.147 -0.425 -0.056 0.178 -0.171 -0.091 0.083 -0.229 -0.068 -0.415 0.232 0.241 0.165 -0.359 -0.264 -0.171 0.075 0.069 0.303 -0.326 -0.122 -0.22 -0.156 0.271 -0.193 -0.265 0.068 0.199 0.056 0.113 0.191 -0.006 -0.286 -0.145 -0.041 -0.086 0.073 0.193 0.125 -0.102 -0.135 -0.08 -0.185 0.282 0.093 -0.234 0.646 -0.367 0.003 0.006 -0.394 -0.041 0.079 0.225 0.049 -0.221 -0.167 -0.285 -0.23 0.05 -0.302 0.057 -0.194 -0.097 -0.033 0.251 0.134
action 0.002 -0.141 0.082 0.094 0.038 0.016 -0.07 0.266 -0.109 -0.128 -0.192 -0.28 -0.258 -0.039 -0.117 -0.232 0.113 -0.449 0.002 -0.074 0.319 0.078 0.179 0.139 0.056 0.237 -0.287 -0.266 -0.085 0.095 0.051 -0.044 -0.055 0.135 -0.034 -0.024 0.048 0.245 -0.134 0.459 -0.209 -0.201 -0.15 -0.178 -0.083 -0.004 -0.047 -0.58 0.007 0.004 -0.147 -0.158 -0.127 -0.285 0.127 -0.042 0.309 0.004 -0.361 -0.267 0.215 0.067 -0.185 0.095 0.105 0.131 -0.053 -0.162 0.214 0.031 -0.17 -0.017 -0.242 0.067 -0.275 -0.578 0.104 -0.041 -0.205 -0.008 0.228 -0.272 -0.229 0.164 -0.162 -0.009 -0.203 -0.391 -0.211 0.061 0.497 -0.079 0.352 0.176 0.102 -0.196 0.279 -0.187 -0.123 0.213
active -0.001 0.146 0.119 -0.126 -0.117 -0.088 0.409 -0.271 -0.347 -0.112 -0.12 0.192 -0.017 -0.069 0.131 0.02 0.047 0.119 0.213 0.21 0.089 -0.187 -0.154 0.269 0.087 0.388 0.002 0.113 0.033 0.013 -0.118 0.174 -0.169 -0.13 0.04 0.054 0.38 -0.072 0.033 0.071 -0.102 -0.111 -0.04 -0.192 -0.063 0.189 -0.12 0.028 0.041 0.17 0.1 -0.181 -0.112 -0.27 -0.059 0.162 0.051 -0.162 0.024 0.106 -0.072 -0.073 -0.089 0.192 0.068 0.135 -0.016 -0.118 0.168 -0.115 0.128 0.121 0.39 0.007 0.038 -0.088 0.354 0.222 0.026 0.195 -0.162 -0.153 0.072 0.0 0.075 -0.084 -0.031 0.022 -0.061 0.169 0.219 0.012 -0.226 0.15 -0.221 0.163 0.066 -0.302 -0.344 -0.05
activity 0.261 -0.028 -0.314 0.005 0.208 -0.166 0.108 -0.179 0.074 -0.116 0.249 -0.313 -0.24 -0.21 0.31 -0.252 -0.319 0.064 -0.285 -0.474 -0.212 -0.051 -0.128 0.188 0.29 -0.228 -0.184 -0.126 -0.112 -0.095 -0.338 -0.134 -0.116 0.125 0.092 0.019 -0.154 0.074 0.273 -0.064 0.508 -0.204 0.209 0.22 -0.046 0.222 -0.093 0.652 -0.075 0.084 -0.295 0.062 0.147 -0.126 -0.119 0.042 -0.216 0.05 0.198 -0.194 0.052 0.197 0.054 -0.038 0.02 0.201 -0.012 -0.005 -0.146 -0.262 0.175 -0.113 -0.236 0.258 0.022 -0.272 0.189 -0.161 -0.175 0.378 0.333 0.168 -0.512 0.1 0.009 0.326 0.264 0.004 0.417 -0.299 0.099 0.139 -0.346 -0.585 0.011 0.171 -0.027 -0.134 -0.273 -0.135
actor -0.285 -0.381 0.18 -0.037 0.165 -0.033 0.329 0.143 0.188 0.022 -0.107 -0.203 -0.258 -0.266 -0.326 0.0 -0.147 0.254 0.089 -0.007 -0.22 0.2 0.079 -0.096 -0.346 -0.202 0.038 -0.171 0.087 -0.258 -0.249 0.001 -0.17 -0.033 0.069 -0.121 0.016 0.212 -0.057 -0.209 -0.011 0.014 -0.222 -0.198 -0.227 0.076 0.067 -0.107 0.157 0.127 -0.27 -0.17 -0.031 0.165 0.46 -0.331 -0.294 -0.047 -0.441 -0.205 -0.083 -0.101 0.057 0.083 -0.116 -0.146 -0.051 0.172 0.258 -0.182 -0.446 0.034 -0.021 0.403 0.063 0.206 -0.011 -0.051 -0.571 -0.206 -0.051 -0.06 -0.206 -0.062 -0.002 0.129 0.006 0.006 -0.095 -0.417 0.065 -0.075 -0.075 0.033 -0.16 -0.142 -0.084 0.5 0.055 -0.365
actress -0.027 -0.121 -0.233 -0.046 0.166 -0.192 0.019 0.051 0.265 -0.022 0.211 -0.159 0.023 -0.547 -0.176 0.082 0.261 0.057 -0.12 0.35 -0.017 0.17 -0.224 -0.089 -0.079 0.305 0.006 -0.051 0.197 -0.143 -0.318 -0.094 0.286 0.065 0.001 -0.004 0.438 -0.036 -0.019 0.129 0.141 0.019 0.08 -0.302 -0.067 -0.127 -0.109 0.016 -0.045 0.033 0.247 -0.417 -0.038 0.143 0.248 -0.241 -0.001 0.208 0.161 -0.024 0.085 -0.03 -0.29 0.263 -0.015 0.046 -0.161 0.234 0.039 -0.109 0.353 -0.009 0.135 -0.043 -0.164 0.459 0.243 0.335 -0.219 -0.114 -0.246 0.058 0.549 -0.236 -0.038 0.084 -0.089 -0.401 -0.233 0.119 0.032 -0.229 0.207 0.077 -0.108 -0.456 -0.068 0.18 0.075 0.207
actuator 0.161 -0.112 -0.339 0.033 -0.171 0.131 -0.046 0.084 -0.041 -0.281 -0.313 0.031 0.11 -0.065 0.023 0.231 -0.039 -0.108 0.008 0.222 0.458 -0.285 -0.072 -0.184 0.283 -0.082 0.039 -0.087 -0.152 -0.139 0.156 -0.125 -0.176 0.127 -0.53 -0.025 -0.042 0.016 -0.135 -0.125 -0.061 0.214 -0.326 -0.057 -0.188 -0.275 -0.164 -0.355 0.054 0.107 -0.15 -0.137 0.099 -0.105 0.003 -0.137 -0.074 -0.143 -0.01 0.007 -0.115 -0.176 -0.027 -0.085 -0.055 -0.248 -0.093 0.32 -0.194 0.031 0.035 0.081 0.083 0.365 -0.042 -0.247 0.203 -0.051 0.07 0.217 -0.168 0.037 0.249 -0.212 -0.188 0.181 -0.021 -0.118 -0.308 -0.226 0.276 0.234 -0.021 0.139 0.084 0.003 -0.056 -0.058 -0.062 0.081
ad -0.227 -0.07 0.089 0.179 -0.096 -0.184 -0.035 0.133 -0.171 -0.056 -0.033 0.059 0.021 0.025 -0.007 -0.001 0.001 -0.133 0.139 -0.225 -0.257 -0.314 -0.063 -0.188 0.083 0.245 -0.192 0.486 -0.174 0.082 0.137 0.316 0.168 -0.206 0.081 -0.007 0.186 0.033 -0.125 -0.335 -0.053 -0.15 0.277 -0.218 0.127 0.023 -0.347 -0.395 -0.319 0.197 0.295 -0.138 -0.011 -0.385 0.043 0.005 0.157 -0.216 -0.129 0.11 0.046 -0.091 0.246 0.126 0.093 0.331 0.186 -0.001 0.196 0.123 0.063 -0.281 0.158 0.19 0.055 -0.039 0.071 -0.461 0.062 0.138 0.29 -0.167 0.157 0.107 -0.041 -0.019 -0.11 0.065 -0.245 0.118 0.057 0.222 0.181 0.118 -0.203 0.049 0.13 -0.006 -0.271 -0.34
adapt 0.161 -0.112 -0.339 0.033 -0.171 0.131 -0.046 0.084 -0.041 -0.281 -0.313 0.031 0.11 -0.065 0.023 0.231 -0.039 -0.108 0.008 0.222 0.458 -0.285 -0.072 -0.184 0.283 -0.082 0.039 -0.087 -0.152 -0.139 0.156 -0.125 -0.176 0.127 -0.53 -0.025 -0.042 0.016 -0.135 -0.125 -0.061 0.214 -0.326 -0.057 -0.188 -0.275 -0.164 -0.355 0.054 0.107 -0.15 -0.137 0.099 -0.105 0.003 -0.137 -0.074 -0.143 -0.01 0.007 -0.115 -0.176 -0.027 -0.085 -0.055 -0.248 -0.093 0.32 -0.194 0.031 0.035 0.081 0.083 0.365 -0.042 -0.247 0.203 -0.051 0.07 0.217 -0.168 0.037 0.249 -0.212 -0.188 0.181 -0.021 -0.118 -0.308 -0.226 0.276 0.234 -0.021 0.139 0.084 0.003 -0.056 -0.058 -0.062 0.081
adaptive 0.161 -0.112 -0.339 0.033 -0.171 0.131 -0.046 0.084 -0.041 -0.281 -0.313 0.031 0.11 -0.065 0.023 0.231 -0.039 -0.108 0.008 0.222 0.458 -0.285 -0.072 -0.184 0.283 -0.082 0.039 -0.087 -0.152 -0.139 0.156 -0.125 -0.176 0.127 -0.53 -0.025 -0.042 0.016 -0.135 -0.125 -0.061 0.214 -0.326 -0.057 -0.188 -0.275 -0.164 -0.355 0.054 0.107 -0.15 -0.137 0.099 -0.105 0.003 -0.137 -0.074 -0.143 -0.01 0.007 -0.115 -0.176 -0.027 -0.085 -0.055 -0.248 -0.093 0.32 -0.194 0.031 0.035 0.081 0.083 0.365 -0.042 -0.247 0.203 -0.051 0.07 0.217 -0.168 0.037 0.249 -0.212 -0.188 0.181 -0.021 -0.118 -0.308 -0.226 0.276 0.234 -0.021 0.139 0.084 0.003 -0.056 -0.058 -0.062 0.081
addiction 0.246 0.02 -0.104 0.028 0.057 0.12 -0.012 -0.071 -0.127 -0.364 -0.061 0.23 -0.076 -0.31 -0.119 0.451 0.046 0.073 -0.017 0.567 -0.312 0.189 -0.416 -0.121 -0.209 -0.019 0.255 -0.126 -0.149 -0.398 0.038 0.465 -0.111 0.409 0.192 0.3 0.042 -0.286 -0.045 -0.143 -0.184 -0.182 -0.259 0.266 -0.12 0.094 0.219 0.214 0.264 -0.358 -0.219 0.315 -0.077 -0.006 -0.057 0.076 0.161 -0.085 0.036 -0.089 -0.23 -0.194 0.024 -0.036 -0.293 0.156 -0.352 -0.16 0.185 0.01 -0.089 -0.121 -0.167 0.169 -0.338 -0.299 0.434 -0.068 -0.325 -0.104 -0.111 -0.048 0.161 0.018 0.078 0.063 -0.055 0.067 -0.093 -0.182 0.164 0.041 0.287 0.196 -0.235 -0.332 -0.046 0.06 -0.144 -0.231
addition -0.021 -0.197 -0.053 0.056 -0.409 -0.16 0.612 -0.189 0.36 0.14 0.154 0.145 -0.518 -0.011 -0.052 -0.403 -0.038 0.186 -0.126 -0.209 -0.156 0.072 0.127 -0.207 0.345 -0.289 -0.119 0.076 -0.081 0.016 -0.461 0.232 0.041 0.159 -0.195 0.008 -0.089 0.183 0.089 -0.154 0.154 0.165 -0.017 -0.069 -0.016 -0.062 0.04 0.091 0.075 0.393 0.327 -0.12 -0.235 -0.31 0.11 -0.317 0.126 0.022 -0.167 -0.013 -0.112 0.169 -0.184 0.024 0.288 0.299 0.101 0.083 -0.07 -0.217 0.143 -0.17 -0.085 0.046 0.361 0.036 -0.215 0.039 0.07 0.024 -0.143 -0.057 -0.443 0.09 -0.037 0.17 -0.186 0.067 -0.049 0.043 0.777 0.073 -0.07 0.262 0.178 -0.26 -0.113 0.014 -0.228 0.084
address 0.114 -0.034 -0.161 -0.248 0.047 0.352 0.106 0.298 0.023 0.081 -0.091 0.083 0.053 -0.029 -0.329 -0.278 0.298 0.286 0.133 -0.049 0.0 -0.224 0.23 0.367 -0.008 0.174 -0.039 -0.603 -0.08 0.437 -0.467 -0.04 -0.255 -0.277 -0.028 0.311 0.032 0.087 -0.155 0.591 0.108 0.294 0.291 -0.162 -0.042 -0.197 0.086 -0.03 -0.021 0.476 0.016 -0.248 -0.189 0.281 -0.026 -0.054 0.275 -0.128 -0.033 0.001 0.04 0.018 0.094 0.051 0.067 -0.264 -0.107 0.013 -0.065 0.084 -0.216 -0.347 0.33 -0.056 -0.066 -0.1 -0.255 0.085 -0.154 -0.297 0.368 0.031 -0.047 -0.165 0.031 0.017 -0.057 -0.066 -0.331 -0.339 0.151 -0.099 -0.141 -0.049 0.019 0.003 -0.342 -0.187 0.437 -0.045
adhesion 0.161 -0.112 -0.339 0.033 -0.171 0.131 -0.046 0.084 -0.041 -0.281 -0.313 0.031 0.11 -0.065 0.023 0.231 -0.039 -0.108 0.008 0.222 0.458 -0.285 -0.072 -0.184 0.283 -0.082 0.039 -0.087 -0.152 -0.139 0.156 -0.125 -0.176 0.127 -0.53 -0.025 -0.042 0.016 -0.135 -0.125 -0.061 0.214 -0.326 -0.057 -0.188 -0.275 -0.164 -0.355 0.054 0.107 -0.15 -0.137 0.099 -0.105 0.003 -0.137 -0.074 -0.143 -0.01 0.007 -0.115 -0.176 -0.027 -0.085 -0.055 -0.248 -0.093 0.32 -0.194 0.031 0.035 0.081 0.083 0.365 -0.042 -0.247 0.203 -0.051 0.07 0.217 -0.168 0.037 0.249 -0.212 -0.188 0.181 -0.021 -0.118 -0.308 -0.226 0.276 0.234 -0.021 0.139 0.084 0.003 -0.056 -0.058 -0.062 0.081
adhesive 0.161 -0.112 -0.339 0.033 -0.171 0.131 -0.046 0.084 -0.041 -0.281 -0.313 0.031 0.11 -0.065 0.023 0.231 -0.039 -0.108 0.008 0.222 0.458 -0.285 -0.072 -0.184 0.283 -0.082 0.039 -0.087 -0.152 -0.139 0.156 -0.125 -0.176 0.127 -0.53 -0.025 -0.042 0.016 -0.135 -0.125 -0.061 0.214 -0.326 -0.057 -0.188 -0.275 -0.164 -0.355 0.054 0.107 -0.15 -0.137 0.099 -0.105 0.003 -0.137 -0.074 -0.143 -0.01 0.007 -0.115 -0.176 -0.027 -0.085 -0.055 -0.248 -0.093 0.32 -0.194 0.031 0.035 0.081 0.083 0.365 -0.042 -0.247 0.203 -0.051 0.07 0.217 -0.168 0.037 0.249 -0.212 -0.188 0.181 -0.021 -0.118 -0.308 -0.226 0.276 0.234 -0.021 0.139 0.084 0.003 -0.056 -0.058 -0.062 0.081
adjournment 0.161 -0.112 -0.339 0.033 -0.171 0.131 -0.046 0.084 -0.041 -0.281 -0.313 0.031 0.11 -0.065 0.023 0.231 -0.039 -0.108 0.008 0.222 0.458 -0.285 -0.072 -0.184 0.283 -0.082 0.039 -0.087 -0.152 -0.139 0.156 -0.125 -0.176 0.127 -0.53 -0.025 -0.042 0.016 -0.135 -0.125 -0.061 0.214 -0.326 -0.057 -0.188 -0.275 -0.164 -0.355 0.054 0.107 -0.15 -0.137 0.099 -0.105 0.003 -0.137 -0.074 -0.143 -0.01 0.007 -0.115 -0.176 -0.027 -0.085 -0.055 -0.248 -0.093 0.32 -0.194 0.031 0.035 0.081 0.083 0.365 -0.042 -0.247 0.203 -0.051 0.07 0.217 -0.168 0.037 0.249 -0.212 -0.188 0.181 -0.021 -0.118 -0.308 -0.226 0.276 0.234 -0.021 0.139 0.084 0.003 -0.056 -0.058 -0.062 0.081
adjustment 0.161 -0.112 -0.339 0.033 -0.171 0.131 -0.046 0.084 -0.041 -0.281 -0.313 0.031 0.11 -0.065 0.023 0.231 -0.039 -0.108 0.008 0.222 0.458 -0.285 -0.072 -0.184 0.283 -0.082 0.039 -0.087 -0.152 -0.139 0.156 -0.125 -0.176 0.127 -0.53 -0.025 -0.042 0.016 -0.135 -0.125 -0.061 0.214 -0.326 -0.057 -0.188 -0.275 -0.164 -0.355 0.054 0.107 -0.15 -0.137 0.099 -0.105 0.003 -0.137 -0.074 -0.143 -0.01 0.007 -0.115 -0.176 -0.027 -0.085 -0.055 -0.248 -0.093 0.32 -0.194 0.031 0.035 0.081 0.083 0.365 -0.042 -0.247 0.203 -0.051 0.07 0.217 -0.168 0.037 0.249 -0.212 -0.188 0.181 -0.021 -0.118 -0.308 -0.226 0.276 0.234 -0.021 0.139 0.084 0.003 -0.056 -0.058 -0.062 0.081
adjustor 0.161 -0.112 -0.339 0.033 -0.171 0.131 -0.046 0.084 -0.041 -0.281 -0.313 0.031 0.11 -0.065 0.023 0.231 -0.039 -0.108 0.008 0.222 0.458 -0.285 -0.072 -0.184 0.283 -0.082 0.039 -0.087 -0.152 -0.139 0.156 -0.125 -0.176 0.127 -0.53 -0.025 -0.042 0.016 -0.135 -0.125 -0.061 0.214 -0.326 -0.057 -0.188 -0.275 -0.164 -0.355 0.054 0.107 -0.15 -0.137 0.099 -0.105 0.003 -0.137 -0.074 -0.143 -0.01 0.007 -0.115 -0.176 -0.027 -0.085 -0.055 -0.248 -0.093 0.32 -0.194 0.031 0.035 0.081 0.083 0.365 -0.042 -0.247 0.203 -0.051 0.07 0.217 -0.168 0.037 0.249 -0.212 -0.188 0.181 -0.021 -0.118 -0.308 -0.226 0.276 0.234 -0.021 0.139 0.084 0.003 -0.056 -0.058 -0.062 0.081
administration 0.142 0.307 -0.165 -0.085 0.041 0.002 0.102 -0.364 -0.007 0.111 -0.211 -0.013 0.121 -0.357 0.029 0.06 0.147 0.027 -0.073 0.097 0.022 0.266 0.001 -0.074 -0.023 0.102 0.037 -0.063 -0.003 0.034 0.108 0.145 0.042 0.176 -0.17 -0.075 -0.055 -0.088 0.171 0.158 0.113 -0.127 0.183 -0.038 0.055 -0.174 -0.145 0.167 0.232 -0.078 0.057 -0.14 -0.066 0.048 -0.33 -0.366 0.25 -0.19 0.139 -0.011 0.252 0.214 0.105 -0.042 0.028 -0.263 0.31 -0.148 0.294 -0.049 0.064 -0.203 -0.019 -0.182 -0.065 0.242 -0.14 -0.276 -0.158 0.031 0.073 -0.015 -0.151 0.081 0.16 -0.114 -0.158 0.327 -0.3 -0.067 0.114 0.428 0.159 -0.19 -0.081 -0.348 0.385 -0.012 0.094 -0.016
admiralty 0.294 0.143 -0.109 -0.009 0.246 0.191 0.035 0.183 -0.065 -0.218 -0.161 -0.238 -0.058 -0.316 -0.148 0.287 -0.014 -0.092 0.121 -0.022 0.351 -0.111 -0.065 0.041 0.135 -0.242 -0.086 0.219 -0.127 -0.034 -0.056 0.074 0.1 -0.209 0.06 0.232 0.12 0.151 -0.182 0.076 0.249 0.05 -0.135 0.067 -0.007 0.073 0.217 0.027 0.094 -0.165 -0.144 -0.052 -0.168 -0.033 0.145 -0.525 -0.081 -0.142 0.126 0.159 -0.091 0.023 0.052 0.029 0.192 -0.139 0.221 0.114 -0.049 -0.014 0.122 -0.038 -0.188 -0.06 0.045 -0.386 -0.163 -0.475 -0.075 -0.105 -0.054 0.066 -0.015 -0.308 0.398 -0.066 0.06 -0.18 0.15 0.014 -0.148 -0.284 -0.025 -0.068 -0.509 0.429 -0.154 0.304 0.196 -0.017
admission 0.127 -0.039 0.327 -0.255 -0.041 0.126 -0.127 0.452 0.235 0.196 0.163 0.129 0.212 -0.279 0.091 -0.161 -0.176 0.365 -0.233 0.155 -0.496 0.313 -0.135 0.304 -0.179 0.228 0.466 0.054 0.01 0.019 0.335 -0.196 0.289 0.135 0.22 -0.137 -0.002 -0.061 -0.389 -0.062 -0.016 0.234 0.17 0.104 -0.218 -0.108 0.154 -0.269 0.129 -0.348 0.129 0.112 -0.107 -0.134 -0.091 -0.096 0.012 0.095 -0.297 0.218 0.317 -0.05 -0.126 -0.027 -0.179 0.407 0.075 0.181 -0.103 0.005 -0.064 -0.395 -0.088 -0.014 -0.115 -0.108 -0.036 -0.244 -0.058 0.044 -0.104 -0.215 -0.033 0.192 -0.027 0.471 0.354 0.125 0.17 0.062 0.159 0.009 0.104 -0.063 -0.146 -0.101 -0.214 0.013 0.197 -0.219
admit 0.161 -0.112 -0.339 0.033 -0.171 0.131 -0.046 0.084 -0.041 -0.281 -0.313 0.031 0.11 -0.065 0.023 0.231 -0.039 -0.108 0.008 0.222 0.458 -0.285 -0.072 -0.184 0.283 -0.082 0.039 -0.087 -0.152 -0.139 0.156 -0.125 -0.176 0.127 -0.53 -0.025 -0.042 0.016 -0.135 -0.125 -0.061 0.214 -0.326 -0.057 -0.188 -0.275 -0.164 -0.355 0.054 0.107 -0.15 -0.137 0.099 -0.105 0.003 -0.137 -0.074 -0.143 -0.01 0.007 -0.115 -0.176 -0.027 -0.085 -0.055 -0.248 -0.093 0.32 -0.194 0.031 0.035 0.081 0.083 0.365 -0.042 -0.247 0.203 -0.051 0.07 0.217 -0.168 0.037 0.249 -0.212 -0.188 0.181 -0.021 -0.118 -0.308 -0.226 0.276 0.234 -0.021 0.139 0.084 0.003 -0.056 -0.058 -0.062 0.081
admittance 0.161 -0.112 -0.339 0.033 -0.171 0.131 -0.046 0.084 -0.041 -0.281 -0.313 0.031 0.11 -0.065 0.023 0.231 -0.039 -0.108 0.008 0.222 0.458 -0.285 -0.072 -0.184 0.283 -0.082 0.039 -0.087 -0.152 -0.139 0.156 -0.125 -0.176 0.127 -0.53 -0.025 -0.042 0.016 -0.135 -0.125 -0.061 0.214 -0.326 -0.057 -0.188 -0.275 -0.164 -0.355 0.054 0.107 -0.15 -0.137 0.099 -0.105 0.003 -0.137 -0.074 -0.143 -0.01 0.007 -0.115 -0.176 -0.027 -0.085 -0.055 -0.248 -0.093 0.32 -0.194 0.031 0.035 0.081 0.083 0.365 -0.042 -0.247 0.203 -0.051 0.07 0.217 -0.168 0.037 0.249 -0.212 -0.188 0.181 -0.021 -0.118 -0.308 -0.226 0.276 0.234 -0.021 0.139 0.084 0.003 -0.056 -0.058 -0.062 0.081
admitting 0.161 -0.112 -0.339 0.033 -0.171 0.131 -0.046 0.084 -0.041 -0.281 -0.313 0.031 0.11 -0.065 0.023 0.231 -0.039 -0.108 0.008 0.222 0.458 -0.285 -0.072 -0.184 0.283 -0.082 0.039 -0.087 -0.152 -0.139 0.156 -0.125 -0.176 0.127 -0.53 -0.025 -0.042 0.016 -0.135 -0.125 -0.061 0.214 -0.326 -0.057 -0.188 -0.275 -0.164 -0.355 0.054 0.107 -0.15 -0.137 0.099 -0.105 0.003 -0.137 -0.074 -0.143 -0.01 0.007 -0.115 -0.176 -0.027 -0.085 -0.055 -0.248 -0.093 0.32 -0.194 0.031 0.035 0.081 0.083 0.365 -0.042 -0.247 0.203 -0.051 0.07 0.217 -0.168 0.037 0.249 -0.212 -0.188 0.181 -0.021 -0.118 -0.308 -0.226 0.276 0.234 -0.021 0.139 0.084 0.003 -0.056 -0.058 -0.062 0.081
adult 0.193 0.007 -0.107 0.304 -0.071 0.031 -0.106 0.197 -0.293 -0.363 -0.227 0.185 -0.038 0.281 0.036 -0.001 0.053 0.247 -0.007 0.119 0.405 0.135 -0.102 0.014 -0.329 0.549 0.034 0.337 -0.038 0.046 -0.087 0.031 0.065 0.243 0.084 -0.085 -0.099 -0.16 0.058 0.237 -0.09 0.083 -0.007 -0.117 0.045 -0.214 0.046 -0.041 0.202 0.126 -0.097 0.285 -0.16 -0.422 0.217 0.075 -0.032 -0.072 -0.178 0.021 0.161 0.372 0.0 0.097 0.236 0.088 0.005 -0.334 -0.096 0.144 0.077 -0.101 -0.094 0.129 -0.071 0.167 0.147 -0.026 -0.083 0.147 0.253 0.184 0.067 0.078 -0.041 0.162 0.203 -0.337 -0.24 -0.077 0.324 -0.111 0.11 -0.222 -0.344 0.098 0.164 0.003 -0.182 0.112
adulteration 0.161 -0.112 -0.339 0.033 -0.171 0.131 -0.046 0.084 -0.041 -0.281 -0.313 0.031 0.11 -0.065 0.023 0.231 -0.039 -0.108 0.008 0.222 0.458 -0.285 -0.072 -0.184 0.283 -0.082 0.039 -0.087 -0.152 -0.139 0.156 -0.125 -0.176 0.127 -0.53 -0.025 -0.042 0.016 -0.135 -0.125 -0.061 0.214 -0.326 -0.057 -0.188 -0.275 -0.164 -0.355 0.054 0.107 -0.15 -0.137 0.099 -0.105 0.003 -0.137 -0.074 -0.143 -0.01 0.007 -0.115 -0.176 -0.027 -0.085 -0.055 -0.248 -0.093 0.32 -0.194 0.031 0.035 0.081 0.083 0.365 -0.042 -0.247 0.203 -0.051 0.07 0.217 -0.168 0.037 0.249 -0.212 -0.188 0.181 -0.021 -0.118 -0.308 -0.226 0.276 0.234 -0.021 0.139 0.084 0.003 -0.056 -0.058 -0.062 0.081
advancement 0.161 -0.112 -0.339 0.033 -0.171 0.131 -0.046 0.084 -0.041 -0.281 -0.313 0.031 0.11 -0.065 0.023 0.231 -0.039 -0.108 0.008 0.222 0.458 -0.285 -0.072 -0.184 0.283 -0.082 0.039 -0.087 -0.152 -0.139 0.156 -0.125 -0.176 0.127 -0.53 -0.025 -0.042 0.016 -0.135 -0.125 -0.061 0.214 -0.326 -0.057 -0.188 -0.275 -0.164 -0.355 0.054 0.107 -0.15 -0.137 0.099 -0.105 0.003 -0.137 -0.074 -0.143 -0.01 0.007 -0.115 -0.176 -0.027 -0.085 -0.055 -0.248 -0.093 0.32 -0.194 0.031 0.035 0.081 0.083 0.365 -0.042 -0.247 0.203 -0.051 0.07 0.217 -0.168 0.037 0.249 -0.212 -0.188 0.181 -0.021 -0.118 -0.308 -0.226 0.276 0.234 -0.021 0.139 0.084 0.003 -0.056 -0.058 -0.062 0.081
adventism 0.161 -0.112 -0.339 0.033 -0.171 0.131 -0.046 0.084 -0.041 -0.281 -0.313 0.031 0.11 -0.065 0.023 0.231 -0.039 -0.108 0.008 0.222 0.458 -0.285 -0.072 -0.184 0.283 -0.082 0.039 -0.087 -0.152 -0.139 0.156 -0.125 -0.176 0.127 -0.53 -0.025 -0.042 0.016 -0.135 -0.125 -0.061 0.214 -0.326 -0.057 -0.188 -0.275 -0.164 -0.355 0.054 0.107 -0.15 -0.137 0.099 -0.105 0.003 -0.137 -0.074 -0.143 -0.01 0.007 -0.115 -0.176 -0.027 -0.085 -0.055 -0.248 -0.093 0.32 -0.194 0.031 0.035 0.081 0.083 0.365 -0.042 -0.247 0.203 -0.051 0.07 0.217 -0.168 0.037 0.249 -0.212 -0.188 0.181 -0.021 -0.118 -0.308 -0.226 0.276 0.234 -0.021 0.139 0.084 0.003 -0.056 -0.058 -0.062 0.081
adventure -0.377 0.042 -0.29 0.061 0.012 -0.107 -0.323 0.022 -0.644 0.064 -0.257 -0.071 0.17 -0.003 -0.061 -0.219 0.023 0.243 -0.314 -0.026 0.196 -0.19 0.337 0.018 0.012 0.038 0.247 -0.157 0.061 0.17 -0.255 -0.203 -0.034 -0.211 -0.089 -0.013 -0.125 0.079 -0.025 0.028 0.073 0.284 -0.171 -0.217 0.138 0.453 0.02 0.037 -0.103 -0.052 -0.09 -0.216 -0.122 -0.2 0.439 -0.052 -0.357 -0.013 0.103 0.069 -0.172 -0.213 -0.096 -0.231 -0.188 0.032 -0.092 0.048 0.25 -0.187 0.132 0.245 -0.164 -0.136 -0.272 -0.022 0.375 0.168 -0.046 0.058 0.695 0.061 -0.119 0.629 0.143 -0.244 -0.189 -0.204 0.302 0.01 -0.144 -0.236 0.142 -0.136 -0.468 0.333 0.069 0.191 0.391 -0.223
adverse 0.346 -0.199 0.026 -0.142 0.087 -0.118 0.08 -0.056 0.142 -0.251 0.117 -0.241 -0.115 0.089 -0.011 0.241 -0.039 0.081 -0.252 -0.133 0.218 -0.032 -0.082 0.209 0.248 0.078 0.16 -0.014 -0.22 0.297 0.067 0.022 0.135 0.079 0.157 -0.085 0.135 -0.203 0.111 -0.146 0.026 -0.06 -0.229 0.314 -0.504 -0.215 -0.051 0.078 0.046 -0.319 0.026 0.298 0.005 0.187 -0.049 -0.184 -0.051 0.041 -0.212 0.054 -0.029 -0.025 0.018 -0.056 0.174 0.385 -0.099 -0.039 -0.07 0.237 0.143 0.123 0.256 -0.004 -0.142 -0.201 -0.053 -0.206 -0.285 0.036 0.104 -0.251 0.14 0.137 -0.155 -0.123 0.3 0.226 0.122 -0.045 -0.114 0.006 0.415 0.368 -0.013 -0.332 0.556 0.069 0.073 0.03
adversely 0.161 -0.112 -0.339 0.033 -0.171 0.131 -0.046 0.084 -0.041 -0.281 -0.313 0.031 0.11 -0.065 0.023 0.231 -0.039 -0.108 0.008 0.222 0.458 -0.285 -0.072 -0.184 0.283 -0.082 0.039 -0.087 -0.152 -0.139 0.156 -0.125 -0.176 0.127 -0.53 -0.025 -0.042 0.016 -0.135 -0.125 -0.061 0.214 -0.326 -0.057 -0.188 -0.275 -0.164 -0.355 0.054 0.107 -0.15 -0.137 0.099 -0.105 0.003 -0.137 -0.074 -0.143 -0.01 0.007 -0.115 -0.176 -0.027 -0.085 -0.055 -0.248 -0.093 0.32 -0.194 0.031 0.035 0.081 0.083 0.365 -0.042 -0.247 0.203 -0.051 0.07 0.217 -0.168 0.037 0.249 -0.212 -0.188 0.181 -0.021 -0.118 -0.308 -0.226 0.276 0.234 -0.021 0.139 0.084 0.003 -0.056 -0.058 -0.062 0.081
advertisement 0.161 -0.112 -0.339 0.033 -0.171 0.131 -0.046 0.084 -0.041 -0.281 -0.313 0.031 0.11 -0.065 0.023 0.231 -0.039 -0.108 0.008 0.222 0.458 -0.285 -0.072 -0.184 0.283 -0.082 0.039 -0.087 -0.152 -0.139 0.156 -0.125 -0.176 0.127 -0.53 -0.025 -0.042 0.016 -0.135 -0.125 -0.061 0.214 -0.326 -0.057 -0.188 -0.275 -0.164 -0.355 0.054 0.107 -0.15 -0.137 0.099 -0.105 0.003 -0.137 -0.074 -0.143 -0.01 0.007 -0.115 -0.176 -0.027 -0.085 -0.055 -0.248 -0.093 0.32 -0.194 0.031 0.035 0.081 0.083 0.365 -0.042 -0.247 0.203 -0.051 0.07 0.217 -0.168 0.037 0.249 -0.212 -0.188 0.181 -0.021 -0.118 -0.308 -0.226 0.276 0.234 -0.021 0.139 0.084 0.003 -0.056 -0.058 -0.062 0.081
advertiser 0.161 -0.112 -0.339 0.033 -0.171 0.131 -0.046 0.084 -0.041 -0.281 -0.313 0.031 0.11 -0.065 0.023 0.231 -0.039 -0.108 0.008 0.222 0.458 -0.285 -0.072 -0.184 0.283 -0.082 0.039 -0.087 -0.152 -0.139 0.156 -0.125 -0.176 0.127 -0.53 -0.025 -0.042 0.016 -0.135 -0.125 -0.061 0.214 -0.326 -0.057 -0.188 -0.275 -0.164 -0.355 0.054 0.107 -0.15 -0.137 0.099 -0.105 0.003 -0.137 -0.074 -0.143 -0.01 0.007 -0.115 -0.176 -0.027 -0.085 -0.055 -0.248 -0.093 0.32 -0.194 0.031 0.035 0.081 0.083 0.365 -0.042 -0.247 0.203 -0.051 0.07 0.217 -0.168 0.037 0.249 -0.212 -0.188 0.181 -0.021 -0.118 -0.308 -0.226 0.276 0.234 -0.021 0.139 0.084 0.003 -0.056 -0.058 -0.062 0.081
advise 0.161 -0.112 -0.339 0.033 -0.171 0.131 -0.046 0.084 -0.041 -0.281 -0.313 0.031 0.11 -0.065 0.023 0.231 -0.039 -0.108 0.008 0.222 0.458 -0.285 -0.072 -0.184 0.283 -0.082 0.039 -0.087 -0.152 -0.139 0.156 -0.125 -0.176 0.127 -0.53 -0.025 -0.042 0.016 -0.135 -0.125 -0.061 0.214 -0.326 -0.057 -0.188 -0.275 -0.164 -0.355 0.054 0.107 -0.15 -0.137 0.099 -0.105 0.003 -0.137 -0.074 -0.143 -0.01 0.007 -0.115 -0.176 -0.027 -0.085 -0.055 -0.248 -0.093 0.32 -0.194 0.031 0.035 0.081 0.083 0.365 -0.042 -0.247 0.203 -0.051 0.07 0.217 -0.168 0.037 0.249 -0.212 -0.188 0.181 -0.021 -0.118 -0.308 -0.226 0.276 0.234 -0.021 0.139 0.084 0.003 -0.056 -0.058 -0.062 0.081
advised 0.161 -0.112 -0.339 0.033 -0.171 0.131 -0.046 0.084 -0.041 -0.281 -0.313 0.031 0.11 -0.065 0.023 0.231 -0.039 -0.108 0.008 0.222 0.458 -0.285 -0.072 -0.184 0.283 -0.082 0.039 -0.087 -0.152 -0.139 0.156 -0.125 -0.176 0.127 -0.53 -0.025 -0.042 0.016 -0.135 -0.125 -0.061 0.214 -0.326 -0.057 -0.188 -0.275 -0.164 -0.355 0.054 0.107 -0.15 -0.137 0.099 -0.105 0.003 -0.137 -0.074 -0.143 -0.01 0.007 -0.115 -0.176 -0.027 -0.085 -0.055 -0.248 -0.093 0.32 -0.194 0.031 0.035 0.081 0.083 0.365 -0.042 -0.247 0.203 -0.051 0.07 0.217 -0.168 0.037 0.249 -0.212 -0.188 0.181 -0.021 -0.118 -0.308 -0.226 0.276 0.234 -0.021 0.139 0.084 0.003 -0.056 -0.058 -0.062 0.081
advisory 0.161 -0.112 -0.339 0.033 -0.171 0.131 -0.046 0.084 -0.041 -0.281 -0.313 0.031 0.11 -0.065 0.023 0.231 -0.039 -0.108 0.008 0.222 0.458 -0.285 -0.072 -0.184 0.283 -0.082 0.039 -0.087 -0.152 -0.139 0.156 -0.125 -0.176 0.127 -0.53 -0.025 -0.042 0.016 -0.135 -0.125 -0.061 0.214 -0.326 -0.057 -0.188 -0.275 -0.164 -0.355 0.054 0.107 -0.15 -0.137 0.099 -0.105 0.003 -0.137 -0.074 -0.143 -0.01 0.007 -0.115 -0.176 -0.027 -0.085 -0.055 -0.248 -0.093 0.32 -0.194 0.031 0.035 0.081 0.083 0.365 -0.042 -0.247 0.203 -0.051 0.07 0.217 -0.168 0.037 0.249 -0.212 -0.188 0.181 -0.021 -0.118 -0.308 -0.226 0.276 0.234 -0.021 0.139 0.084 0.003 -0.056 -0.058 -0.062 0.081
advocate -0.086 -0.226 0.005 0.305 -0.092 -0.081 -0.102 -0.233 0.079 0.126 0.044 0.474 -0.265 0.29 -0.464 0.245 -0.26 0.013 -0.092 0.229 -0.005 -0.125 0.175 0.017 -0.255 -0.071 -0.104 0.123 -0.064 0.166 0.216 -0.082 0.076 0.336 0.047 0.163 -0.212 0.185 0.007 0.115 -0.001 -0.081 0.0 0.169 0.028 -0.196 0.278 0.329 0.199 -0.017 0.096 -0.017 0.024 -0.133 -0.085 0.409 -0.058 0.022 0.284 -0.185 0.145 0.077 0.087 -0.26 -0.083 -0.338 -0.179 -0.142 -0.181 -0.205 -0.172 -0.101 0.445 -0.405 -0.508 -0.377 -0.054 -0.066 -0.043 0.132 -0.089 -0.219 0.103 -0.174 -0.351 0.194 -0.512 -0.155 0.207 0.191 -0.299 -0.178 0.467 -0.25 -0.062 0.124 0.089 0.014 -0.05 -0.011
aerial -0.195 -0.017 -0.269 -0.029 -0.177 -0.313 -0.313 -0.03 -0.425 0.137 -0.268 -0.296 -0.094 0.102 0.122 0.188 0.154 -0.086 -0.093 0.091 0.121 -0.049 0.065 -0.183 0.192 -0.29 0.046 0.164 -0.024 0.131 0.198 0.209 0.06 -0.212 0.26 0.192 -0.186 -0.042 -0.37 0.012 -0.116 -0.323 0.466 0.374 -0.102 0.144 0.171 0.03 -0.073 -0.204 -0.103 -0.343 -0.098 -0.173 0.028 -0.04 -0.268 -0.032 0.092 -0.28 -0.039 -0.184 -0.115 -0.281 0.031 0.165 -0.222 0.165 0.272 -0.079 0.133 0.189 -0.122 -0.239 -0.152 -0.045 0.324 -0.216 -0.198 0.018 0.077 -0.643 -0.126 -0.119 0.253 -0.184 0.122 0.075 -0.15 -0.153 0.225 -0.154 -0.061 0.042 -0.161 0.013 -0.083 0.181 -0.273 -0.09
aerialist 0.161 -0.112 -0.339 0.033 -0.171 0.131 -0.046 0.084 -0.041 -0.281 -0.313 0.031 0.11 -0.065 0.023 0.231 -0.039 -0.108 0.008 0.222 0.458 -0.285 -0.072 -0.184 0.283 -0.082 0.039 -0.087 -0.152 -0.139 0.156 -0.125 -0.176 0.127 -0.53 -0.025 -0.042 0.016 -0.135 -0.125 -0.061 0.214 -0.326 -0.057 -0.188 -0.275 -0.164 -0.355 0.054 0.107 -0.15 -0.137 0.099 -0.105 0.003 -0.137 -0.074 -0.143 -0.01 0.007 -0.115 -0.176 -0.027 -0.085 -0.055 -0.248 -0.093 0.32 -0.194 0.031 0.035 0.081 0.083 0.365 -0.042 -0.247 0.203 -0.051 0.07 0.217 -0.168 0.037 0.249 -0.212 -0.188 0.181 -0.021 -0.118 -0.308 -0.226 0.276 0.234 -0.021 0.139 0.084 0.003 -0.056 -0.058 -0.062 0.081
aeronautical 0.161 -0.112 -0.339 0.033 -0.171 0.131 -0.046 0.084 -0.041 -0.281 -0.313 0.031 0.11 -0.065 0.023 0.231 -0.039 -0.108 0.008 0.222 0.458 -0.285 -0.072 -0.184 0.283 -0.082 0.039 -0.087 -0.152 -0.139 0.156 -0.125 -0.176 0.127 -0.53 -0.025 -0.042 0.016 -0.135 -0.125 -0.061 0.214 -0.326 -0.057 -0.188 -0.275 -0.164 -0.355 0.054 0.107 -0.15 -0.137 0.099 -0.105 0.003 -0.137 -0.074 -0.143 -0.01 0.007 -0.115 -0.176 -0.027 -0.085 -0.055 -0.248 -0.093 0.32 -0.194 0.031 0.035 0.081 0.083 0.365 -0.042 -0.247 0.203 -0.051 0.07 0.217 -0.168 0.037 0.249 -0.212 -0.188 0.181 -0.021 -0.118 -0.308 -0.226 0.276 0.234 -0.021 0.139 0.084 0.003 -0.056 -0.058 -0.062 0.081
aeronautics 0.161 -0.112 -0.339 0.033 -0.171 0.131 -0.046 0.084 -0.041 -0.281 -0.313 0.031 0.11 -0.065 0.023 0.231 -0.039 -0.108 0.008 0.222 0.458 -0.285 -0.072 -0.184 0.283 -0.082 0.039 -0.087 -0.152 -0.139 0.156 -0.125 -0.176 0.127 -0.53 -0.025 -0.042 0.016 -0.135 -0.125 -0.061 0.214 -0.326 -0.057 -0.188 -0.275 -0.164 -0.355 0.054 0.107 -0.15 -0.137 0.099 -0.105 0.003 -0.137 -0.074 -0.143 -0.01 0.007 -0.115 -0.176 -0.027 -0.085 -0.055 -0.248 -0.093 0.32 -0.194 0.031 0.035 0.081 0.083 0.365 -0.042 -0.247 0.203 -0.051 0.07 0.217 -0.168 0.037 0.249 -0.212 -0.188 0.181 -0.021 -0.118 -0.308 -0.226 0.276 0.234 -0.021 0.139 0.084 0.003 -0.056 -0.058 -0.062 0.081
affect -0.183 0.081 0.034 -0.209 -0.056 -0.184 -0.172 0.01 0.207 -0.145 0.192 0.066 0.203 0.258 -0.113 -0.248 -0.409 -0.152 0.067 -0.125 -0.073 0.062 -0.147 0.087 -0.171 -0.132 -0.07 -0.206 -0.267 0.324 0.062 -0.106 0.185 -0.235 -0.217 0.014 -0.099 0.036 -0.134 -0.038 -0.359 0.064 -0.334 0.105 0.057 -0.021 -0.033 -0.079 0.092 0.368 -0.334 -0.217 0.185 -0.248 0.108 -0.243 -0.121 -0.193 0.066 0.076 -0.037 -0.266 -0.328 0.166 -0.002 -0.034 -0.016 -0.338 0.248 -0.114 0.078 -0.131 -0.322 -0.032 -0.082 0.149 0.485 0.258 0.057 0.364 -0.532 0.422 0.299 0.363 0.173 0.292 0.072 0.198 -0.328 -0.341 -0.219 0.318 -0.051 -0.092 0.094 -0.001 -0.186 0.03 0.343 -0.112
affectional 0.161 -0.112 -0.339 0.033 -0.171 0.131 -0.046 0.084 -0.041 -0.281 -0.313 0.031 0.11 -0.065 0.023 0.231 -0.039 -0.108 0.008 0.222 0.458 -0.285 -0.072 -0.184 0.283 -0.082 0.039 -0.087 -0.152 -0.139 0.156 -0.125 -0.176 0.127 -0.53 -0.025 -0.042 0.016 -0.135 -0.125 -0.061 0.214 -0.326 -0.057 -0.188 -0.275 -0.164 -0.355 0.054 0.107 -0.15 -0.137 0.099 -0.105 0.003 -0.137 -0.074 -0.143 -0.01 0.007 -0.115 -0.176 -0.027 -0.085 -0.055 -0.248 -0.093 0.32 -0.194 0.031 0.035 0.081 0.083 0.365 -0.042 -0.247 0.203 -0.051 0.07 0.217 -0.168 0.037 0.249 -0.212 -0.188 0.181 -0.021 -0.118 -0.308 -0.226 0.276 0.234 -0.021 0.139 0.084 0.003 -0.056 -0.058 -0.062 0.081
affiliation 0.161 -0.112 -0.339 0.033 -0.171 0.131 -0.046 0.084 -0.041 -0.281 -0.313 0.031 0.11 -0.065 0.023 0.231 -0.039 -0.108 0.008 0.222 0.458 -0.285 -0.072 -0.184 0.283 -0.082 0.039 -0.087 -0.152 -0.139 0.156 -0.125 -0.176 0.127 -0.53 -0.025 -0.042 0.016 -0.135 -0.125 -0.061 0.214 -0.326 -0.057 -0.188 -0.275 -0.164 -0.355 0.054 0.107 -0.15 -0.137 0.099 -0.105 0.003 -0.137 -0.074 -0.143 -0.01 0.007 -0.115 -0.176 -0.027 -0.085 -0.055 -0.248 -0.093 0.32 -0.194 0.031 0.035 0.081 0.083 0.365 -0.042 -0.247 0.203 -0.051 0.07 0.217 -0.168 0.037 0.249 -0.212 -0.188 0.181 -0.021 -0.118 -0.308 -0.226 0.276 0.234 -0.021 0.139 0.084 0.003 -0.056 -0.058 -0.062 0.081
affirm 0.161 -0.112 -0.339 0.033 -0.171 0.131 -0.046 0.084 -0.041 -0.281 -0.313 0.031 0.11 -0.065 0.023 0.231 -0.039 -0.108 0.008 0.222 0.458 -0.285 -0.072 -0.184 0.283 -0.082 0.039 -0.087 -0.152 -0.139 0.156 -0.125 -0.176 0.127 -0.53 -0.025 -0.042 0.016 -0.135 -0.125 -0.061 0.214 -0.326 -0.057 -0.188 -0.275 -0.164 -0.355 0.054 0.107 -0.15 -0.137 0.099 -0.105 0.003 -0.137 -0.074 -0.143 -0.01 0.007 -0.115 -0.176 -0.027 -0.085 -0.055 -0.248 -0.093 0.32 -0.194 0.031 0.035 0.081 0.083 0.365 -0.042 -0.247 0.203 -0.051 0.07 0.217 -0.168 0.037 0.249 -0.212 -0.188 0.181 -0.021 -0.118 -0.308 -0.226 0.276 0.234 -0.021 0.139 0.084 0.003 -0.056 -0.058 -0.062 0.081
affordable 0.161 -0.112 -0.339 0.033 -0.171 0.131 -0.046 0.084 -0.041 -0.281 -0.313 0.031 0.11 -0.065 0.023 0.231 -0.039 -0.108 0.008 0.222 0.458 -0.285 -0.072 -0.184 0.283 -0.082 0.039 -0.087 -0.152 -0.139 0.156 -0.125 -0.176 0.127 -0.53 -0.025 -0.042 0.016 -0.135 -0.125 -0.061 0.214 -0.326 -0.057 -0.188 -0.275 -0.164 -0.355 0.054 0.107 -0.15 -0.137 0.099 -0.105 0.003 -0.137 -0.074 -0.143 -0.01 0.007 -0.115 -0.176 -0.027 -0.085 -0.055 -0.248 -0.093 0.32 -0.194 0.031 0.035 0.081 0.083 0.365 -0.042 -0.247 0.203 -0.051 0.07 0.217 -0.168 0.037 0.249 -0.212 -0.188 0.181 -0.021 -0.118 -0.308 -0.226 0.276 0.234 -0.021 0.139 0.084 0.003 -0.056 -0.058 -0.062 0.081
afghani 0.161 -0.112 -0.339 0.033 -0.171 0.131 -0.046 0.084 -0.041 -0.281 -0.313 0.031 0.11 -0.065 0.023 0.231 -0.039 -0.108 0.008 0.222 0.458 -0.285 -0.072 -0.184 0.283 -0.082 0.039 -0.087 -0.152 -0.139 0.156 -0.125 -0.176 0.127 -0.53 -0.025 -0.042 0.016 -0.135 -0.125 -0.061 0.214 -0.326 -0.057 -0.188 -0.275 -0.164 -0.355 0.054 0.107 -0.15 -0.137 0.099 -0.105 0.003 -0.137 -0.074 -0.143 -0.01 0.007 -0.115 -0.176 -0.027 -0.085 -0.055 -0.248 -0.093 0.32 -0.194 0.031 0.035 0.081 0.083 0.365 -0.042 -0.247 0.203 -0.051 0.07 0.217 -0.168 0.037 0.249 -0.212 -0.188 0.181 -0.021 -0.118 -0.308 -0.226 0.276 0.234 -0.021 0.139 0.084 0.003 -0.056 -0.058 -0.062 0.081
afghanistan 0.303 0.153 0.317 -0.159 0.078 -0.259 0.108 0.085 0.352 0.014 0.221 -0.1 0.027 0.476 0.083 0.202 0.132 0.068 -0.12 0.002 0.091 -0.052 -0.144 0.643 0.066 0.123 -0.012 -0.02 0.027 0.137 -0.078 -0.002 -0.101 0.097 -0.092 0.198 -0.345 0.001 -0.009 0.123 -0.391 0.014 -0.088 -0.329 -0.113 0.16 -0.049 -0.092 0.116 -0.095 -0.051 -0.283 -0.209 0.049 0.089 0.159 -0.165 -0.185 0.117 0.325 0.221 0.048 0.17 -0.062 -0.119 -0.12 0.41 0.289 0.162 -0.318 0.086 0.253 0.293 -0.021 0.261 0.146 0.074 0.123 -0.086 0.097 0.186 -0.131 0.022 -0.024 -0.162 -0.001 0.091 0.068 -0.116 -0.01 0.132 -0.185 -0.14 -0.007 -0.253 -0.247 -0.161 -0.149 -0.355 -0.131
africa 0.019 -0.317 -0.145 0.128 0.067 -0.403 0.183 0.115 0.309 -0.22 -0.048 -0.383 -0.215 0.014 0.085 0.278 -0.187 0.175 -0.034 -0.022 -0.376 -0.108 -0.022 0.058 0.408 -0.22 0.069 -0.169 -0.289 0.011 -0.237 -0.232 0.049 0.114 -0.29 -0.201 0.225 0.002 0.196 -0.062 -0.064 0.089 -0.02 -0.33 0.004 -0.212 0.18 -0.185 -0.237 0.093 -0.128 -0.221 -0.16 -0.123 0.049 0.118 -0.432 0.267 -0.277 0.233 0.334 0.273 -0.152 0.385 0.327 -0.234 -0.236 -0.12 -0.119 -0.144 0.08 -0.006 0.099 0.027 0.18 0.499 -0.249 0.131 -0.104 -0.181 0.038 0.203 0.015 0.005 -0.216 0.024 -0.096 0.21 0.1 -0.101 0.002 -0.094 0.251 -0.009 -0.344 -0.111 0.346 -0.052 0.025 0.013
african -0.224 -0.027 0.055 -0.032 -0.264 0.273 -0.231 0.306 0.079 -0.098 0.011 0.347 -0.088 -0.131 -0.145 0.394 -0.068 0.056 0.09 -0.564 0.109 0.288 -0.447 0.118 -0.044 0.408 -0.057 -0.402 -0.01 0.209 0.036 -0.103 -0.19 -0.272 -0.086 -0.053 0.088 -0.202 -0.13 -0.253 -0.316 -0.082 0.128 -0.116 0.063 -0.306 0.271 0.097 -0.251 -0.137 0.008 -0.003 0.055 -0.609 0.032 -0.046 -0.035 -0.166 0.043 0.212 -0.153 0.043 -0.203 -0.146 -0.167 0.04 0.128 -0.021 -0.122 0.059 -0.053 -0.334 0.228 0.068 0.034 0.134 -0.053 -0.075 -0.244 -0.109 0.112 0.043 -0.213 -0.153 0.101 0.069 0.199 0.408 -0.286 -0.136 0.026 -0.237 0.335 -0.05 -0.336 -0.031 0.125 -0.347 -0.598 -0.272
afternoon 0.161 -0.112 -0.339 0.033 -0.171 0.131 -0.046 0.084 -0.041 -0.281 -0.313 0.031 0.11 -0.065 0.023 0.231 -0.039 -0.108 0.008 0.222 0.458 -0.285 -0.072 -0.184 0.283 -0.082 0.039 -0.087 -0.152 -0.139 0.156 -0.125 -0.176 0.127 -0.53 -0.025 -0.042 0.016 -0.135 -0.125 -0.061 0.214 -0.326 -0.057 -0.188 -0.275 -0.164 -0.355 0.054 0.107 -0.15 -0.137 0.099 -0.105 0.003 -0.137 -0.074 -0.143 -0.01 0.007 -0.115 -0.176 -0.027 -0.085 -0.055 -0.248 -0.093 0.32 -0.194 0.031 0.035 0.081 0.083 0.365 -0.042 -0.247 0.203 -0.051 0.07 0.217 -0.168 0.037 0.249 -0.212 -0.188 0.181 -0.021 -0.118 -0.308 -0.226 0.276 0.234 -0.021 0.139 0.084 0.003 -0.056 -0.058 -0.062 0.081
age 0.034 -0.234 0.107 0.137 -0.142 0.018 0.009 0.128 0.191 -0.125 0.409 0.055 0.045 -0.083 -0.053 0.22 0.149 0.076 -0.137 -0.308 0.003 -0.18 -0.206 -0.161 0.028 0.016 -0.175 0.362 0.325 -0.047 0.325 0.265 -0.14 -0.286 -0.141 -0.497 0.516 -0.066 0.374 -0.281 0.19 -0.025 -0.219 -0.006 -0.053 0.187 0.004 0.021 -0.314 -0.072 -0.042 -0.043 0.116 -0.186 0.089 -0.165 0.265 -0.156 0.155 0.078 0.073 -0.026 -0.032 0.082 0.209 0.435 -0.131 -0.44 0.065 0.307 -0.168 0.159 -0.394 -0.13 -0.093 0.399 -0.092 -0.293 0.004 0.167 0.182 0.001 -0.343 0.198 0.083 0.306 -0.074 -0.061 0.116 0.122 0.181 -0.227 -0.244 -0.314 -0.207 0.05 0.031 -0.059 -0.104 -0.405
agency 0.006 -0.313 -0.147 -0.164 -0.404 0.067 -0.052 0.112 -0.275 0.222 0.082 0.001 0.248 0.556 0.069 -0.428 0.148 -0.142 0.037 -0.268 -0.401 0.05 0.018 0.155 -0.236 -0.012 0.048 0.111 -0.468 0.418 0.029 -0.094 0.034 0.138 0.411 0.038 0.363 -0.155 -0.232 -0.151 0.117 0.067 -0.026 0.031 -0.317 0.207 -0.276 0.183 -0.415 0.078 0.173 0.051 0.128 -0.032 0.276 0.201 0.152 -0.047 0.194 -0.07 0.223 -0.025 0.134 -0.093 -0.236 -0.459 -0.158 -0.097 0.062 -0.278 0.207 -0.088 -0.168 0.163 -0.066 -0.405 -0.143 -0.22 0.302 -0.166 -0.06 0.126 -0.024 0.196 -0.154 0.003 0.306 -0.105 -0.129 -0.382 -0.163 -0.075 0.001 -0.205 0.201 0.091 0.251 -0.094 -0.126 -0.086
agent 0.078 -0.235 0.129 0.025 0.1 -0.007 0.149 0.194 0.014 -0.275 0.072 -0.197 -0.014 -0.017 -0.093 0.069 -0.283 0.05 0.142 0.099 0.209 -0.043 0.049 -0.073 0.105 -0.196 0.059 -0.043 0.083 -0.182 -0.036 -0.021 0.282 -0.047 0.209 -0.35 -0.006 0.093 -0.399 -0.022 -0.13 0.2 -0.12 0.168 0.15 0.318 -0.017 0.05 -0.064 -0.285 -0.107 -0.345 -0.04 -0.075 0.12 0.128 0.107 -0.511 0.268 -0.208 -0.027 -0.07 -0.218 0.173 -0.243 0.262 0.067 -0.242 -0.16 -0.304 0.155 0.205 -0.074 0.15 0.068 0.119 0.115 -0.065 -0.122 0.08 0.172 0.219 0.196 -0.136 -0.176 0.217 -0.15 0.135 0.238 -0.055 -0.114 -0.078 -0.028 -0.007 0.203 0.169 0.211 -0.256 0.042 -0.142
agitation 0.161 -0.112 -0.339 0.033 -0.171 0.131 -0.046 0.084 -0.041 -0.281 -0.313 0.031 0.11 -0.065 0.023 0.231 -0.039 -0.108 0.008 0.222 0.458 -0.285 -0.072 -0.184 0.283 -0.082 0.039 -0.087 -0.152 -0.139 0.156 -0.125 -0.176 0.127 -0.53 -0.025 -0.042 0.016 -0.135 -0.125 -0.061 0.214 -0.326 -0.057 -0.188 -0.275 -0.164 -0.355 0.054 0.107 -0.15 -0.137 0.099 -0.105 0.003 -0.137 -0.074 -0.143 -0.01 0.007 -0.115 -0.176 -0.027 -0.085 -0.055 -0.248 -0.093 0.32 -0.194 0.031 0.035 0.081 0.083 0.365 -0.042 -0.247 0.203 -0.051 0.07 0.217 -0.168 0.037 0.249 -0.212 -0.188 0.181 -0.021 -0.118 -0.308 -0.226 0.276 0.234 -0.021 0.139 0.084 0.003 -0.056 -0.058 -0.062 0.081
agreement 0.059 -0.368 -0.054 -0.071 0.196 -0.104 -0.123 0.262 0.049 -0.309 0.196 -0.378 -0.353 -0.195 -0.308 0.114 0.228 0.314 0.091 0.419 -0.039 0.043 0.011 0.149 0.14 0.039 0.263 0.155 0.168 -0.753 0.319 -0.028 -0.141 -0.345 0.356 0.093 0.286 -0.012 0.135 -0.176 -0.17 -0.053 -0.34 -0.226 0.126 -0.14 0.051 -0.084 -0.083 -0.063 0.192 -0.125 0.021 0.023 0.079 0.004 -0.087 -0.089 0.039 -0.243 0.214 0.532 0.287 -0.005 -0.324 -0.087 0.123 -0.122 -0.095 0.132 -0.069 0.139 -0.15 -0.037 0.361 0.046 0.052 -0.163 -0.072 -0.045 0.075 0.045 -0.404 -0.21 0.04 0.004 0.236 -0.111 0.184 -0.058 -0.224 0.121 0.076 0.121 -0.027 -0.242 0.011 0.063 0.282 0.16
aid -0.104 0.049 0.251 0.074 0.063 0.088 0.083 -0.018 -0.341 0.324 -0.192 0.582 -0.239 0.316 0.304 0.014 0.145 0.177 0.069 0.153 0.032 0.15 -0.061 -0.435 0.129 -0.154 -0.006 0.132 -0.013 0.174 -0.141 -0.11 0.407 -0.086 -0.046 -0.253 -0.053 -0.044 0.319 -0.129 0.138 -0.427 0.135 -0.607 0.034 -0.006 -0.055 -0.186 0.126 -0.01 -0.104 0.303 -0.17 0.103 0.068 0.178 -0.132 0.031 0.015 0.583 0.202 0.019 -0.376 -0.287 -0.01 0.288 0.42 0.019 0.063 -0.07 0.26 0.202 0.164 0.012 -0.191 0.019 -0.261 0.298 -0.08 -0.312 0.03 -0.413 0.09 0.01 -0.011 0.02 -0.077 0.012 -0.159 0.143 0.117 -0.33 0.245 0.067 -0.378 -0.258 0.243 -0.14 0.03 0.037
aim -0.473 0.136 -0.141 -0.389 0.068 -0.028 0.148 -0.108 0.294 -0.311 0.242 -0.441 -0.275 0.283 -0.264 -0.027 0.069 -0.239 -0.032 0.103 0.181 0.359 0.321 -0.227 0.052 0.082 0.039 -0.179 -0.073 0.168 0.052 0.178 -0.011 -0.134 -0.052 0.406 0.045 0.068 -0.178 -0.006 0.174 0.256 -0.517 0.155 -0.296 0.208 -0.024 -0.166 0.125 0.109 0.106 -0.176 -0.264 -0.25 0.121 -0.243 -0.004 0.127 -0.051 0.096 -0.045 0.184 0.169 -0.142 -0.129 0.198 -0.205 -0.043 0.225 0.176 0.187 -0.044 0.236 -0.027 0.218 -0.327 -0.364 -0.149 -0.096 -0.019 0.167 0.18 0.301 0.262 -0.078 0.374 -0.126 -0.15 -0.01 0.163 0.407 0.063 -0.141 0.168 0.205 -0.08 0.202 0.124 0.421 0.277
air -0.254 -0.106 0.08 0.245 -0.222 0.008 -0.102 0.28 0.462 -0.169 -0.288 -0.281 -0.15 0.007 -0.144 -0.17 0.199 -0.073 -0.307 0.269 0.017 0.075 0.377 0.183 0.036 -0.157 -0.179 0.255 0.085 -0.103 -0.619 0.135 0.066 -0.049 0.163 -0.083 0.085 0.247 0.027 0.076 0.081 0.187 -0.026 0.121 0.127 -0.241 -0.246 -0.192 -0.228 -0.123 -0.128 0.113 -0.017 -0.304 -0.034 -0.173 -0.483 0.009 -0.367 0.105 0.202 -0.096 0.008 0.055 0.128 0.108 0.389 -0.19 -0.032 0.444 0.036 -0.109 -0.072 -0.005 -0.127 0.083 0.075 -0.194 -0.121 0.287 0.106 -0.084 -0.148 -0.361 0.364 -0.111 -0.227 -0.03 -0.031 -0.174 -0.029 -0.16 -0.045 0.101 -0.213 -0.041 -0.146 -0.119 -0.706 0.078
aircraft 0.013 -0.216 0.401 -0.103 -0.073 -0.247 0.073 -0.046 -0.119 -0.287 0.279 -0.108 -0.082 0.178 0.108 -0.239 -0.249 0.215 0.093 0.153 -0.037 -0.384 0.17 -0.227 -0.036 -0.16 -0.362 -0.013 0.173 0.211 0.217 0.239 0.294 0.035 0.189 -0.099 0.277 -0.089 0.191 0.235 -0.263 -0.097 0.005 -0.119 0.225 -0.211 -0.039 -0.084 -0.042 -0.123 -0.033 -0.204 -0.086 0.01 -0.199 -0.316 -0.003 -0.167 0.036 -0.009 0.07 0.252 0.11 0.293 0.178 -0.064 -0.298 -0.332 -0.139 0.128 0.2 0.339 -0.054 0.111 -0.015 0.069 0.417 0.204 -0.164 -0.189 0.146 0.191 -0.174 -0.243 0.116 0.228 0.108 0.074 0.192 0.106 0.405 -0.019 0.198 0.235 -0.252 0.157 0.08 -0.146 0.113 -0.171
airplane -0.1 0.11 -0.241 0.077 -0.147 0.156 -0.147 -0.049 0.139 0.348 0.079 -0.022 0.315 0.102 0.087 0.065 -0.279 -0.288 -0.198 -0.268 0.062 0.247 0.301 -0.078 0.081 -0.098 0.006 0.507 -0.241 0.18 -0.065 0.487 -0.243 0.188 0.247 0.216 -0.023 0.316 -0.198 0.077 -0.037 0.024 -0.027 -0.251 0.034 -0.105 0.515 -0.05 0.006 0.058 0.142 -0.196 0.006 0.103 0.016 -0.411 0.221 -0.139 0.088 0.12 -0.146 0.266 -0.282 0.103 -0.056 0.295 -0.072 -0.144 0.562 0.367 0.169 -0.023 0.092 -0.224 -0.156 0.019 -0.173 0.009 0.147 -0.25 -0.262 -0.034 0.046 0.011 0.315 -0.077 -0.019 -0.101 -0.104 0.038 0.025 0.041 -0.038 -0.288 -0.239 -0.258 0.373 -0.011 -0.143 -0.231
airport 0.194 -0.209 -0.049 -0.213 0.163 0.044 0.327 0.15 0.176 -0.13 -0.188 -0.11 0.135 -0.095 -0.212 -0.079 -0.219 0.12 -0.31 0.298 0.244 0.031 0.105 -0.132 -0.103 -0.06 -0.397 -0.306 -0.149 -0.112 0.021 0.028 -0.087 0.008 -0.089 -0.111 0.229 0.151 0.199 -0.033 -0.083 0.208 -0.288 0.111 0.218 0.302 -0.117 -0.256 0.292 0.071 0.096 0.152 -0.332 0.061 0.315 -0.07 0.033 -0.251 0.055 0.16 0.163 0.102 -0.247 0.132 -0.412 -0.327 -0.063 0.224 -0.184 0.124 -0.184 -0.124 -0.007 -0.132 -0.009 -0.079 -0.063 0.197 -0.122 0.072 0.262 -0.146 0.587 0.193 0.016 0.084 -0.363 -0.176 -0.148 0.0 -0.113 0.198 -0.296 0.081 -0.241 -0.091 0.001 0.057 -0.27 -0.4
airship 0.161 -0.112 -0.339 0.033 -0.171 0.131 -0.046 0.084 -0.041 -0.281 -0.313 0.031 0.11 -0.065 0.023 0.231 -0.039 -0.108 0.008 0.222 0.458 -0.285 -0.072 -0.184 0.283 -0.082 0.039 -0.087 -0.152 -0.139 0.156 -0.125 -0.176 0.127 -0.53 -0.025 -0.042 0.016 -0.135 -0.125 -0.061 0.214 -0.326 -0.057 -0.188 -0.275 -0.164 -0.355 0.054 0.107 -0.15 -0.137 0.099 -0.105 0.003 -0.137 -0.074 -0.143 -0.01 0.007 -0.115 -0.176 -0.027 -0.085 -0.055 -0.248 -0.093 0.32 -0.194 0.031 0.035 0.081 0.083 0.365 -0.042 -0.247 0.203 -0.051 0.07 0.217 -0.168 0.037 0.249 -0.212 -0.188 0.181 -0.021 -0.118 -0.308 -0.226 0.276 0.234 -0.021 0.139 0.084 0.003 -0.056 -0.058 -0.062 0.081
alarm 0.161 -0.112 -0.339 0.033 -0.171 0.131 -0.046 0.084 -0.041 -0.281 -0.313 0.031 0.11 -0.065 0.023 0.231 -0.039 -0.108 0.008 0.222 0.458 -0.285 -0.072 -0.184 0.283 -0.082 0.039 -0.087 -0.152 -0.139 0.156 -0.125 -0.176 0.127 -0.53 -0.025 -0.042 0.016 -0.135 -0.125 -0.061 0.214 -0.326 -0.057 -0.188 -0.275 -0.164 -0.355 0.054 0.107 -0.15 -0.137 0.099 -0.105 0.003 -0.137 -0.074 -0.143 -0.01 0.007 -0.115 -0.176 -0.027 -0.085 -0.055 -0.248 -0.093 0.32 -0.194 0.031 0.035 0.081 0.083 0.365 -0.042 -0.247 0.203 -0.051 0.07 0.217 -0.168 0.037 0.249 -0.212 -0.188 0.181 -0.021 -0.118 -0.308 -0.226 0.276 0.234 -0.021 0.139 0.084 0.003 -0.056 -0.058 -0.062 0.081
alarmism 0.161 -0.112 -0.339 0.033 -0.171 0.131 -0.046 0.084 -0.041 -0.281 -0.313 0.031 0.11 -0.065 0.023 0.231 -0.039 -0.108 0.008 0.222 0.458 -0.285 -0.072 -0.184 0.283 -0.082 0.039 -0.087 -0.152 -0.139 0.156 -0.125 -0.176 0.127 -0.53 -0.025 -0.042 0.016 -0.135 -0.125 -0.061 0.214 -0.326 -0.057 -0.188 -0.275 -0.164 -0.355 0.054 0.107 -0.15 -0.137 0.099 -0.105 0.003 -0.137 -0.074 -0.143 -0.01 0.007 -0.115 -0.176 -0.027 -0.085 -0.055 -0.248 -0.093 0.32 -0.194 0.031 0.035 0.081 0.083 0.365 -0.042 -0.247 0.203 -0.051 0.07 0.217 -0.168 0.037 0.249 -0.212 -0.188 0.181 -0.021 -0.118 -0.308 -0.226 0.276 0.234 -0.021 0.139 0.084 0.003 -0.056 -0.058 -0.062 0.081
albert -0.178 -0.379 -0.258 -0.304 -0.242 -0.212 0.133 0.102 -0.051 -0.336 -0.121 -0.162 0.177 0.486 0.02 -0.247 -0.117 -0.168 -0.155 0.404 0.061 0.046 0.306 0.303 -0.132 -0.106 -0.296 0.247 0.112 0.199 0.116 0.093 0.321 -0.133 -0.175 0.315 -0.026 -0.368 0.042 0.022 0.024 -0.021 0.016 -0.245 -0.326 0.234 -0.199 0.227 -0.229 -0.042 -0.092 0.194 0.118 -0.037 -0.053 -0.458 -0.228 -0.032 0.125 -0.093 0.001 -0.059 -0.082 0.102 0.015 -0.264 0.113 -0.096 0.047 -0.218 -0.169 -0.378 -0.07 -0.002 -0.43 0.091 -0.084 0.147 0.007 0.217 -0.278 0.05 -0.28 -0.306 0.025 0.236 -0.036 0.031 -0.166 -0.04 -0.07 0.017 0.506 0.368 -0.396 -0.065 0.161 0.01 -0.376 0.244
alcohol -0.071 0.285 0.261 0.288 -0.108 0.445 0.017 -0.32 -0.194 -0.169 0.188 0.334 -0.077 0.341 0.141 -0.131 0.32 0.267 -0.11 -0.552 -0.068 -0.031 -0.115 -0.027 -0.253 0.353 -0.098 -0.14 0.062 -0.08 0.176 0.034 0.126 -0.118 0.064 0.191 -0.029 0.27 0.106 -0.086 -0.085 -0.452 -0.247 0.229 0.371 0.154 -0.212 0.189 0.163 -0.067 0.275 -0.095 -0.107 -0.28 0.27 0.1 0.287 0.132 -0.194 0.063 -0.032 -0.042 -0.174 0.339 0.233 0.064 -0.043 0.085 -0.043 0.228 -0.134 0.002 -0.289 0.149 0.331 -0.241 0.247 -0.136 -0.092 0.508 0.057 0.415 -0.042 0.334 0.114 -0.062 -0.031 0.018 0.105 0.293 0.021 -0.018 0.162 0.147 -0.03 -0.011 0.237 -0.018 0.042 0.268
algebra 0.014 0.052 0.169 -0.312 0.073 -0.226 0.241 -0.326 -0.174 0.278 0.21 -0.312 -0.435 0.382 -0.024 0.219 0.082 0.005 -0.312 -0.189 0.38 0.108 -0.039 0.305 -0.119 0.167 -0.181 0.315 0.158 -0.614 -0.018 0.224 0.108 0.037 -0.034 0.002 -0.042 -0.037 0.009 0.023 -0.078 -0.113 0.589 0.031 -0.224 0.228 0.101 -0.194 0.056 -0.04 0.022 0.198 -0.009 -0.123 -0.052 0.045 -0.218 0.319 -0.034 0.042 -0.511 -0.062 0.44 -0.263 -0.191 0.001 0.176 -0.055 -0.591 0.191 0.348 -0.583 -0.277 -0.144 -0.228 -0.215 0.518 -0.071 0.004 0.614 0.227 -0.087 0.043 0.052 -0.114 0.241 0.091 -0.011 0.049 -0.303 0.064 -0.056 -0.069 -0.311 0.018 -0.161 0.045 0.186 0.197 0.53
algebraic 0.044 0.003 -0.1 0.241 0.355 0.227 -0.328 0.054 -0.146 -0.119 -0.13 0.226 0.013 0.248 0.264 -0.001 0.023 0.152 -0.099 -0.37 -0.161 0.209 0.047 -0.081 -0.023 0.56 -0.021 0.284 0.151 -0.037 -0.205 -0.062 -0.018 -0.04 -0.361 -0.144 -0.312 0.127 0.183 -0.326 -0.206 0.099 -0.094 -0.386 -0.073 -0.017 -0.015 -0.075 -0.181 0.028 0.146 0.074 -0.154 0.323 0.035 -0.09 0.143 -0.313 -0.009 -0.11 0.192 -0.017 -0.214 0.339 -0.252 0.016 0.208 -0.087 -0.291 -0.008 0.164 -0.27 0.108 0.532 -0.298 -0.115 0.185 -0.151 0.165 0.272 0.361 0.186 -0.09 -0.155 0.01 -0.207 0.261 0.117 0.058 -0.061 0.048 -0.051 -0.019 -0.476 -0.01 -0.084 0.24 -0.389 -0.204 -0.392
algebraist 0.161 -0.112 -0.339 0.033 -0.171 0.131 -0.046 0.084 -0.041 -0.281 -0.313 0.031 0.11 -0.065 0.023 0.231 -0.039 -0.108 0.008 0.222 0.458 -0.285 -0.072 -0.184 0.283 -0.082 0.039 -0.087 -0.152 -0.139 0.156 -0.125 -0.176 0.127 -0.53 -0.025 -0.042 0.016 -0.135 -0.125 -0.061 0.214 -0.326 -0.057 -0.188 -0.275 -0.164 -0.355 0.054 0.107 -0.15 -0.137 0.099 -0.105 0.003 -0.137 -0.074 -0.143 -0.01 0.007 -0.115 -0.176 -0.027 -0.085 -0.055 -0.248 -0.093 0.32 -0.194 0.031 0.035 0.081 0.083 0.365 -0.042 -0.247 0.203 -0.051 0.07 0.217 -0.168 0.037 0.249 -0.212 -0.188 0.181 -0.021 -0.118 -0.308 -0.226 0.276 0.234 -0.021 0.139 0.084 0.003 -0.056 -0.058 -0.062 0.081
algebras -0.128 0.269 0.091 0.054 0.011 0.144 0.019 0.053 0.126 0.072 -0.155 -0.125 0.157 -0.169 -0.204 -0.121 0.047 -0.074 -0.307 0.332 0.055 -0.106 0.321 0.129 -0.109 0.26 0.204 -0.077 -0.123 -0.276 -0.091 -0.179 0.258 -0.044 0.138 0.058 -0.543 0.181 -0.026 0.337 0.366 -0.359 -0.177 0.16 0.022 0.338 -0.447 -0.284 0.12 0.437 0.074 -0.075 -0.183 -0.275 -0.124 -0.201 0.092 0.073 0.012 0.244 -0.241 0.069 -0.182 -0.395 -0.46 0.065 -0.134 0.246 0.109 0.282 0.174 0.237 0.164 -0.004 -0.244 0.148 0.052 0.159 0.168 0.105 0.538 -0.137 0.205 -0.124 0.063 0.091 -0.332 0.029 0.112 0.181 0.141 0.112 -0.002 0.161 -0.119 0.154 0.011 0.26 -0.234 -0.261
algorithm 0.016 -0.422 0.264 -0.141 -0.2 0.233 -0.232 0.142 0.006 -0.044 0.092 0.225 -0.201 0.181 -0.091 0.004 -0.02 -0.043 -0.041 0.247 0.226 -0.232 -0.388 0.388 0.091 -0.171 -0.095 0.447 -0.121 -0.086 -0.151 0.468 -0.283 -0.033 -0.002 -0.175 0.338 0.034 0.056 0.085 -0.171 0.006 0.486 -0.208 0.115 -0.018 0.468 0.23 0.277 -0.138 -0.027 0.143 0.31 -0.204 0.22 -0.399 0.27 -0.306 0.05 -0.042 -0.027 -0.148 -0.126 -0.247 -0.324 -0.349 0.377 -0.051 0.137 0.125 0.109 -0.25 -0.115 -0.124 -0.092 0.108 0.03 0.13 0.16 0.085 -0.198 -0.12 -0.213 0.362 -0.315 0.151 0.105 -0.39 0.032 -0.114 -0.351 0.052 -0.056 0.159 -0.245 0.044 0.184 0.172 -0.247 0.019
alien 0.111 0.065 0.168 0.315 -0.078 0.095 0.074 0.074 -0.378 0.316 0.224 -0.451 -0.003 0.191 -0.305 -0.271 -0.158 -0.075 -0.03 -0.285 -0.148 0.047 0.009 0.043 -0.197 -0.028 -0.122 -0.175 0.088 0.044 -0.054 0.222 -0.04 -0.475 -0.37 -0.419 -0.108 -0.087 -0.167 0.362 -0.008 0.237 -0.017 -0.248 0.063 -0.075 -0.607 0.054 -0.26 0.199 0.111 -0.287 -0.173 -0.151 -0.156 -0.028 0.099 0.089 -0.155 -0.036 -0.534 -0.14 -0.028 -0.059 -0.11 0.211 -0.114 -0.253 0.124 -0.097 -0.188 0.056 0.153 -0.104 -0.057 -0.173 0.085 0.135 0.361 0.019 0.002 0.176 -0.119 0.049 -0.065 -0.32 -0.382 0.192 0.094 -0.046 0.086 0.212 -0.029 0.513 0.122 0.036 0.154 0.103 0.174 -0.009
allergic 0.161 -0.112 -0.339 0.033 -0.171 0.131 -0.046 0.084 -0.041 -0.281 -0.313 0.031 0.11 -0.065 0.023 0.231 -0.039 -0.108 0.008 0.222 0.458 -0.285 -0.072 -0.184 0.283 -0.082 0.039 -0.087 -0.152 -0.139 0.156 -0.125 -0.176 0.127 -0.53 -0.025 -0.042 0.016 -0.135 -0.125 -0.061 0.214 -0.326 -0.057 -0.188 -0.275 -0.164 -0.355 0.054 0.107 -0.15 -0.137 0.099 -0.105 0.003 -0.137 -0.074 -0.143 -0.01 0.007 -0.115 -0.176 -0.027 -0.085 -0.055 -0.248 -0.093 0.32 -0.194 0.031 0.035 0.081 0.083 0.365 -0.042 -0.247 0.203 -0.051 0.07 0.217 -0.168 0.037 0.249 -0.212 -0.188 0.181 -0.021 -0.118 -0.308 -0.226 0.276 0.234 -0.021 0.139 0.084 0.003 -0.056 -0.058 -0.062 0.081
alleviated 0.161 -0.112 -0.339 0.033 -0.171 0.131 -0.046 0.084 -0.041 -0.281 -0.313 0.031 0.11 -0.065 0.023 0.231 -0.039 -0.108 0.008 0.222 0.458 -0.285 -0.072 -0.184 0.283 -0.082 0.039 -0.087 -0.152 -0.139 0.156 -0.125 -0.176 0.127 -0.53 -0.025 -0.042 0.016 -0.135 -0.125 -0.061 0.214 -0.326 -0.057 -0.188 -0.275 -0.164 -0.355 0.054 0.107 -0.15 -0.137 0.099 -0.105 0.003 -0.137 -0.074 -0.143 -0.01 0.007 -0.115 -0.176 -0.027 -0.085 -0.055 -0.248 -0.093 0.32 -0.194 0.031 0.035 0.081 0.083 0.365 -0.042 -0.247 0.203 -0.051 0.07 0.217 -0.168 0.037 0.249 -0.212 -0.188 0.181 -0.021 -0.118 -0.308 -0.226 0.276 0.234 -0.021 0.139 0.084 0.003 -0.056 -0.058 -0.062 0.081
alley 0.161 -0.112 -0.339 0.033 -0.171 0.131 -0.046 0.084 -0.041 -0.281 -0.313 0.031 0.11 -0.065 0.023 0.231 -0.039 -0.108 0.008 0.222 0.458 -0.285 -0.072 -0.184 0.283 -0.082 0.039 -0.087 -0.152 -0.139 0.156 -0.125 -0.176 0.127 -0.53 -0.025 -0.042 0.016 -0.135 -0.125 -0.061 0.214 -0.326 -0.057 -0.188 -0.275 -0.164 -0.355 0.054 0.107 -0.15 -0.137 0.099 -0.105 0.003 -0.137 -0.074 -0.143 -0.01 0.007 -0.115 -0.176 -0.027 -0.085 -0.055 -0.248 -0.093 0.32 -0.194 0.031 0.035 0.081 0.083 0.365 -0.042 -0.247 0.203 -0.051 0.07 0.217 -0.168 0.037 0.249 -0.212 -0.188 0.181 -0.021 -0.118 -0.308 -0.226 0.276 0.234 -0.021 0.139 0.084 0.003 -0.056 -0.058 -0.062 0.081
allow 0.016 -0.448 0.006 -0.328 0.016 -0.015 0.11 0.016 -0.028 -0.065 0.133 0.215 0.041 0.44 0.087 0.108 -0.253 -0.186 -0.292 0.036 -0.187 0.3 0.025 -0.242 0.023 0.113 0.13 0.342 0.274 -0.272 0.069 0.025 -0.029 0.038 0.191 0.081 -0.248 0.354 0.309 -0.316 0.134 0.052 -0.2 0.11 0.28 -0.211 -0.243 0.128 -0.195 -0.142 -0.189 -0.415 0.32 -0.037 0.067 -0.149 0.008 0.059 0.387 0.145 0.294 -0.017 -0.217 -0.07 0.198 0.059 0.325 0.295 0.019 0.073 -0.164 0.314 0.42 0.191 0.03 0.112 -0.152 -0.235 -0.252 0.128 -0.08 0.196 -0.181 0.24 0.047 -0.06 0.07 0.05 0.108 0.189 0.291 0.288 -0.067 0.089 -0.077 -0.091 -0.111 0.088 0.102 -0.166
alloy 0.161 -0.112 -0.339 0.033 -0.171 0.131 -0.046 0.084 -0.041 -0.281 -0.313 0.031 0.11 -0.065 0.023 0.231 -0.039 -0.108 0.008 0.222 0.458 -0.285 -0.072 -0.184 0.283 -0.082 0.039 -0.087 -0.152 -0.139 0.156 -0.125 -0.176 0.127 -0.53 -0.025 -0.042 0.016 -0.135 -0.125 -0.061 0.214 -0.326 -0.057 -0.188 -0.275 -0.164 -0.355 0.054 0.107 -0.15 -0.137 0.099 -0.105 0.003 -0.137 -0.074 -0.143 -0.01 0.007 -0.115 -0.176 -0.027 -0.085 -0.055 -0.248 -0.093 0.32 -0.194 0.031 0.035 0.081 0.083 0.365 -0.042 -0.247 0.203 -0.051 0.07 0.217 -0.168 0.037 0.249 -0.212 -0.188 0.181 -0.021 -0.118 -0.308 -0.226 0.276 0.234 -0.021 0.139 0.084 0.003 -0.056 -0.058 -0.062 0.081
allurement 0.161 -0.112 -0.339 0.033 -0.171 0.131 -0.046 0.084 -0.041 -0.281 -0.313 0.031 0.11 -0.065 0.023 0.231 -0.039 -0.108 0.008 0.222 0.458 -0.285 -0.072 -0.184 0.283 -0.082 0.039 -0.087 -0.152 -0.139 0.156 -0.125 -0.176 0.127 -0.53 -0.025 -0.042 0.016 -0.135 -0.125 -0.061 0.214 -0.326 -0.057 -0.188 -0.275 -0.164 -0.355 0.054 0.107 -0.15 -0.137 0.099 -0.105 0.003 -0.137 -0.074 -0.143 -0.01 0.007 -0.115 -0.176 -0.027 -0.085 -0.055 -0.248 -0.093 0.32 -0.194 0.031 0.035 0.081 0.083 0.365 -0.042 -0.247 0.203 -0.051 0.07 0.217 -0.168 0.037 0.249 -0.212 -0.188 0.181 -0.021 -0.118 -0.308 -0.226 0.276 0.234 -0.021 0.139 0.084 0.003 -0.056 -0.058 -0.062 0.081
alphabet 0.095 -0.176 -0.268 0.093 -0.23 0.082 0.071 -0.196 0.267 0.155 -0.117 -0.434 0.44 0.137 -0.113 -0.05 -0.055 0.039 -0.119 -0.255 0.105 0.103 -0.305 -0.137 -0.155 -0.272 -0.078 0.005 -0.101 -0.213 -0.362 -0.177 -0.048 0.278 -0.017 0.272 0.042 -0.204 0.345 0.069 0.178 -0.019 -0.414 -0.062 -0.047 -0.001 0.069 0.012 0.007 0.096 -0.22 -0.357 -0.431 -0.049 0.16 -0.047 0.197 -0.293 0.093 -0.053 -0.118 0.099 -0.173 -0.146 0.002 0.162 0.014 0.156 0.05 0.233 -0.362 0.016 0.099 0.229 0.152 0.155 0.05 -0.448 0.128 0.036 0.072 -0.161 -0.312 0.226 0.175 0.039 -0.279 -0.279 0.091 0.174 0.024 -0.143 0.189 0.083 -0.087 -0.25 0.145 0.164 0.272 -0.139
alt 0.161 -0.112 -0.339 0.033 -0.171 0.131 -0.046 0.084 -0.041 -0.281 -0.313 0.031 0.11 -0.065 0.023 0.231 -0.039 -0.108 0.008 0.222 0.458 -0.285 -0.072 -0.184 0.283 -0.082 0.039 -0.087 -0.152 -0.139 0.156 -0.125 -0.176 0.127 -0.53 -0.025 -0.042 0.016 -0.135 -0.125 -0.061 0.214 -0.326 -0.057 -0.188 -0.275 -0.164 -0.355 0.054 0.107 -0.15 -0.137 0.099 -0.105 0.003 -0.137 -0.074 -0.143 -0.01 0.007 -0.115 -0.176 -0.027 -0.085 -0.055 -0.248 -0.093 0.32 -0.194 0.031 0.035 0.081 0.083 0.365 -0.042 -0.247 0.203 -0.051 0.07 0.217 -0.168 0.037 0.249 -0.212 -0.188 0.181 -0.021 -0.118 -0.308 -0.226 0.276 0.234 -0.021 0.139 0.084 0.003 -0.056 -0.058 -0.062 0.081
alter -0.278 -0.143 0.272 0.255 -0.06 -0.026 -0.137 0.311 0.163 -0.09 0.185 0.001 -0.016 0.221 -0.401 -0.138 0.505 -0.199 -0.113 0.042 -0.199 0.114 -0.017 0.094 0.004 0.381 -0.002 -0.118 0.12 -0.195 0.225 0.08 0.217 0.367 -0.0 -0.12 -0.276 0.085 0.233 -0.173 0.015 0.012 -0.184 -0.14 -0.058 0.349 -0.139 0.17 -0.001 -0.008 0.345 0.34 -0.06 0.239 0.176 0.062 -0.053 -0.038 -0.185 0.063 0.058 -0.122 -0.113 0.16 0.185 0.311 0.273 0.026 -0.411 0.665 -0.206 -0.001 0.156 -0.18 0.255 0.325 -0.322 -0.115 0.25 0.033 0.036 0.257 -0.222 0.078 0.14 -0.165 0.064 -0.175 -0.225 -0.185 0.021 0.334 0.008 -0.021 0.189 0.002 -0.107 -0.251 -0.181 -0.06
alternative 0.075 0.205 0.149 0.026 0.036 0.197 -0.267 0.178 -0.009 -0.291 -0.032 -0.286 0.225 0.051 0.293 -0.009 -0.013 0.233 -0.244 -0.236 -0.207 0.15 0.004 -0.023 0.123 -0.328 -0.49 -0.089 0.319 -0.345 -0.232 0.216 0.267 0.25 -0.634 0.075 0.036 -0.006 0.631 -0.197 -0.136 -0.152 -0.002 -0.432 0.203 -0.105 0.031 -0.046 -0.192 0.183 0.301 0.163 -0.083 0.097 0.254 -0.466 0.249 0.017 0.204 -0.119 -0.07 0.085 -0.296 0.298 0.12 -0.007 0.228 -0.112 0.355 0.092 -0.123 -0.247 0.088 0.229 -0.222 -0.37 -0.172 0.052 -0.352 -0.039 0.031 0.1 0.008 -0.233 -0.113 0.311 -0.127 -0.102 -0.109 0.038 -0.345 0.192 -0.0 0.253 0.165 0.064 0.16 -0.039 -0.125 -0.15
aluminum 0.161 -0.112 -0.339 0.033 -0.171 0.131 -0.046 0.084 -0.041 -0.281 -0.313 0.031 0.11 -0.065 0.023 0.231 -0.039 -0.108 0.008 0.222 0.458 -0.285 -0.072 -0.184 0.283 -0.082 0.039 -0.087 -0.152 -0.139 0.156 -0.125 -0.176 0.127 -0.53 -0.025 -0.042 0.016 -0.135 -0.125 -0.061 0.214 -0.326 -0.057 -0.188 -0.275 -0.164 -0.355 0.054 0.107 -0.15 -0.137 0.099 -0.105 0.003 -0.137 -0.074 -0.143 -0.01 0.007 -0.115 -0.176 -0.027 -0.085 -0.055 -0.248 -0.093 0.32 -0.194 0.031 0.035 0.081 0.083 0.365 -0.042 -0.247 0.203 -0.051 0.07 0.217 -0.168 0.037 0.249 -0.212 -0.188 0.181 -0.021 -0.118 -0.308 -0.226 0.276 0.234 -0.021 0.139 0.084 0.003 -0.056 -0.058 -0.062 0.081
amateur 0.169 -0.147 0.046 -0.091 -0.114 0.232 0.245 0.034 -0.04 -0.14 -0.062 0.132 -0.145 -0.129 0.004 -0.037 0.177 0.174 0.181 0.117 0.047 -0.223 0.126 0.298 -0.085 -0.073 -0.043 -0.061 -0.091 -0.031 -0.196 -0.212 0.087 -0.08 0.106 -0.599 -0.044 0.071 0.19 0.074 0.253 0.136 -0.217 0.047 0.222 0.065 0.212 -0.274 0.152 0.078 0.583 -0.088 -0.04 -0.208 0.033 0.149 0.261 -0.012 -0.069 -0.099 -0.134 -0.066 0.274 0.186 -0.014 -0.037 -0.082 -0.373 0.079 -0.036 -0.326 0.491 -0.018 0.068 0.197 0.145 0.027 0.069 0.11 -0.278 0.166 -0.178 -0.064 0.274 -0.23 0.134 0.259 -0.239 0.052 0.028 -0.164 -0.124 -0.141 -0.007 -0.067 -0.379 -0.204 0.053 -0.312 0.128
amateurish 0.161 -0.112 -0.339 0.033 -0.171 0.131 -0.046 0.084 -0.041 -0.281 -0.313 0.031 0.11 -0.065 0.023 0.231 -0.039 -0.108 0.008 0.222 0.458 -0.285 -0.072 -0.184 0.283 -0.082 0.039 -0.087 -0.152 -0.139 0.156 -0.125 -0.176 0.127 -0.53 -0.025 -0.042 0.016 -0.135 -0.125 -0.061 0.214 -0.326 -0.057 -0.188 -0.275 -0.164 -0.355 0.054 0.107 -0.15 -0.137 0.099 -0.105 0.003 -0.137 -0.074 -0.143 -0.01 0.007 -0.115 -0.176 -0.027 -0.085 -0.055 -0.248 -0.093 0.32 -0.194 0.031 0.035 0.081 0.083 0.365 -0.042 -0.247 0.203 -0.051 0.07 0.217 -0.168 0.037 0.249 -0.212 -0.188 0.181 -0.021 -0.118 -0.308 -0.226 0.276 0.234 -0.021 0.139 0.084 0.003 -0.056 -0.058 -0.062 0.081
amazings 0.161 -0.112 -0.339 0.033 -0.171 0.131 -0.046 0.084 -0.041 -0.281 -0.313 0.031 0.11 -0.065 0.023 0.231 -0.039 -0.108 0.008 0.222 0.458 -0.285 -0.072 -0.184 0.283 -0.082 0.039 -0.087 -0.152 -0.139 0.156 -0.125 -0.176 0.127 -0.53 -0.025 -0.042 0.016 -0.135 -0.125 -0.061 0.214 -0.326 -0.057 -0.188 -0.275 -0.164 -0.355 0.054 0.107 -0.15 -0.137 0.099 -0.105 0.003 -0.137 -0.074 -0.143 -0.01 0.007 -0.115 -0.176 -0.027 -0.085 -0.055 -0.248 -0.093 0.32 -0.194 0.031 0.035 0.081 0.083 0.365 -0.042 -0.247 0.203 -0.051 0.07 0.217 -0.168 0.037 0.249 -0.212 -0.188 0.181 -0.021 -0.118 -0.308 -0.226 0.276 0.234 -0.021 0.139 0.084 0.003 -0.056 -0.058 -0.062 0.081
ambitious -0.206 0.196 0.039 -0.153 0.095 0.022 0.171 0.023 -0.096 -0.086 -0.033 0.063 -0.044 0.234 -0.05 -0.1 -0.139 0.245 -0.199 -0.104 -0.011 0.043 0.09 -0.156 -0.22 0.222 -0.272 0.037 0.103 -0.122 -0.058 0.305 -0.121 -0.232 0.209 0.025 -0.14 0.059 -0.238 0.07 -0.11 -0.102 0.001 0.009 -0.172 -0.169 0.079 -0.063 -0.072 0.063 -0.191 -0.001 -0.102 0.09 -0.044 -0.103 -0.568 0.073 -0.148 -0.204 -0.007 0.173 -0.447 -0.186 -0.019 0.446 0.221 -0.32 0.044 -0.359 -0.026 0.171 -0.104 0.111 -0.054 -0.183 0.281 -0.026 0.131 0.193 -0.483 0.026 -0.014 -0.037 0.087 -0.335 -0.269 0.168 0.017 -0.096 0.249 -0.12 -0.039 0.115 -0.206 -0.191 0.266 0.196 0.069 -0.325
americanize 0.161 -0.112 -0.339 0.033 -0.171 0.131 -0.046 0.084 -0.041 -0.281 -0.313 0.031 0.11 -0.065 0.023 0.231 -0.039 -0.108 0.008 0.222 0.458 -0.285 -0.072 -0.184 0.283 -0.082 0.039 -0.087 -0.152 -0.139 0.156 -0.125 -0.176 0.127 -0.53 -0.025 -0.042 0.016 -0.135 -0.125 -0.061 0.214 -0.326 -0.057 -0.188 -0.275 -0.164 -0.355 0.054 0.107 -0.15 -0.137 0.099 -0.105 0.003 -0.137 -0.074 -0.143 -0.01 0.007 -0.115 -0.176 -0.027 -0.085 -0.055 -0.248 -0.093 0.32 -0.194 0.031 0.035 0.081 0.083 0.365 -0.042 -0.247 0.203 -0.051 0.07 0.217 -0.168 0.037 0.249 -0.212 -0.188 0.181 -0.021 -0.118 -0.308 -0.226 0.276 0.234 -0.021 0.139 0.084 0.003 -0.056 -0.058 -0.062 0.081
amethysts 0.161 -0.112 -0.339 0.033 -0.171 0.131 -0.046 0.084 -0.041 -0.281 -0.313 0.031 0.11 -0.065 0.023 0.231 -0.039 -0.108 0.008 0.222 0.458 -0.285 -0.072 -0.184 0.283 -0.082 0.039 -0.087 -0.152 -0.139 0.156 -0.125 -0.176 0.127 -0.53 -0.025 -0.042 0.016 -0.135 -0.125 -0.061 0.214 -0.326 -0.057 -0.188 -0.275 -0.164 -0.355 0.054 0.107 -0.15 -0.137 0.099 -0.105 0.003 -0.137 -0.074 -0.143 -0.01 0.007 -0.115 -0.176 -0.027 -0.085 -0.055 -0.248 -0.093 0.32 -0.194 0.031 0.035 0.081 0.083 0.365 -0.042 -0.247 0.203 -0.051 0.07 0.217 -0.168 0.037 0.249 -0.212 -0.188 0.181 -0.021 -0.118 -0.308 -0.226 0.276 0.234 -0.021 0.139 0.084 0.003 -0.056 -0.058 -0.062 0.081
amorphous 0.161 -0.112 -0.339 0.033 -0.171 0.131 -0.046 0.084 -0.041 -0.281 -0.313 0.031 0.11 -0.065 0.023 0.231 -0.039 -0.108 0.008 0.222 0.458 -0.285 -0.072 -0.184 0.283 -0.082 0.039 -0.087 -0.152 -0.139 0.156 -0.125 -0.176 0.127 -0.53 -0.025 -0.042 0.016 -0.135 -0.125 -0.061 0.214 -0.326 -0.057 -0.188 -0.275 -0.164 -0.355 0.054 0.107 -0.15 -0.137 0.099 -0.105 0.003 -0.137 -0.074 -0.143 -0.01 0.007 -0.115 -0.176 -0.027 -0.085 -0.055 -0.248 -0.093 0.32 -0.194 0.031 0.035 0.081 0.083 0.365 -0.042 -0.247 0.203 -0.051 0.07 0.217 -0.168 0.037 0.249 -0.212 -0.188 0.181 -0.021 -0.118 -0.308 -0.226 0.276 0.234 -0.021 0.139 0.084 0.003 -0.056 -0.058 -0.062 0.081
amount -0.148 -0.163 -0.189 -0.219 -0.044 0.248 0.044 -0.18 0.096 -0.022 -0.063 -0.463 0.071 0.39 -0.277 -0.169 0.063 0.434 0.127 0.268 -0.026 -0.373 0.144 0.054 0.073 -0.004 -0.222 0.13 -0.03 -0.273 0.15 0.166 0.391 0.029 -0.117 0.04 0.073 -0.157 0.146 -0.38 0.205 -0.008 0.063 0.02 0.286 -0.169 0.551 -0.081 -0.2 -0.46 -0.038 -0.48 0.09 -0.09 0.195 0.207 -0.148 0.154 0.24 0.16 0.276 -0.309 0.019 -0.049 -0.168 0.297 -0.029 -0.4 0.034 -0.38 0.101 -0.198 0.005 0.269 0.166 -0.267 -0.155 -0.159 0.153 -0.237 -0.401 -0.118 0.321 0.056 0.042 -0.073 -0.382 0.488 0.082 0.295 0.103 0.201 -0.093 0.077 0.016 -0.077 -0.065 0.143 -0.408 0.126
amounted 0.161 -0.112 -0.339 0.033 -0.171 0.131 -0.046 0.084 -0.041 -0.281 -0.313 0.031 0.11 -0.065 0.023 0.231 -0.039 -0.108 0.008 0.222 0.458 -0.285 -0.072 -0.184 0.283 -0.082 0.039 -0.087 -0.152 -0.139 0.156 -0.125 -0.176 0.127 -0.53 -0.025 -0.042 0.016 -0.135 -0.125 -0.061 0.214 -0.326 -0.057 -0.188 -0.275 -0.164 -0.355 0.054 0.107 -0.15 -0.137 0.099 -0.105 0.003 -0.137 -0.074 -0.143 -0.01 0.007 -0.115 -0.176 -0.027 -0.085 -0.055 -0.248 -0.093 0.32 -0.194 0.031 0.035 0.081 0.083 0.365 -0.042 -0.247 0.203 -0.051 0.07 0.217 -0.168 0.037 0.249 -0.212 -0.188 0.181 -0.021 -0.118 -0.308 -0.226 0.276 0.234 -0.021 0.139 0.084 0.003 -0.056 -0.058 -0.062 0.081
amphibian 0.161 -0.112 -0.339 0.033 -0.171 0.131 -0.046 0.084 -0.041 -0.281 -0.313 0.031 0.11 -0.065 0.023 0.231 -0.039 -0.108 0.008 0.222 0.458 -0.285 -0.072 -0.184 0.283 -0.082 0.039 -0.087 -0.152 -0.139 0.156 -0.125 -0.176 0.127 -0.53 -0.025 -0.042 0.016 -0.135 -0.125 -0.061 0.214 -0.326 -0.057 -0.188 -0.275 -0.164 -0.355 0.054 0.107 -0.15 -0.137 0.099 -0.105 0.003 -0.137 -0.074 -0.143 -0.01 0.007 -0.115 -0.176 -0.027 -0.085 -0.055 -0.248 -0.093 0.32 -0.194 0.031 0.035 0.081 0.083 0.365 -0.042 -0.247 0.203 -0.051 0.07 0.217 -0.168 0.037 0.249 -0.212 -0.188 0.181 -0.021 -0.118 -0.308 -0.226 0.276 0.234 -0.021 0.139 0.084 0.003 -0.056 -0.058 -0.062 0.081
amusement 0.161 -0.112 -0.339 0.033 -0.171 0.131 -0.046 0.084 -0.041 -0.281 -0.313 0.031 0.11 -0.065 0.023 0.231 -0.039 -0.108 0.008 0.222 0.458 -0.285 -0.072 -0.184 0.283 -0.082 0.039 -0.087 -0.152 -0.139 0.156 -0.125 -0.176 0.127 -0.53 -0.025 -0.042 0.016 -0.135 -0.125 -0.061 0.214 -0.326 -0.057 -0.188 -0.275 -0.164 -0.355 0.054 0.107 -0.15 -0.137 0.099 -0.105 0.003 -0.137 -0.074 -0.143 -0.01 0.007 -0.115 -0.176 -0.027 -0.085 -0.055 -0.248 -0.093 0.32 -0.194 0.031 0.035 0.081 0.083 0.365 -0.042 -0.247 0.203 -0.051 0.07 0.217 -0.168 0.037 0.249 -0.212 -0.188 0.181 -0.021 -0.118 -0.308 -0.226 0.276 0.234 -0.021 0.139 0.084 0.003 -0.056 -0.058 -0.062 0.081
amusements 0.161 -0.112 -0.339 0.033 -0.171 0.131 -0.046 0.084 -0.041 -0.281 -0.313 0.031 0.11 -0.065 0.023 0.231 -0.039 -0.108 0.008 0.222 0.458 -0.285 -0.072 -0.184 0.283 -0.082 0.039 -0.087 -0.152 -0.139 0.156 -0.125 -0.176 0.127 -0.53 -0.025 -0.042 0.016 -0.135 -0.125 -0.061 0.214 -0.326 -0.057 -0.188 -0.275 -0.164 -0.355 0.054 0.107 -0.15 -0.137 0.099 -0.105 0.003 -0.137 -0.074 -0.143 -0.01 0.007 -0.115 -0.176 -0.027 -0.085 -0.055 -0.248 -0.093 0.32 -0.194 0.031 0.035 0.081 0.083 0.365 -0.042 -0.247 0.203 -0.051 0.07 0.217 -0.168 0.037 0.249 -0.212 -0.188 0.181 -0.021 -0.118 -0.308 -0.226 0.276 0.234 -0.021 0.139 0.084 0.003 -0.056 -0.058 -0.062 0.081
anaesthetics 0.161 -0.112 -0.339 0.033 -0.171 0.131 -0.046 0.084 -0.041 -0.281 -0.313 0.031 0.11 -0.065 0.023 0.231 -0.039 -0.108 0.008 0.222 0.458 -0.285 -0.072 -0.184 0.283 -0.082 0.039 -0.087 -0.152 -0.139 0.156 -0.125 -0.176 0.127 -0.53 -0.025 -0.042 0.016 -0.135 -0.125 -0.061 0.214 -0.326 -0.057 -0.188 -0.275 -0.164 -0.355 0.054 0.107 -0.15 -0.137 0.099 -0.105 0.003 -0.137 -0.074 -0.143 -0.01 0.007 -0.115 -0.176 -0.027 -0.085 -0.055 -0.248 -0.093 0.32 -0.194 0.031 0.035 0.081 0.083 0.365 -0.042 -0.247 0.203 -0.051 0.07 0.217 -0.168 0.037 0.249 -0.212 -0.188 0.181 -0.021 -0.118 -0.308 -0.226 0.276 0.234 -0.021 0.139 0.084 0.003 -0.056 -0.058 -0.062 0.081
analogize 0.161 -0.112 -0.339 0.033 -0.171 0.131 -0.046 0.084 -0.041 -0.281 -0.313 0.031 0.11 -0.065 0.023 0.231 -0.039 -0.108 0.008 0.222 0.458 -0.285 -0.072 -0.184 0.283 -0.082 0.039 -0.087 -0.152 -0.139 0.156 -0.125 -0.176 0.127 -0.53 -0.025 -0.042 0.016 -0.135 -0.125 -0.061 0.214 -0.326 -0.057 -0.188 -0.275 -0.164 -0.355 0.054 0.107 -0.15 -0.137 0.099 -0.105 0.003 -0.137 -0.074 -0.143 -0.01 0.007 -0.115 -0.176 -0.027 -0.085 -0.055 -0.248 -0.093 0.32 -0.194 0.031 0.035 0.081 0.083 0.365 -0.042 -0.247 0.203 -0.051 0.07 0.217 -0.168 0.037 0.249 -0.212 -0.188 0.181 -0.021 -0.118 -0.308 -0.226 0.276 0.234 -0.021 0.139 0.084 0.003 -0.056 -0.058 -0.062 0.081
analogous -0.119 -0.121 -0.101 0.423 -0.082 -0.074 -0.101 0.244 0.041 0.473 0.043 0.015 -0.134 -0.195 0.02 0.188 0.143 0.135 -0.144 0.071 -0.26 0.044 -0.167 -0.05 0.207 -0.313 -0.177 0.419 0.281 -0.043 0.06 0.362 0.14 0.187 -0.183 -0.18 0.167 -0.054 0.056 0.077 -0.048 0.214 0.111 0.036 -0.278 0.069 -0.014 0.117 -0.115 -0.013 0.041 -0.017 0.153 -0.401 0.022 -0.089 -0.202 0.019 0.204 0.162 -0.259 -0.241 0.301 0.218 -0.097 -0.035 -0.076 0.113 -0.42 0.066 -0.147 -0.013 -0.3 0.209 0.005 -0.073 0.225 0.094 0.078 -0.031 0.082 -0.118 0.045 -0.689 -0.087 -0.227 -0.136 -0.495 -0.137 -0.059 0.122 -0.097 0.073 -0.0 -0.225 -0.251 0.03 -0.196 -0.063 -0.164
analyze 0.161 -0.112 -0.339 0.033 -0.171 0.131 -0.046 0.084 -0.041 -0.281 -0.313 0.031 0.11 -0.065 0.023 0.231 -0.039 -0.108 0.008 0.222 0.458 -0.285 -0.072 -0.184 0.283 -0.082 0.039 -0.087 -0.152 -0.139 0.156 -0.125 -0.176 0.127 -0.53 -0.025 -0.042 0.016 -0.135 -0.125 -0.061 0.214 -0.326 -0.057 -0.188 -0.275 -0.164 -0.355 0.054 0.107 -0.15 -0.137 0.099 -0.105 0.003 -0.137 -0.074 -0.143 -0.01 0.007 -0.115 -0.176 -0.027 -0.085 -0.055 -0.248 -0.093 0.32 -0.194 0.031 0.035 0.081 0.083 0.365 -0.042 -0.247 0.203 -0.051 0.07 0.217 -0.168 0.037 0.249 -0.212 -0.188 0.181 -0.021 -0.118 -0.308 -0.226 0.276 0.234 -0.021 0.139 0.084 0.003 -0.056 -0.058 -0.062 0.081
analyzed 0.161 -0.112 -0.339 0.033 -0.171 0.131 -0.046 0.084 -0.041 -0.281 -0.313 0.031 0.11 -0.065 0.023 0.231 -0.039 -0.108 0.008 0.222 0.458 -0.285 -0.072 -0.184 0.283 -0.082 0.039 -0.087 -0.152 -0.139 0.156 -0.125 -0.176 0.127 -0.53 -0.025 -0.042 0.016 -0.135 -0.125 -0.061 0.214 -0.326 -0.057 -0.188 -0.275 -0.164 -0.355 0.054 0.107 -0.15 -0.137 0.099 -0.105 0.003 -0.137 -0.074 -0.143 -0.01 0.007 -0.115 -0.176 -0.027 -0.085 -0.055 -0.248 -0.093 0.32 -0.194 0.031 0.035 0.081 0.083 0.365 -0.042 -0.247 0.203 -0.051 0.07 0.217 -0.168 0.037 0.249 -0.212 -0.188 0.181 -0.021 -0.118 -0.308 -0.226 0.276 0.234 -0.021 0.139 0.084 0.003 -0.056 -0.058 -0.062 0.081
anamorphosis 0.161 -0.112 -0.339 0.033 -0.171 0.131 -0.046 0.084 -0.041 -0.281 -0.313 0.031 0.11 -0.065 0.023 0.231 -0.039 -0.108 0.008 0.222 0.458 -0.285 -0.072 -0.184 0.283 -0.082 0.039 -0.087 -0.152 -0.139 0.156 -0.125 -0.176 0.127 -0.53 -0.025 -0.042 0.016 -0.135 -0.125 -0.061 0.214 -0.326 -0.057 -0.188 -0.275 -0.164 -0.355 0.054 0.107 -0.15 -0.137 0.099 -0.105 0.003 -0.137 -0.074 -0.143 -0.01 0.007 -0.115 -0.176 -0.027 -0.085 -0.055 -0.248 -0.093 0.32 -0.194 0.031 0.035 0.081 0.083 0.365 -0.042 -0.247 0.203 -0.051 0.07 0.217 -0.168 0.037 0.249 -0.212 -0.188 0.181 -0.021 -0.118 -0.308 -0.226 0.276 0.234 -0.021 0.139 0.084 0.003 -0.056 -0.058 -0.062 0.081
anarchist 0.408 -0.435 -0.084 0.123 -0.223 -0.012 0.374 -0.318 0.239 0.076 0.265 0.081 0.013 0.033 0.107 0.103 -0.433 0.067 -0.072 0.319 0.086 -0.289 0.113 0.023 -0.019 -0.444 0.254 -0.304 -0.135 0.022 0.139 0.077 0.538 -0.037 -0.018 -0.199 -0.125 -0.156 0.163 0.124 0.122 -0.215 -0.106 -0.025 0.277 0.343 -0.166 0.3 0.138 0.076 0.177 0.009 -0.098 -0.019 -0.007 -0.017 -0.008 0.11 0.084 0.091 -0.065 0.269 0.065 -0.198 -0.182 0.12 0.036 -0.188 0.076 0.313 -0.201 -0.047 -0.382 0.199 -0.012 -0.363 -0.291 0.131 -0.038 0.322 -0.122 -0.094 -0.293 0.139 -0.141 -0.074 0.164 -0.097 0.231 0.057 0.221 -0.196 0.119 0.328 -0.214 -0.323 0.296 0.141 -0.42 0.175
anatomy -0.268 -0.276 -0.153 0.11 -0.148 -0.066 0.24 -0.325 -0.215 0.199 -0.04 -0.021 -0.111 -0.07 -0.09 0.228 0.236 0.002 -0.069 0.015 -0.256 -0.064 0.046 -0.05 0.247 0.27 0.1 -0.263 -0.032 0.067 -0.112 0.047 0.045 0.093 0.042 0.411 -0.087 0.214 -0.202 -0.065 0.14 -0.312 0.271 -0.455 -0.012 0.023 0.092 0.199 -0.119 0.211 0.101 0.075 -0.069 0.251 0.207 -0.086 -0.116 -0.034 0.32 0.29 0.028 0.027 -0.215 0.119 -0.052 0.155 0.022 0.215 -0.225 0.161 -0.228 -0.358 0.119 0.462 0.064 -0.119 0.037 0.107 -0.065 -0.206 0.163 0.178 0.011 -0.068 0.196 -0.214 0.185 -0.248 0.025 0.09 0.059 -0.158 0.177 0.078 -0.298 0.021 0.006 -0.066 -0.022 0.059
ancient 0.065 -0.364 -0.087 -0.294 -0.074 -0.02 0.235 0.019 0.048 0.136 0.0 0.326 -0.131 -0.064 -0.053 -0.119 -0.064 -0.243 -0.137 0.012 -0.322 -0.45 0.069 -0.392 -0.378 -0.057 0.083 0.178 0.054 0.082 0.171 0.014 0.219 -0.032 0.059 -0.194 -0.05 -0.053 0.288 -0.6 0.074 -0.524 -0.226 0.212 0.238 -0.054 0.003 -0.119 0.144 -0.096 -0.257 -0.099 -0.131 -0.236 -0.232 -0.045 0.145 -0.078 0.183 -0.172 0.141 0.102 -0.119 0.278 0.148 0.358 -0.049 -0.017 0.295 0.115 0.045 0.354 -0.108 -0.062 0.149 -0.155 -0.352 -0.072 -0.321 -0.026 -0.031 0.216 0.161 -0.225 -0.061 0.509 0.3 0.125 0.125 -0.016 -0.125 -0.226 0.147 0.023 0.085 -0.21 0.144 -0.082 0.049 -0.222
